%YAML:1.0
my_svm: !!opencv-ml-svm
   svm_type: C_SVC
   kernel: { type:LINEAR }
   C: 2.6699999999999999e+000
   term_criteria: { epsilon:1.1920928955078125e-007, iterations:1000 }
   var_all: 4096
   var_count: 4096
   class_count: 2
   class_labels: !!opencv-matrix
      rows: 1
      cols: 2
      dt: i
      data: [ 0, 1 ]
   sv_total: 1
   support_vectors:
      - [ 0., 0., 0., 0., 0., 0., 0., 0., 0., 0., 0., 0., 0., 0., 0., 0.,
          0., 0., 0., 0., 0., 0., 0., 0., 0., 0., 0., 0., 0., 0., 0., 0.,
          0., 0., 0., 0., 0., 0., 0., 0., 0., 0., 0., 0., 0., 0., 0., 0.,
          0., 0., 0., 0., 0., 0., 0., 0., 0., 0., 0., 0., 0., 0., 0., 0.,
          0., 4.47611285e-007, 8.34074427e-008, 0., 8.63284640e-007,
          1.96222260e-007, 3.13567142e-007, 0., 0., 4.86097770e-006,
          2.16962735e-006, 0., 3.91140929e-006, 2.39584369e-006,
          6.53919642e-006, 0., 0., 3.78971254e-006, 1.53382848e-006, 0.,
          8.68634197e-006, 1.77295317e-006, 1.32764062e-005, 0., 0.,
          3.51596213e-006, 1.52403879e-006, 0., 3.99876035e-006,
          1.49885602e-006, 5.13571695e-006, 0., 0., 3.34089600e-006,
          5.92098161e-007, 0., 5.00877286e-006, 2.67364885e-006,
          7.84165786e-006, 0., 0., 3.56259170e-006, 1.87680700e-006, 0.,
          4.29997181e-006, 4.39566776e-007, 3.61013690e-006, 0., 0.,
          1.06595860e-006, 1.44291519e-007, 0., 2.97457973e-006,
          7.77725631e-007, 2.51376105e-006, 0., 0., 5.66371057e-007,
          1.08749994e-007, 0., 1.53587166e-006, 4.62889744e-007,
          2.87951275e-006, 0., 0., 4.12845765e-007, 4.47611285e-007,
          8.34074427e-008, 1.05950687e-006, 3.13567142e-007,
          1.08602489e-006, 0., 0., 2.68989288e-006, 4.86097770e-006,
          2.16962735e-006, 6.30725299e-006, 6.53919642e-006,
          7.89453134e-006, 0., 0., 2.11420911e-006, 3.78971254e-006,
          1.53382848e-006, 1.04592955e-005, 1.32764062e-005,
          1.01948654e-005, 0., 0., 5.18234992e-006, 3.51596213e-006,
          1.52403879e-006, 5.49761626e-006, 5.13571695e-006,
          1.35492473e-005, 0., 0., 9.23824064e-006, 3.34089600e-006,
          5.92098161e-007, 7.68242171e-006, 7.84165786e-006,
          1.02605318e-005, 0., 0., 2.26908924e-006, 3.56259170e-006,
          1.87680700e-006, 4.73953833e-006, 3.61013690e-006,
          4.59337525e-006, 0., 0., 3.32304182e-007, 1.06595860e-006,
          1.44291519e-007, 3.75230547e-006, 2.51376105e-006,
          1.24162727e-006, 0., 0., 7.34683908e-007, 5.66371057e-007,
          1.08749994e-007, 1.99876126e-006, 2.87951275e-006,
          2.37206859e-006, 0., 0., 0., 4.12845765e-007, 9.43864507e-007,
          2.45909882e-006, 1.08602489e-006, 0., 0., 0., 0.,
          2.68989288e-006, 9.72049838e-006, 2.07409812e-005,
          7.89453134e-006, 0., 0., 0., 0., 2.11420911e-006,
          7.43775036e-006, 3.39305661e-005, 1.01948654e-005, 0., 0., 0.,
          0., 5.18234992e-006, 1.02223512e-005, 2.41825801e-005,
          1.35492473e-005, 0., 0., 0., 0., 9.23824064e-006,
          1.31712350e-005, 2.57846114e-005, 1.02605318e-005, 0., 0., 0.,
          0., 2.26908924e-006, 7.70848783e-006, 1.29430500e-005,
          4.59337525e-006, 0., 0., 0., 0., 3.32304182e-007,
          1.54255429e-006, 7.50769368e-006, 1.24162727e-006, 0., 0., 0.,
          0., 7.34683908e-007, 1.40980490e-006, 7.25034215e-006,
          2.37206859e-006, 0., 0., 0., 8.00280122e-006, 9.08882612e-006,
          9.59861518e-006, 9.80995083e-006, 8.41564724e-006,
          8.00280122e-006, 8.00280122e-006, 0., 5.56266468e-006,
          1.34571965e-005, 2.23922380e-005, 1.91945728e-005,
          8.25255756e-006, 5.56266468e-006, 5.56266468e-006, 0.,
          1.30537801e-005, 2.32486454e-005, 3.82980033e-005,
          2.91778706e-005, 1.51679887e-005, 1.30537801e-005,
          1.30537801e-005, 0., 9.24093092e-006, 2.27901783e-005,
          2.94247511e-005, 2.34620420e-005, 1.44232808e-005,
          9.24093092e-006, 9.24093092e-006, 0., 1.67282615e-005,
          2.69887933e-005, 3.75041018e-005, 3.49082693e-005,
          2.59665030e-005, 1.67282615e-005, 1.67282615e-005, 0.,
          8.41169094e-006, 1.30050657e-005, 1.70547701e-005,
          2.04201515e-005, 1.06807802e-005, 8.41169094e-006,
          8.41169094e-006, 0., 5.79107018e-006, 7.03269734e-006,
          1.03241846e-005, 1.03082039e-005, 6.12337408e-006,
          5.79107018e-006, 5.79107018e-006, 0., 5.00333226e-006,
          7.37540086e-006, 1.07178030e-005, 7.94900825e-006,
          5.73801617e-006, 5.00333226e-006, 5.00333226e-006, 0.,
          1.08602489e-006, 3.13567142e-007, 1.96222260e-007,
          9.46692069e-007, 4.47611285e-007, 4.12845765e-007, 0., 0.,
          7.89453134e-006, 6.53919642e-006, 2.39584369e-006,
          6.08103664e-006, 4.86097770e-006, 2.68989288e-006, 0., 0.,
          1.01948654e-005, 1.32764062e-005, 1.77295317e-006,
          1.02201702e-005, 3.78971254e-006, 2.11420911e-006, 0., 0.,
          1.35492473e-005, 5.13571695e-006, 1.49885602e-006,
          5.52279926e-006, 3.51596213e-006, 5.18234992e-006, 0., 0.,
          1.02605318e-005, 7.84165786e-006, 2.67364885e-006,
          5.60087074e-006, 3.34089600e-006, 9.23824064e-006, 0., 0.,
          4.59337525e-006, 3.61013690e-006, 4.39566776e-007,
          6.17677870e-006, 3.56259170e-006, 2.26908924e-006, 0., 0.,
          1.24162727e-006, 2.51376105e-006, 7.77725631e-007,
          3.11887129e-006, 1.06595860e-006, 3.32304182e-007, 0., 0.,
          2.37206859e-006, 2.87951275e-006, 4.62889744e-007,
          1.64462153e-006, 5.66371057e-007, 7.34683908e-007, 0., 0.,
          3.13567142e-007, 1.96222260e-007, 0., 8.63284640e-007,
          8.34074427e-008, 4.47611285e-007, 0., 0., 6.53919642e-006,
          2.39584369e-006, 0., 3.91140929e-006, 2.16962735e-006,
          4.86097770e-006, 0., 0., 1.32764062e-005, 1.77295317e-006, 0.,
          8.68634197e-006, 1.53382848e-006, 3.78971254e-006, 0., 0.,
          5.13571695e-006, 1.49885602e-006, 0., 3.99876035e-006,
          1.52403879e-006, 3.51596213e-006, 0., 0., 7.84165786e-006,
          2.67364885e-006, 0., 5.00877286e-006, 5.92098161e-007,
          3.34089600e-006, 0., 0., 3.61013690e-006, 4.39566776e-007, 0.,
          4.29997181e-006, 1.87680700e-006, 3.56259170e-006, 0., 0.,
          2.51376105e-006, 7.77725631e-007, 0., 2.97457973e-006,
          1.44291519e-007, 1.06595860e-006, 0., 0., 2.87951275e-006,
          4.62889744e-007, 0., 1.53587166e-006, 1.08749994e-007,
          5.66371057e-007, 0., 0., 0., 0., 0., 8.63284640e-007, 0., 0.,
          0., 0., 0., 0., 0., 3.91140929e-006, 0., 0., 0., 0., 0., 0.,
          0., 8.68634197e-006, 0., 0., 0., 0., 0., 0., 0.,
          3.99876035e-006, 0., 0., 0., 0., 0., 0., 0., 5.00877286e-006,
          0., 0., 0., 0., 0., 0., 0., 4.29997181e-006, 0., 0., 0., 0.,
          0., 0., 0., 2.97457973e-006, 0., 0., 0., 0., 0., 0., 0.,
          1.53587166e-006, 0., 0., 0., 0., 0., 0., 0., 0., 0., 0., 0.,
          0., 0., 0., 0., 0., 0., 0., 0., 0., 0., 0., 0., 0., 0., 0., 0.,
          0., 0., 0., 0., 0., 0., 0., 0., 0., 0., 0., 0., 0., 0., 0., 0.,
          0., 0., 0., 0., 0., 0., 0., 0., 0., 0., 0., 0., 0., 0., 0., 0.,
          0., 0., 0., 0., 0., 0., 0., 0., 0., 2.87862258e-006,
          4.79780419e-006, 0., 1.03559714e-005, 8.81586584e-006,
          1.99897786e-005, 0., 0., 5.35233085e-006, 1.70816056e-005, 0.,
          2.53107428e-005, 5.89814117e-005, 4.03413687e-005, 0., 0.,
          1.04984501e-005, 1.55546586e-005, 0., 2.12374216e-005,
          5.32690428e-005, 4.08193737e-005, 0., 0., 1.35599676e-005,
          9.99204440e-006, 0., 7.02927537e-006, 7.80522259e-006,
          1.11685104e-005, 0., 0., 9.39818710e-006, 3.76556591e-006, 0.,
          2.98817349e-006, 3.37212032e-006, 8.60142791e-006, 0., 0.,
          2.45956053e-005, 3.76154057e-005, 0., 2.54149654e-005,
          2.52171503e-006, 1.40129814e-005, 0., 0., 2.90641183e-005,
          9.73135866e-006, 0., 1.05996405e-005, 4.78616312e-006,
          6.93076527e-006, 0., 0., 1.01796127e-006, 1.10685299e-007, 0.,
          1.15711657e-006, 1.80978179e-006, 6.97006180e-006, 0., 0.,
          2.64917935e-006, 2.87862258e-006, 4.79780419e-006,
          1.91718373e-005, 1.99897786e-005, 4.90305392e-005, 0., 0.,
          1.77614911e-005, 5.35233085e-006, 1.70816056e-005,
          8.42921581e-005, 4.03413687e-005, 4.88072474e-005, 0., 0.,
          9.16024510e-006, 1.04984501e-005, 1.55546586e-005,
          7.45064681e-005, 4.08193737e-005, 8.69654323e-005, 0., 0.,
          1.25103415e-005, 1.35599676e-005, 9.99204440e-006,
          1.48344980e-005, 1.11685104e-005, 8.71244047e-005, 0., 0.,
          9.70517249e-006, 9.39818710e-006, 3.76556591e-006,
          6.36029381e-006, 8.60142791e-006, 7.94314838e-005, 0., 0.,
          4.03436243e-005, 2.45956053e-005, 3.76154057e-005,
          2.79366795e-005, 1.40129814e-005, 5.07701407e-005, 0., 0.,
          1.01866517e-005, 2.90641183e-005, 9.73135866e-006,
          1.53858036e-005, 6.93076527e-006, 6.75336705e-005, 0., 0.,
          7.82663250e-008, 1.01796127e-006, 1.10685299e-007,
          2.96689836e-006, 6.97006180e-006, 9.16494610e-005, 0., 0., 0.,
          2.64917935e-006, 1.03256061e-005, 8.81921587e-005,
          4.90305392e-005, 0., 0., 0., 0., 1.77614911e-005,
          4.01954276e-005, 1.73440771e-004, 4.88072474e-005, 0., 0., 0.,
          0., 9.16024510e-006, 3.52133538e-005, 2.02291267e-004,
          8.69654323e-005, 0., 0., 0., 0., 1.25103415e-005,
          3.60623526e-005, 1.13127418e-004, 8.71244047e-005, 0., 0., 0.,
          0., 9.70517249e-006, 2.28689260e-005, 9.43932100e-005,
          7.94314838e-005, 0., 0., 0., 0., 4.03436243e-005,
          1.02554637e-004, 9.27198053e-005, 5.07701407e-005, 0., 0., 0.,
          0., 1.01866517e-005, 4.89821286e-005, 8.98502403e-005,
          6.75336705e-005, 0., 0., 0., 0., 7.82663250e-008,
          1.20691300e-006, 1.01586425e-004, 9.16494610e-005, 0., 0., 0.,
          4.33529822e-005, 9.23835250e-005, 1.21189172e-004,
          6.40345606e-005, 4.60021620e-005, 4.33529822e-005,
          4.33529822e-005, 0., 2.83234949e-005, 7.71307386e-005,
          1.76453526e-004, 9.38296653e-005, 4.60849842e-005,
          2.83234949e-005, 2.83234949e-005, 0., 7.61626288e-005,
          1.63128061e-004, 2.57216481e-004, 1.32613408e-004,
          8.53228703e-005, 7.61626288e-005, 7.61626288e-005, 0.,
          1.49257088e-004, 2.36381500e-004, 2.55355233e-004,
          1.92348714e-004, 1.61767428e-004, 1.49257088e-004,
          1.49257088e-004, 0., 1.69939420e-004, 2.49370903e-004,
          2.61344452e-004, 1.95796529e-004, 1.79644601e-004,
          1.69939420e-004, 1.69939420e-004, 0., 6.35465040e-005,
          1.14316652e-004, 1.30851346e-004, 1.91516112e-004,
          1.03890132e-004, 6.35465040e-005, 6.35465040e-005, 0.,
          4.30250402e-005, 1.10558707e-004, 1.22275640e-004,
          1.02606813e-004, 5.32116937e-005, 4.30250402e-005,
          4.30250402e-005, 0., 7.09836531e-005, 1.62633121e-004,
          1.71412961e-004, 7.33476845e-005, 7.10619206e-005,
          7.09836531e-005, 7.09836531e-005, 0., 4.90305392e-005,
          1.99897786e-005, 8.81586584e-006, 1.51537761e-005,
          2.87862258e-006, 2.64917935e-006, 0., 0., 4.88072474e-005,
          4.03413687e-005, 5.89814117e-005, 4.23923484e-005,
          5.35233085e-006, 1.77614911e-005, 0., 0., 8.69654323e-005,
          4.08193737e-005, 5.32690428e-005, 3.67920802e-005,
          1.04984501e-005, 9.16024510e-006, 0., 0., 8.71244047e-005,
          1.11685104e-005, 7.80522259e-006, 1.70213207e-005,
          1.35599676e-005, 1.25103415e-005, 0., 0., 7.94314838e-005,
          8.60142791e-006, 3.37212032e-006, 6.75373940e-006,
          9.39818710e-006, 9.70517249e-006, 0., 0., 5.07701407e-005,
          1.40129814e-005, 2.52171503e-006, 6.30303693e-005,
          2.45956053e-005, 4.03436243e-005, 0., 0., 6.75336705e-005,
          6.93076527e-006, 4.78616312e-006, 2.03309992e-005,
          2.90641183e-005, 1.01866517e-005, 0., 0., 9.16494610e-005,
          6.97006180e-006, 1.80978179e-006, 1.26780185e-006,
          1.01796127e-006, 7.82663250e-008, 0., 0., 1.99897786e-005,
          8.81586584e-006, 0., 1.03559714e-005, 4.79780419e-006,
          2.87862258e-006, 0., 0., 4.03413687e-005, 5.89814117e-005, 0.,
          2.53107428e-005, 1.70816056e-005, 5.35233085e-006, 0., 0.,
          4.08193737e-005, 5.32690428e-005, 0., 2.12374216e-005,
          1.55546586e-005, 1.04984501e-005, 0., 0., 1.11685104e-005,
          7.80522259e-006, 0., 7.02927537e-006, 9.99204440e-006,
          1.35599676e-005, 0., 0., 8.60142791e-006, 3.37212032e-006, 0.,
          2.98817349e-006, 3.76556591e-006, 9.39818710e-006, 0., 0.,
          1.40129814e-005, 2.52171503e-006, 0., 2.54149654e-005,
          3.76154057e-005, 2.45956053e-005, 0., 0., 6.93076527e-006,
          4.78616312e-006, 0., 1.05996405e-005, 9.73135866e-006,
          2.90641183e-005, 0., 0., 6.97006180e-006, 1.80978179e-006, 0.,
          1.15711657e-006, 1.10685299e-007, 1.01796127e-006, 0., 0., 0.,
          0., 0., 1.03559714e-005, 0., 0., 0., 0., 0., 0., 0.,
          2.53107428e-005, 0., 0., 0., 0., 0., 0., 0., 2.12374216e-005,
          0., 0., 0., 0., 0., 0., 0., 7.02927537e-006, 0., 0., 0., 0.,
          0., 0., 0., 2.98817349e-006, 0., 0., 0., 0., 0., 0., 0.,
          2.54149654e-005, 0., 0., 0., 0., 0., 0., 0., 1.05996405e-005,
          0., 0., 0., 0., 0., 0., 0., 1.15711657e-006, 0., 0., 0., 0.,
          0., 0., 0., 0., 0., 0., 0., 0., 0., 0., 0., 0., 0., 0., 0., 0.,
          0., 0., 0., 0., 0., 0., 0., 0., 0., 0., 0., 0., 0., 0., 0., 0.,
          0., 0., 0., 0., 0., 0., 0., 0., 0., 0., 0., 0., 0., 0., 0., 0.,
          0., 0., 0., 0., 0., 0., 0., 0., 0., 0., 0., 0., 0., 0., 0., 0.,
          1.10350475e-005, 1.03360908e-005, 0., 3.67304747e-005,
          6.19754210e-005, 5.82693647e-005, 0., 0., 2.52391692e-005,
          9.29923699e-005, 0., 1.09113571e-004, 1.34934220e-004,
          5.80413871e-005, 0., 0., 3.92288712e-005, 4.12296176e-005, 0.,
          3.45914341e-005, 5.38559434e-005, 2.07706853e-005, 0., 0.,
          1.72131477e-005, 9.85933639e-006, 0., 9.24466622e-006,
          1.70233252e-005, 8.56045790e-006, 0., 0., 1.27235990e-005,
          1.22744450e-005, 0., 9.88497050e-006, 1.53629226e-005,
          1.77545207e-005, 0., 0., 5.08397243e-005, 8.51772857e-005, 0.,
          3.79632729e-005, 1.39453687e-005, 2.03867748e-005, 0., 0.,
          3.03095094e-005, 5.97340040e-005, 0., 3.54837866e-005,
          2.78492607e-005, 1.98155813e-005, 0., 0., 3.27097632e-006,
          9.61564729e-006, 0., 5.24495454e-006, 5.05783191e-006,
          4.80275867e-006, 0., 0., 1.01373362e-005, 1.10350475e-005,
          1.03360908e-005, 9.87058957e-005, 5.82693647e-005,
          4.91052597e-005, 0., 0., 1.86774832e-005, 2.52391692e-005,
          9.29923699e-005, 2.44047784e-004, 5.80413871e-005,
          2.84748421e-005, 0., 0., 2.38147604e-005, 3.92288712e-005,
          4.12296176e-005, 8.84473775e-005, 2.07706853e-005,
          7.72597632e-005, 0., 0., 2.26774573e-005, 1.72131477e-005,
          9.85933639e-006, 2.62679914e-005, 8.56045790e-006,
          8.64524554e-005, 0., 0., 2.91553079e-005, 1.27235990e-005,
          1.22744450e-005, 2.52478912e-005, 1.77545207e-005,
          8.29037162e-005, 0., 0., 3.74884221e-005, 5.08397243e-005,
          8.51772857e-005, 5.19086425e-005, 2.03867748e-005,
          6.97357973e-005, 0., 0., 1.70921230e-005, 3.03095094e-005,
          5.97340040e-005, 6.33330492e-005, 1.98155813e-005,
          5.60732806e-005, 0., 0., 5.03864294e-006, 3.27097632e-006,
          9.61564729e-006, 1.03027869e-005, 4.80275867e-006,
          5.04677810e-005, 0., 0., 0., 1.01373362e-005, 3.15084762e-005,
          2.06080527e-004, 4.91052597e-005, 0., 0., 0., 0.,
          1.86774832e-005, 1.36909031e-004, 3.30564013e-004,
          2.84748421e-005, 0., 0., 0., 0., 2.38147604e-005,
          1.04273247e-004, 1.86477831e-004, 7.72597632e-005, 0., 0., 0.,
          0., 2.26774573e-005, 4.97499386e-005, 1.21280900e-004,
          8.64524554e-005, 0., 0., 0., 0., 2.91553079e-005,
          5.41533518e-005, 1.25906139e-004, 8.29037162e-005, 0., 0., 0.,
          0., 3.74884221e-005, 1.73505439e-004, 1.42031218e-004,
          6.97357973e-005, 0., 0., 0., 0., 1.70921230e-005,
          1.07135638e-004, 1.39221913e-004, 5.60732806e-005, 0., 0., 0.,
          0., 5.03864294e-006, 1.79252656e-005, 6.55733238e-005,
          5.04677810e-005, 0., 0., 0., 6.07665897e-005, 1.09871849e-004,
          2.30116639e-004, 1.29005537e-004, 7.09039305e-005,
          6.07665897e-005, 6.07665897e-005, 0., 4.72088723e-005,
          7.56837180e-005, 2.68659322e-004, 2.93231453e-004,
          6.58863573e-005, 4.72088723e-005, 4.72088723e-005, 0.,
          1.34574409e-004, 2.11834165e-004, 2.86460796e-004,
          2.73439102e-004, 1.58389172e-004, 1.34574409e-004,
          1.34574409e-004, 0., 2.17707813e-004, 3.04160261e-004,
          3.29744042e-004, 2.76702427e-004, 2.40385270e-004,
          2.17707813e-004, 2.17707813e-004, 0., 2.23077368e-004,
          3.05981084e-004, 3.39098537e-004, 2.87115690e-004,
          2.52232683e-004, 2.23077368e-004, 2.23077368e-004, 0.,
          1.47438346e-004, 2.17174151e-004, 2.51506310e-004,
          3.58907069e-004, 1.84926772e-004, 1.47438346e-004,
          1.47438346e-004, 0., 3.26840272e-005, 8.87573115e-005,
          1.36422153e-004, 1.75303445e-004, 4.97761503e-005,
          3.26840272e-005, 3.26840272e-005, 0., 4.36997507e-005,
          9.41675316e-005, 1.04028120e-004, 6.68699649e-005,
          4.87383913e-005, 4.36997507e-005, 4.36997507e-005, 0.,
          4.91052597e-005, 5.82693647e-005, 6.19754210e-005,
          4.70665655e-005, 1.10350475e-005, 1.01373362e-005, 0., 0.,
          2.84748421e-005, 5.80413871e-005, 1.34934220e-004,
          2.02105948e-004, 2.52391692e-005, 1.86774832e-005, 0., 0.,
          7.72597632e-005, 2.07706853e-005, 5.38559434e-005,
          7.58210444e-005, 3.92288712e-005, 2.38147604e-005, 0., 0.,
          8.64524554e-005, 8.56045790e-006, 1.70233252e-005,
          1.91040035e-005, 1.72131477e-005, 2.26774573e-005, 0., 0.,
          8.29037162e-005, 1.77545207e-005, 1.53629226e-005,
          2.21594146e-005, 1.27235990e-005, 2.91553079e-005, 0., 0.,
          6.97357973e-005, 2.03867748e-005, 1.39453687e-005,
          1.23140548e-004, 5.08397243e-005, 3.74884221e-005, 0., 0.,
          5.60732806e-005, 1.98155813e-005, 2.78492607e-005,
          9.52177943e-005, 3.03095094e-005, 1.70921230e-005, 0., 0.,
          5.04677810e-005, 4.80275867e-006, 5.05783191e-006,
          1.48606014e-005, 3.27097632e-006, 5.03864294e-006, 0., 0.,
          5.82693647e-005, 6.19754210e-005, 0., 3.67304747e-005,
          1.03360908e-005, 1.10350475e-005, 0., 0., 5.80413871e-005,
          1.34934220e-004, 0., 1.09113571e-004, 9.29923699e-005,
          2.52391692e-005, 0., 0., 2.07706853e-005, 5.38559434e-005, 0.,
          3.45914341e-005, 4.12296176e-005, 3.92288712e-005, 0., 0.,
          8.56045790e-006, 1.70233252e-005, 0., 9.24466622e-006,
          9.85933639e-006, 1.72131477e-005, 0., 0., 1.77545207e-005,
          1.53629226e-005, 0., 9.88497050e-006, 1.22744450e-005,
          1.27235990e-005, 0., 0., 2.03867748e-005, 1.39453687e-005, 0.,
          3.79632729e-005, 8.51772857e-005, 5.08397243e-005, 0., 0.,
          1.98155813e-005, 2.78492607e-005, 0., 3.54837866e-005,
          5.97340040e-005, 3.03095094e-005, 0., 0., 4.80275867e-006,
          5.05783191e-006, 0., 5.24495454e-006, 9.61564729e-006,
          3.27097632e-006, 0., 0., 0., 0., 0., 3.67304747e-005, 0., 0.,
          0., 0., 0., 0., 0., 1.09113571e-004, 0., 0., 0., 0., 0., 0.,
          0., 3.45914341e-005, 0., 0., 0., 0., 0., 0., 0.,
          9.24466622e-006, 0., 0., 0., 0., 0., 0., 0., 9.88497050e-006,
          0., 0., 0., 0., 0., 0., 0., 3.79632729e-005, 0., 0., 0., 0.,
          0., 0., 0., 3.54837866e-005, 0., 0., 0., 0., 0., 0., 0.,
          5.24495454e-006, 0., 0., 0., 0., 0., 0., 0., 0., 0., 0., 0.,
          0., 0., 0., 0., 0., 0., 0., 0., 0., 0., 0., 0., 0., 0., 0., 0.,
          0., 0., 0., 0., 0., 0., 0., 0., 0., 0., 0., 0., 0., 0., 0., 0.,
          0., 0., 0., 0., 0., 0., 0., 0., 0., 0., 0., 0., 0., 0., 0., 0.,
          0., 0., 0., 0., 0., 0., 0., 0., 0., 8.71136035e-006,
          2.50667526e-005, 0., 5.40256915e-005, 2.27524415e-005,
          2.45745905e-005, 0., 0., 1.50215137e-005, 5.67203497e-005, 0.,
          1.55832793e-004, 3.59086698e-005, 2.77911786e-005, 0., 0.,
          1.12196767e-005, 2.04603457e-005, 0., 1.16775127e-005,
          9.82193069e-006, 1.21270878e-005, 0., 0., 9.72482303e-006,
          5.76772709e-006, 0., 3.69268264e-006, 8.42290865e-006,
          1.55959533e-005, 0., 0., 1.36984818e-005, 8.68443840e-006, 0.,
          7.56809231e-006, 5.91244225e-006, 4.16819739e-006, 0., 0.,
          2.72853631e-005, 9.65665968e-005, 0., 5.04517957e-005,
          2.45150732e-005, 3.63237705e-005, 0., 0., 1.36507706e-005,
          7.92525097e-005, 0., 7.05010170e-005, 1.05157087e-005,
          1.81745454e-005, 0., 0., 6.23452843e-006, 5.46977071e-006, 0.,
          1.79781262e-006, 4.69204633e-006, 3.30700641e-006, 0., 0.,
          7.88071702e-006, 8.71136035e-006, 2.50667526e-005,
          7.67781312e-005, 2.45745905e-005, 1.94532549e-005, 0., 0.,
          2.15342861e-005, 1.50215137e-005, 5.67203497e-005,
          1.91741463e-004, 2.77911786e-005, 4.99911257e-005, 0., 0.,
          2.71089939e-005, 1.12196767e-005, 2.04603457e-005,
          2.14994434e-005, 1.21270878e-005, 1.00507008e-004, 0., 0.,
          1.29500149e-005, 9.72482303e-006, 5.76772709e-006,
          1.21155917e-005, 1.55959533e-005, 4.18420823e-005, 0., 0.,
          1.14734885e-005, 1.36984818e-005, 8.68443840e-006,
          1.34805341e-005, 4.16819739e-006, 1.37073308e-004, 0., 0.,
          2.21293885e-005, 2.72853631e-005, 9.65665968e-005,
          7.49668689e-005, 3.63237705e-005, 1.03874379e-004, 0., 0.,
          1.09514340e-005, 1.36507706e-005, 7.92525097e-005,
          8.10167257e-005, 1.81745454e-005, 2.54501520e-005, 0., 0.,
          3.30110538e-006, 6.23452843e-006, 5.46977071e-006,
          6.48985861e-006, 3.30700641e-006, 1.48997096e-005, 0., 0., 0.,
          7.88071702e-006, 4.16588300e-005, 1.20805977e-004,
          1.94532549e-005, 0., 0., 0., 0., 2.15342861e-005,
          9.32761541e-005, 2.69523764e-004, 4.99911257e-005, 0., 0., 0.,
          0., 2.71089939e-005, 5.87890172e-005, 1.34133530e-004,
          1.00507008e-004, 0., 0., 0., 0., 1.29500149e-005,
          2.84425660e-005, 6.95536291e-005, 4.18420823e-005, 0., 0., 0.,
          0., 1.14734885e-005, 3.38564059e-005, 1.54722045e-004,
          1.37073308e-004, 0., 0., 0., 0., 2.21293885e-005,
          1.45981350e-004, 2.15165026e-004, 1.03874379e-004, 0., 0., 0.,
          0., 1.09514340e-005, 1.03854713e-004, 1.24641418e-004,
          2.54501520e-005, 0., 0., 0., 0., 3.30110538e-006,
          1.50054038e-005, 2.46965737e-005, 1.48997096e-005, 0., 0., 0.,
          3.15400757e-005, 5.09933343e-005, 9.83203645e-005,
          1.27224601e-004, 3.94207927e-005, 3.15400757e-005,
          3.15400757e-005, 0., 8.05232121e-005, 1.30514338e-004,
          1.94214183e-004, 3.29632167e-004, 1.02057493e-004,
          8.05232121e-005, 8.05232121e-005, 0., 1.93879416e-004,
          2.94386409e-004, 3.16335441e-004, 2.64345959e-004,
          2.20988411e-004, 1.93879416e-004, 1.93879416e-004, 0.,
          2.94674421e-004, 3.36516503e-004, 3.60535341e-004,
          3.26809648e-004, 3.07624403e-004, 2.94674421e-004,
          2.94674421e-004, 0., 2.45829695e-004, 3.82902974e-004,
          3.92983638e-004, 2.87254195e-004, 2.57303182e-004,
          2.45829695e-004, 2.45829695e-004, 0., 1.38869786e-004,
          2.42744165e-004, 3.03583016e-004, 3.35302902e-004,
          1.60999174e-004, 1.38869786e-004, 1.38869786e-004, 0.,
          1.98001635e-005, 4.52503155e-005, 7.39405732e-005,
          1.94155902e-004, 3.07515984e-005, 1.98001635e-005,
          1.98001635e-005, 0., 2.56985422e-005, 4.05982501e-005,
          4.85973069e-005, 4.25017606e-005, 2.89996478e-005,
          2.56985422e-005, 2.56985422e-005, 0., 1.94532549e-005,
          2.45745905e-005, 2.27524415e-005, 7.90924460e-005,
          8.71136035e-006, 7.88071702e-006, 0., 0., 4.99911257e-005,
          2.77911786e-005, 3.59086698e-005, 2.12553146e-004,
          1.50215137e-005, 2.15342861e-005, 0., 0., 1.00507008e-004,
          1.21270878e-005, 9.82193069e-006, 3.21378575e-005,
          1.12196767e-005, 2.71089939e-005, 0., 0., 4.18420823e-005,
          1.55959533e-005, 8.42290865e-006, 9.46041018e-006,
          9.72482303e-006, 1.29500149e-005, 0., 0., 1.37073308e-004,
          4.16819739e-006, 5.91244225e-006, 1.62525303e-005,
          1.36984818e-005, 1.14734885e-005, 0., 0., 1.03874379e-004,
          3.63237705e-005, 2.45150732e-005, 1.47018392e-004,
          2.72853631e-005, 2.21293885e-005, 0., 0., 2.54501520e-005,
          1.81745454e-005, 1.05157087e-005, 1.49753527e-004,
          1.36507706e-005, 1.09514340e-005, 0., 0., 1.48997096e-005,
          3.30700641e-006, 4.69204633e-006, 7.26758344e-006,
          6.23452843e-006, 3.30110538e-006, 0., 0., 2.45745905e-005,
          2.27524415e-005, 0., 5.40256915e-005, 2.50667526e-005,
          8.71136035e-006, 0., 0., 2.77911786e-005, 3.59086698e-005, 0.,
          1.55832793e-004, 5.67203497e-005, 1.50215137e-005, 0., 0.,
          1.21270878e-005, 9.82193069e-006, 0., 1.16775127e-005,
          2.04603457e-005, 1.12196767e-005, 0., 0., 1.55959533e-005,
          8.42290865e-006, 0., 3.69268264e-006, 5.76772709e-006,
          9.72482303e-006, 0., 0., 4.16819739e-006, 5.91244225e-006, 0.,
          7.56809231e-006, 8.68443840e-006, 1.36984818e-005, 0., 0.,
          3.63237705e-005, 2.45150732e-005, 0., 5.04517957e-005,
          9.65665968e-005, 2.72853631e-005, 0., 0., 1.81745454e-005,
          1.05157087e-005, 0., 7.05010170e-005, 7.92525097e-005,
          1.36507706e-005, 0., 0., 3.30700641e-006, 4.69204633e-006, 0.,
          1.79781262e-006, 5.46977071e-006, 6.23452843e-006, 0., 0., 0.,
          0., 0., 5.40256915e-005, 0., 0., 0., 0., 0., 0., 0.,
          1.55832793e-004, 0., 0., 0., 0., 0., 0., 0., 1.16775127e-005,
          0., 0., 0., 0., 0., 0., 0., 3.69268264e-006, 0., 0., 0., 0.,
          0., 0., 0., 7.56809231e-006, 0., 0., 0., 0., 0., 0., 0.,
          5.04517957e-005, 0., 0., 0., 0., 0., 0., 0., 7.05010170e-005,
          0., 0., 0., 0., 0., 0., 0., 1.79781262e-006, 0., 0., 0., 0.,
          0., 0., 0., 0., 0., 0., 0., 0., 0., 0., 0., 0., 0., 0., 0., 0.,
          0., 0., 0., 0., 0., 0., 0., 0., 0., 0., 0., 0., 0., 0., 0., 0.,
          0., 0., 0., 0., 0., 0., 0., 0., 0., 0., 0., 0., 0., 0., 0., 0.,
          0., 0., 0., 0., 0., 0., 0., 0., 0., 0., 0., 0., 0., 0., 0., 0.,
          1.96634574e-005, 3.43714200e-005, 0., 5.48138814e-005,
          2.72933976e-005, 2.89693580e-005, 0., 0., 3.87318651e-005,
          5.87480572e-005, 0., 6.97171999e-005, 2.63502479e-005,
          2.45309511e-005, 0., 0., 1.94846780e-005, 1.84655109e-005, 0.,
          4.95389650e-005, 1.09635930e-005, 3.27649250e-005, 0., 0.,
          1.72416076e-005, 7.07466870e-006, 0., 6.77662865e-006,
          4.95473796e-006, 7.80368737e-006, 0., 0., 1.98143425e-005,
          1.11097288e-005, 0., 9.63008097e-006, 1.08832392e-005,
          3.02231183e-005, 0., 0., 1.66923601e-005, 6.44065876e-005, 0.,
          5.38701679e-005, 2.45518877e-005, 8.35683750e-005, 0., 0.,
          1.81950945e-005, 3.62509199e-005, 0., 3.15602192e-005,
          1.40820712e-005, 3.88673579e-005, 0., 0., 9.84930375e-006,
          5.76079810e-006, 0., 8.91183754e-006, 1.20884015e-005,
          1.92184725e-005, 0., 0., 2.78766820e-005, 1.96634574e-005,
          3.43714200e-005, 8.21072827e-005, 2.89693580e-005,
          6.48451460e-005, 0., 0., 1.89439343e-005, 3.87318651e-005,
          5.87480572e-005, 9.60674442e-005, 2.45309511e-005,
          2.77388244e-005, 0., 0., 2.68042677e-005, 1.94846780e-005,
          1.84655109e-005, 6.05025598e-005, 3.27649250e-005,
          5.18560082e-005, 0., 0., 7.06899882e-005, 1.72416076e-005,
          7.07466870e-006, 1.17313657e-005, 7.80368737e-006,
          3.10658252e-005, 0., 0., 6.85880223e-005, 1.98143425e-005,
          1.11097288e-005, 2.05133201e-005, 3.02231183e-005,
          9.13691765e-005, 0., 0., 4.33800960e-006, 1.66923601e-005,
          6.44065876e-005, 7.84220538e-005, 8.35683750e-005,
          1.67218852e-004, 0., 0., 6.46164926e-006, 1.81950945e-005,
          3.62509199e-005, 4.56422895e-005, 3.88673579e-005,
          6.71050584e-005, 0., 0., 1.37508059e-005, 9.84930375e-006,
          5.76079810e-006, 2.10002381e-005, 1.92184725e-005,
          2.51455749e-005, 0., 0., 0., 2.78766820e-005, 8.19115594e-005,
          1.75921770e-004, 6.48451460e-005, 0., 0., 0., 0.,
          1.89439343e-005, 1.16423857e-004, 1.48337218e-004,
          2.77388244e-005, 0., 0., 0., 0., 2.68042677e-005,
          6.47544584e-005, 1.45123500e-004, 5.18560082e-005, 0., 0., 0.,
          0., 7.06899882e-005, 9.50062677e-005, 5.06008764e-005,
          3.10658252e-005, 0., 0., 0., 0., 6.85880223e-005,
          9.95120936e-005, 1.42105622e-004, 9.13691765e-005, 0., 0., 0.,
          0., 4.33800960e-006, 8.54369573e-005, 3.29209288e-004,
          1.67218852e-004, 0., 0., 0., 0., 6.46164926e-006,
          6.09076633e-005, 1.51614702e-004, 6.71050584e-005, 0., 0., 0.,
          0., 1.37508059e-005, 2.93609064e-005, 6.53642855e-005,
          2.51455749e-005, 0., 0., 0., 8.94003242e-005, 1.54245470e-004,
          2.10508224e-004, 2.26125761e-004, 1.17277006e-004,
          8.94003242e-005, 8.94003242e-005, 0., 5.90907985e-005,
          8.68296192e-005, 1.37710827e-004, 2.45231844e-004,
          7.80347327e-005, 5.90907985e-005, 5.90907985e-005, 0.,
          9.01759558e-005, 1.42031960e-004, 1.85760480e-004,
          2.04469368e-004, 1.16980220e-004, 9.01759558e-005,
          9.01759558e-005, 0., 1.00506673e-004, 1.31572495e-004,
          1.44330916e-004, 2.02289564e-004, 1.71196662e-004,
          1.00506673e-004, 1.00506673e-004, 0., 6.80012599e-005,
          1.59370436e-004, 2.00476803e-004, 1.77143433e-004,
          1.36589282e-004, 6.80012599e-005, 6.80012599e-005, 0.,
          6.93403563e-005, 2.36559208e-004, 3.44679458e-004,
          2.08647485e-004, 7.36783622e-005, 6.93403563e-005,
          6.93403563e-005, 0., 4.06664003e-005, 1.07771455e-004,
          1.60720898e-004, 1.33134279e-004, 4.71280473e-005,
          4.06664003e-005, 4.06664003e-005, 0., 6.71425805e-005,
          9.22881518e-005, 1.23595019e-004, 1.05415325e-004,
          8.08933837e-005, 6.71425805e-005, 6.71425805e-005, 0.,
          6.48451460e-005, 2.89693580e-005, 2.72933976e-005,
          8.91852978e-005, 1.96634574e-005, 2.78766820e-005, 0., 0.,
          2.77388244e-005, 2.45309511e-005, 2.63502479e-005,
          1.28465254e-004, 3.87318651e-005, 1.89439343e-005, 0., 0.,
          5.18560082e-005, 3.27649250e-005, 1.09635930e-005,
          6.80044759e-005, 1.94846780e-005, 2.68042677e-005, 0., 0.,
          3.10658252e-005, 7.80368737e-006, 4.95473796e-006,
          1.38512969e-005, 1.72416076e-005, 7.06899882e-005, 0., 0.,
          9.13691765e-005, 3.02231183e-005, 1.08832392e-005,
          2.07398098e-005, 1.98143425e-005, 6.85880223e-005, 0., 0.,
          1.67218852e-004, 8.35683750e-005, 2.45518877e-005,
          1.18276745e-004, 1.66923601e-005, 4.33800960e-006, 0., 0.,
          6.71050584e-005, 3.88673579e-005, 1.40820712e-005,
          6.78111392e-005, 1.81950945e-005, 6.46164926e-006, 0., 0.,
          2.51455749e-005, 1.92184725e-005, 1.20884015e-005,
          1.46726361e-005, 9.84930375e-006, 1.37508059e-005, 0., 0.,
          2.89693580e-005, 2.72933976e-005, 0., 5.48138814e-005,
          3.43714200e-005, 1.96634574e-005, 0., 0., 2.45309511e-005,
          2.63502479e-005, 0., 6.97171999e-005, 5.87480572e-005,
          3.87318651e-005, 0., 0., 3.27649250e-005, 1.09635930e-005, 0.,
          4.95389650e-005, 1.84655109e-005, 1.94846780e-005, 0., 0.,
          7.80368737e-006, 4.95473796e-006, 0., 6.77662865e-006,
          7.07466870e-006, 1.72416076e-005, 0., 0., 3.02231183e-005,
          1.08832392e-005, 0., 9.63008097e-006, 1.11097288e-005,
          1.98143425e-005, 0., 0., 8.35683750e-005, 2.45518877e-005, 0.,
          5.38701679e-005, 6.44065876e-005, 1.66923601e-005, 0., 0.,
          3.88673579e-005, 1.40820712e-005, 0., 3.15602192e-005,
          3.62509199e-005, 1.81950945e-005, 0., 0., 1.92184725e-005,
          1.20884015e-005, 0., 8.91183754e-006, 5.76079810e-006,
          9.84930375e-006, 0., 0., 0., 0., 0., 5.48138814e-005, 0., 0.,
          0., 0., 0., 0., 0., 6.97171999e-005, 0., 0., 0., 0., 0., 0.,
          0., 4.95389650e-005, 0., 0., 0., 0., 0., 0., 0.,
          6.77662865e-006, 0., 0., 0., 0., 0., 0., 0., 9.63008097e-006,
          0., 0., 0., 0., 0., 0., 0., 5.38701679e-005, 0., 0., 0., 0.,
          0., 0., 0., 3.15602192e-005, 0., 0., 0., 0., 0., 0., 0.,
          8.91183754e-006, 0., 0., 0., 0., 0., 0., 0., 0., 0., 0., 0.,
          0., 0., 0., 0., 0., 0., 0., 0., 0., 0., 0., 0., 0., 0., 0., 0.,
          0., 0., 0., 0., 0., 0., 0., 0., 0., 0., 0., 0., 0., 0., 0., 0.,
          0., 0., 0., 0., 0., 0., 0., 0., 0., 0., 0., 0., 0., 0., 0., 0.,
          0., 0., 0., 0., 0., 0., 0., 0., 0., 3.05263347e-005,
          4.33119421e-005, 0., 2.17249144e-005, 1.88342547e-005,
          1.75334117e-005, 0., 0., 2.49582445e-005, 7.50917097e-005, 0.,
          1.05716477e-004, 2.72150555e-005, 2.74316862e-005, 0., 0.,
          5.82664325e-006, 2.54087336e-005, 0., 3.34841679e-005,
          1.51903878e-005, 2.47296011e-005, 0., 0., 2.05773922e-005,
          7.98752535e-006, 0., 7.01128647e-006, 1.00444167e-005,
          9.28925601e-006, 0., 0., 8.91699710e-006, 1.19543211e-005, 0.,
          8.93130982e-006, 2.17039233e-005, 4.33017885e-005, 0., 0.,
          2.92329332e-005, 5.97183825e-005, 0., 6.09262097e-005,
          2.00937830e-005, 3.62489736e-005, 0., 0., 2.63479433e-005,
          2.69594857e-005, 0., 6.90166416e-005, 1.92572788e-005,
          2.24183132e-005, 0., 0., 8.30196404e-006, 8.87549231e-006, 0.,
          1.05621521e-005, 7.06646051e-006, 1.55184880e-005, 0., 0.,
          1.51822705e-005, 3.05263347e-005, 4.33119421e-005,
          4.05591709e-005, 1.75334117e-005, 1.00410298e-005, 0., 0.,
          1.76488429e-005, 2.49582445e-005, 7.50917097e-005,
          1.32931527e-004, 2.74316862e-005, 2.45327847e-005, 0., 0.,
          1.15967705e-005, 5.82664325e-006, 2.54087336e-005,
          4.86745594e-005, 2.47296011e-005, 4.59529583e-005, 0., 0.,
          4.35434777e-005, 2.05773922e-005, 7.98752535e-006,
          1.70557032e-005, 9.28925601e-006, 3.26165900e-005, 0., 0.,
          1.64707199e-005, 8.91699710e-006, 1.19543211e-005,
          3.06352340e-005, 4.33017885e-005, 1.18036303e-004, 0., 0.,
          4.45090300e-005, 2.92329332e-005, 5.97183825e-005,
          8.10199926e-005, 3.62489736e-005, 9.46722430e-005, 0., 0.,
          2.55737486e-005, 2.63479433e-005, 2.69594857e-005,
          8.82739259e-005, 2.24183132e-005, 3.02112312e-005, 0., 0.,
          9.91339766e-006, 8.30196404e-006, 8.87549231e-006,
          1.76286121e-005, 1.55184880e-005, 1.58532912e-005, 0., 0., 0.,
          1.51822705e-005, 8.90205483e-005, 6.81336096e-005,
          1.00410298e-005, 0., 0., 0., 0., 1.76488429e-005,
          1.17698793e-004, 1.84896009e-004, 2.45327847e-005, 0., 0., 0.,
          0., 1.15967705e-005, 4.28321473e-005, 1.19357115e-004,
          4.59529583e-005, 0., 0., 0., 0., 4.35434777e-005,
          7.21083925e-005, 5.89615447e-005, 3.26165900e-005, 0., 0., 0.,
          0., 1.64707199e-005, 3.73420371e-005, 1.91973319e-004,
          1.18036303e-004, 0., 0., 0., 0., 4.45090300e-005,
          1.33460344e-004, 2.11941209e-004, 9.46722430e-005, 0., 0., 0.,
          0., 2.55737486e-005, 7.88811813e-005, 1.40903474e-004,
          3.02112312e-005, 0., 0., 0., 0., 9.91339766e-006,
          2.70908531e-005, 4.90003913e-005, 1.58532912e-005, 0., 0., 0.,
          4.63936558e-005, 5.64346847e-005, 9.28023510e-005,
          1.57139119e-004, 6.15759272e-005, 4.63936558e-005,
          4.63936558e-005, 0., 3.09198294e-005, 5.54526123e-005,
          1.10099354e-004, 2.54335115e-004, 4.85686724e-005,
          3.09198294e-005, 3.09198294e-005, 0., 3.90874811e-005,
          8.50404394e-005, 1.24960425e-004, 1.15403796e-004,
          5.06842516e-005, 3.90874811e-005, 3.90874811e-005, 0.,
          6.99188822e-005, 1.02535465e-004, 1.21869140e-004,
          1.49038562e-004, 1.13462360e-004, 6.99188822e-005,
          6.99188822e-005, 0., 7.92894207e-005, 1.97325717e-004,
          2.62331421e-004, 1.25562772e-004, 9.57601442e-005,
          7.92894207e-005, 7.92894207e-005, 0., 4.76703863e-005,
          1.42342629e-004, 1.98685389e-004, 2.42056951e-004,
          9.21794126e-005, 4.76703863e-005, 4.76703863e-005, 0.,
          4.63589895e-005, 7.65702207e-005, 1.18245815e-004,
          1.94256805e-004, 7.19327363e-005, 4.63589895e-005,
          4.63589895e-005, 0., 4.89845370e-005, 6.48378264e-005,
          8.74227771e-005, 8.66375412e-005, 5.88979310e-005,
          4.89845370e-005, 4.89845370e-005, 0., 1.00410298e-005,
          1.75334117e-005, 1.88342547e-005, 6.50368602e-005,
          3.05263347e-005, 1.51822705e-005, 0., 0., 2.45327847e-005,
          2.74316862e-005, 2.72150555e-005, 1.80808187e-004,
          2.49582445e-005, 1.76488429e-005, 0., 0., 4.59529583e-005,
          2.47296011e-005, 1.51903878e-005, 5.88928997e-005,
          5.82664325e-006, 1.15967705e-005, 0., 0., 3.26165900e-005,
          9.28925601e-006, 1.00444167e-005, 1.49988118e-005,
          2.05773922e-005, 4.35434777e-005, 0., 0., 1.18036303e-004,
          4.33017885e-005, 2.17039233e-005, 2.08856309e-005,
          8.91699710e-006, 1.64707199e-005, 0., 0., 9.46722430e-005,
          3.62489736e-005, 2.00937830e-005, 1.20644596e-004,
          2.92329332e-005, 4.45090300e-005, 0., 0., 3.02112312e-005,
          2.24183132e-005, 1.92572788e-005, 9.59761310e-005,
          2.63479433e-005, 2.55737486e-005, 0., 0., 1.58532912e-005,
          1.55184880e-005, 7.06646051e-006, 1.94376444e-005,
          8.30196404e-006, 9.91339766e-006, 0., 0., 1.75334117e-005,
          1.88342547e-005, 0., 2.17249144e-005, 4.33119421e-005,
          3.05263347e-005, 0., 0., 2.74316862e-005, 2.72150555e-005, 0.,
          1.05716477e-004, 7.50917097e-005, 2.49582445e-005, 0., 0.,
          2.47296011e-005, 1.51903878e-005, 0., 3.34841679e-005,
          2.54087336e-005, 5.82664325e-006, 0., 0., 9.28925601e-006,
          1.00444167e-005, 0., 7.01128647e-006, 7.98752535e-006,
          2.05773922e-005, 0., 0., 4.33017885e-005, 2.17039233e-005, 0.,
          8.93130982e-006, 1.19543211e-005, 8.91699710e-006, 0., 0.,
          3.62489736e-005, 2.00937830e-005, 0., 6.09262097e-005,
          5.97183825e-005, 2.92329332e-005, 0., 0., 2.24183132e-005,
          1.92572788e-005, 0., 6.90166416e-005, 2.69594857e-005,
          2.63479433e-005, 0., 0., 1.55184880e-005, 7.06646051e-006, 0.,
          1.05621521e-005, 8.87549231e-006, 8.30196404e-006, 0., 0., 0.,
          0., 0., 2.17249144e-005, 0., 0., 0., 0., 0., 0., 0.,
          1.05716477e-004, 0., 0., 0., 0., 0., 0., 0., 3.34841679e-005,
          0., 0., 0., 0., 0., 0., 0., 7.01128647e-006, 0., 0., 0., 0.,
          0., 0., 0., 8.93130982e-006, 0., 0., 0., 0., 0., 0., 0.,
          6.09262097e-005, 0., 0., 0., 0., 0., 0., 0., 6.90166416e-005,
          0., 0., 0., 0., 0., 0., 0., 1.05621521e-005, 0., 0., 0., 0.,
          0., 0., 0., 0., 0., 0., 0., 0., 0., 0., 0., 0., 0., 0., 0., 0.,
          0., 0., 0., 0., 0., 0., 0., 0., 0., 0., 0., 0., 0., 0., 0., 0.,
          0., 0., 0., 0., 0., 0., 0., 0., 0., 0., 0., 0., 0., 0., 0., 0.,
          0., 0., 0., 0., 0., 0., 0., 0., 0., 0., 0., 0., 0., 0., 0., 0.,
          1.78010014e-005, 3.06969523e-005, 0., 2.55999184e-005,
          1.68121078e-005, 1.03656985e-005, 0., 0., 1.10510437e-005,
          2.43435752e-005, 0., 1.86186498e-005, 2.24769101e-005,
          3.02789977e-005, 0., 0., 1.69086297e-006, 6.32453748e-007, 0.,
          2.38907114e-006, 3.27160251e-006, 9.58994860e-006, 0., 0.,
          1.11949957e-005, 4.76254445e-006, 0., 3.39391977e-006,
          7.54612620e-006, 1.44399055e-005, 0., 0., 6.12861186e-006,
          1.23733053e-005, 0., 7.08612424e-006, 5.87896466e-006,
          3.32679847e-005, 0., 0., 2.48545384e-005, 2.63796737e-005, 0.,
          3.24205648e-005, 1.97614445e-005, 3.39160761e-005, 0., 0.,
          9.84128837e-006, 6.51329765e-006, 0., 1.05873860e-005,
          1.70464409e-005, 1.67989892e-005, 0., 0., 5.05179332e-006,
          9.56643134e-007, 0., 1.88640990e-006, 2.67188034e-006,
          2.10832013e-006, 0., 0., 3.06552647e-005, 1.78010014e-005,
          3.06969523e-005, 4.24120262e-005, 1.03656985e-005,
          1.40155507e-005, 0., 0., 2.04088992e-005, 1.10510437e-005,
          2.43435752e-005, 4.10955618e-005, 3.02789977e-005,
          4.05169230e-005, 0., 0., 2.82635610e-005, 1.69086297e-006,
          6.32453748e-007, 5.66067365e-006, 9.58994860e-006,
          8.04461306e-005, 0., 0., 3.04971381e-005, 1.11949957e-005,
          4.76254445e-006, 1.09400462e-005, 1.44399055e-005,
          6.09024173e-005, 0., 0., 1.04571427e-005, 6.12861186e-006,
          1.23733053e-005, 1.29650880e-005, 3.32679847e-005,
          1.02869468e-004, 0., 0., 2.92577042e-005, 2.48545384e-005,
          2.63796737e-005, 5.21820075e-005, 3.39160761e-005,
          7.89465121e-005, 0., 0., 3.36216835e-005, 9.84128837e-006,
          6.51329765e-006, 2.76338269e-005, 1.67989892e-005,
          4.89110862e-005, 0., 0., 1.64394314e-005, 5.05179332e-006,
          9.56643134e-007, 4.55829013e-006, 2.10832013e-006,
          1.46034990e-005, 0., 0., 0., 3.06552647e-005, 7.91532148e-005,
          6.67932763e-005, 1.40155507e-005, 0., 0., 0., 0.,
          2.04088992e-005, 5.58035208e-005, 1.11891481e-004,
          4.05169230e-005, 0., 0., 0., 0., 2.82635610e-005,
          3.05868780e-005, 9.56967560e-005, 8.04461306e-005, 0., 0., 0.,
          0., 3.04971381e-005, 4.64546793e-005, 8.62823726e-005,
          6.09024173e-005, 0., 0., 0., 0., 1.04571427e-005,
          2.89590607e-005, 1.49102547e-004, 1.02869468e-004, 0., 0., 0.,
          0., 2.92577042e-005, 8.04919109e-005, 1.65044592e-004,
          7.89465121e-005, 0., 0., 0., 0., 3.36216835e-005,
          4.99762718e-005, 9.33439005e-005, 4.89110862e-005, 0., 0., 0.,
          0., 1.64394314e-005, 2.24478681e-005, 2.12701107e-005,
          1.46034990e-005, 0., 0., 0., 3.82328071e-005, 5.22483570e-005,
          7.94261650e-005, 1.42985940e-004, 6.88880682e-005,
          3.82328071e-005, 3.82328071e-005, 0., 8.62561428e-005,
          1.26773069e-004, 1.79528972e-004, 1.60678304e-004,
          1.06665044e-004, 8.62561428e-005, 8.62561428e-005, 0.,
          1.33627065e-004, 2.14073210e-004, 2.26934746e-004,
          1.66603015e-004, 1.61890624e-004, 1.33627065e-004,
          1.33627065e-004, 0., 2.06072189e-004, 2.66974617e-004,
          2.88960640e-004, 2.55920779e-004, 2.36569336e-004,
          2.06072189e-004, 2.06072189e-004, 0., 1.10858149e-004,
          2.13727631e-004, 2.52874568e-004, 1.46903330e-004,
          1.21315294e-004, 1.10858149e-004, 1.10858149e-004, 0.,
          1.29186956e-004, 2.08133468e-004, 2.61810987e-004,
          2.42099428e-004, 1.58444658e-004, 1.29186956e-004,
          1.29186956e-004, 0., 8.93859396e-005, 1.38297037e-004,
          1.72142449e-004, 1.49949599e-004, 1.23007630e-004,
          8.93859396e-005, 8.93859396e-005, 0., 6.70976224e-005,
          8.17011241e-005, 8.64813264e-005, 9.14318953e-005,
          8.35370520e-005, 6.70976224e-005, 6.70976224e-005, 0.,
          1.40155507e-005, 1.03656985e-005, 1.68121078e-005,
          5.62968708e-005, 1.78010014e-005, 3.06552647e-005, 0., 0.,
          4.05169230e-005, 3.02789977e-005, 2.24769101e-005,
          4.29622269e-005, 1.10510437e-005, 2.04088992e-005, 0., 0.,
          8.04461306e-005, 9.58994860e-006, 3.27160251e-006,
          3.02152489e-006, 1.69086297e-006, 2.82635610e-005, 0., 0.,
          6.09024173e-005, 1.44399055e-005, 7.54612620e-006,
          8.15646399e-006, 1.11949957e-005, 3.04971381e-005, 0., 0.,
          1.02869468e-004, 3.32679847e-005, 5.87896466e-006,
          1.94594304e-005, 6.12861186e-006, 1.04571427e-005, 0., 0.,
          7.89465121e-005, 3.39160761e-005, 1.97614445e-005,
          5.88002367e-005, 2.48545384e-005, 2.92577042e-005, 0., 0.,
          4.89110862e-005, 1.67989892e-005, 1.70464409e-005,
          1.71006832e-005, 9.84128837e-006, 3.36216835e-005, 0., 0.,
          1.46034990e-005, 2.10832013e-006, 2.67188034e-006,
          2.84305293e-006, 5.05179332e-006, 1.64394314e-005, 0., 0.,
          1.03656985e-005, 1.68121078e-005, 0., 2.55999184e-005,
          3.06969523e-005, 1.78010014e-005, 0., 0., 3.02789977e-005,
          2.24769101e-005, 0., 1.86186498e-005, 2.43435752e-005,
          1.10510437e-005, 0., 0., 9.58994860e-006, 3.27160251e-006, 0.,
          2.38907114e-006, 6.32453748e-007, 1.69086297e-006, 0., 0.,
          1.44399055e-005, 7.54612620e-006, 0., 3.39391977e-006,
          4.76254445e-006, 1.11949957e-005, 0., 0., 3.32679847e-005,
          5.87896466e-006, 0., 7.08612424e-006, 1.23733053e-005,
          6.12861186e-006, 0., 0., 3.39160761e-005, 1.97614445e-005, 0.,
          3.24205648e-005, 2.63796737e-005, 2.48545384e-005, 0., 0.,
          1.67989892e-005, 1.70464409e-005, 0., 1.05873860e-005,
          6.51329765e-006, 9.84128837e-006, 0., 0., 2.10832013e-006,
          2.67188034e-006, 0., 1.88640990e-006, 9.56643134e-007,
          5.05179332e-006, 0., 0., 0., 0., 0., 2.55999184e-005, 0., 0.,
          0., 0., 0., 0., 0., 1.86186498e-005, 0., 0., 0., 0., 0., 0.,
          0., 2.38907114e-006, 0., 0., 0., 0., 0., 0., 0.,
          3.39391977e-006, 0., 0., 0., 0., 0., 0., 0., 7.08612424e-006,
          0., 0., 0., 0., 0., 0., 0., 3.24205648e-005, 0., 0., 0., 0.,
          0., 0., 0., 1.05873860e-005, 0., 0., 0., 0., 0., 0., 0.,
          1.88640990e-006, 0., 0., 0., 0., 0., 0., 0., 0., 0., 0., 0.,
          0., 0., 0., 0., 0., 0., 0., 0., 0., 0., 0., 0., 0., 0., 0., 0.,
          0., 0., 0., 0., 0., 0., 0., 0., 0., 0., 0., 0., 0., 0., 0., 0.,
          0., 0., 0., 0., 0., 0., 0., 0., 0., 0., 0., 0., 0., 0., 0., 0.,
          0., 0., 0., 0., 0., 0., 0., 0., 0., 2.41176931e-005,
          9.73804617e-006, 0., 3.29097602e-005, 9.59359022e-006,
          1.29248619e-005, 0., 0., 3.13841633e-006, 3.02156491e-006, 0.,
          1.19701672e-005, 8.17385796e-007, 2.80574704e-006, 0., 0.,
          1.16357614e-006, 1.78444438e-007, 0., 2.84968678e-006,
          5.64750167e-007, 1.05328218e-006, 0., 0., 7.13169129e-007,
          6.34538992e-007, 0., 2.89532818e-006, 1.07368464e-006,
          3.05662024e-006, 0., 0., 1.33269600e-006, 1.73914714e-006, 0.,
          7.13186000e-006, 2.41760904e-006, 5.11818143e-006, 0., 0.,
          8.86958878e-006, 1.23864183e-005, 0., 8.49375192e-006,
          1.42031895e-005, 2.46621694e-005, 0., 0., 1.25560509e-005,
          4.44184252e-006, 0., 1.60995678e-005, 3.11364920e-006,
          9.11799998e-006, 0., 0., 2.46121890e-005, 5.35571826e-006, 0.,
          1.38231080e-005, 9.02045667e-006, 1.11902591e-005, 0., 0.,
          3.99950259e-005, 2.41176931e-005, 9.73804617e-006,
          4.25033504e-005, 1.29248619e-005, 1.12574271e-005, 0., 0.,
          9.82999791e-006, 3.13841633e-006, 3.02156491e-006,
          1.27875537e-005, 2.80574704e-006, 1.00597963e-005, 0., 0.,
          2.87633520e-006, 1.16357614e-006, 1.78444438e-007,
          3.41443683e-006, 1.05328218e-006, 1.95017583e-005, 0., 0.,
          3.50375171e-006, 7.13169129e-007, 6.34538992e-007,
          3.96901260e-006, 3.05662024e-006, 2.68262011e-005, 0., 0.,
          1.15577768e-006, 1.33269600e-006, 1.73914714e-006,
          9.54946881e-006, 5.11818143e-006, 2.02174779e-005, 0., 0.,
          3.12042248e-005, 8.86958878e-006, 1.23864183e-005,
          2.26969423e-005, 2.46621694e-005, 1.89374186e-005, 0., 0.,
          4.69113766e-005, 1.25560509e-005, 4.44184252e-006,
          1.92132175e-005, 9.11799998e-006, 1.45019721e-005, 0., 0.,
          5.51259473e-005, 2.46121890e-005, 5.35571826e-006,
          2.28435656e-005, 1.11902591e-005, 2.70595428e-005, 0., 0., 0.,
          3.99950259e-005, 7.38507661e-005, 6.66856358e-005,
          1.12574271e-005, 0., 0., 0., 0., 9.82999791e-006,
          1.59899791e-005, 2.56530966e-005, 1.00597963e-005, 0., 0., 0.,
          0., 2.87633520e-006, 4.21835557e-006, 2.39694782e-005,
          1.95017583e-005, 0., 0., 0., 0., 3.50375171e-006,
          4.85145983e-006, 3.38518330e-005, 2.68262011e-005, 0., 0., 0.,
          0., 1.15577768e-006, 4.22762105e-006, 3.48851281e-005,
          2.02174779e-005, 0., 0., 0., 0., 3.12042248e-005,
          5.24602328e-005, 6.62965249e-005, 1.89374186e-005, 0., 0., 0.,
          0., 4.69113766e-005, 6.39092686e-005, 4.28331914e-005,
          1.45019721e-005, 0., 0., 0., 0., 5.51259473e-005,
          8.50938522e-005, 6.10933639e-005, 2.70595428e-005, 0., 0., 0.,
          5.59208420e-005, 6.71782691e-005, 8.96967176e-005,
          1.62681361e-004, 9.59158642e-005, 5.59208420e-005,
          5.59208420e-005, 0., 3.81496830e-005, 4.82094802e-005,
          5.18326124e-005, 6.61098311e-005, 4.79796799e-005,
          3.81496830e-005, 3.81496830e-005, 0., 5.97632388e-005,
          7.92650026e-005, 8.08830300e-005, 6.68312859e-005,
          6.26395777e-005, 5.97632388e-005, 5.97632388e-005, 0.,
          5.35524196e-005, 8.03786170e-005, 8.45089235e-005,
          6.12992080e-005, 5.70561715e-005, 5.35524196e-005,
          5.35524196e-005, 0., 3.35857258e-005, 5.38032000e-005,
          6.13389930e-005, 4.49452054e-005, 3.47415007e-005,
          3.35857258e-005, 3.35857258e-005, 0., 3.59574879e-005,
          5.48949065e-005, 9.37602599e-005, 9.69114772e-005,
          6.71617163e-005, 3.59574879e-005, 3.59574879e-005, 0.,
          8.52397134e-005, 9.97416864e-005, 1.11973335e-004,
          1.65248552e-004, 1.32151094e-004, 8.52397134e-005,
          8.52397134e-005, 0., 9.77049058e-005, 1.24764454e-004,
          1.44975173e-004, 1.96621870e-004, 1.52830849e-004,
          9.77049058e-005, 9.77049058e-005, 0., 1.12574271e-005,
          1.29248619e-005, 9.59359022e-006, 4.26478073e-005,
          2.41176931e-005, 3.99950259e-005, 0., 0., 1.00597963e-005,
          2.80574704e-006, 8.17385796e-007, 1.49917332e-005,
          3.13841633e-006, 9.82999791e-006, 0., 0., 1.95017583e-005,
          1.05328218e-006, 5.64750167e-007, 3.02813123e-006,
          1.16357614e-006, 2.87633520e-006, 0., 0., 2.68262011e-005,
          3.05662024e-006, 1.07368464e-006, 3.52986717e-006,
          7.13169129e-007, 3.50375171e-006, 0., 0., 2.02174779e-005,
          5.11818143e-006, 2.41760904e-006, 8.87100668e-006,
          1.33269600e-006, 1.15577768e-006, 0., 0., 1.89374186e-005,
          2.46621694e-005, 1.42031895e-005, 2.08801703e-005,
          8.86958878e-006, 3.12042248e-005, 0., 0., 1.45019721e-005,
          9.11799998e-006, 3.11364920e-006, 2.05414108e-005,
          1.25560509e-005, 4.69113766e-005, 0., 0., 2.70595428e-005,
          1.11902591e-005, 9.02045667e-006, 1.91788276e-005,
          2.46121890e-005, 5.51259473e-005, 0., 0., 1.29248619e-005,
          9.59359022e-006, 0., 3.29097602e-005, 9.73804617e-006,
          2.41176931e-005, 0., 0., 2.80574704e-006, 8.17385796e-007, 0.,
          1.19701672e-005, 3.02156491e-006, 3.13841633e-006, 0., 0.,
          1.05328218e-006, 5.64750167e-007, 0., 2.84968678e-006,
          1.78444438e-007, 1.16357614e-006, 0., 0., 3.05662024e-006,
          1.07368464e-006, 0., 2.89532818e-006, 6.34538992e-007,
          7.13169129e-007, 0., 0., 5.11818143e-006, 2.41760904e-006, 0.,
          7.13186000e-006, 1.73914714e-006, 1.33269600e-006, 0., 0.,
          2.46621694e-005, 1.42031895e-005, 0., 8.49375192e-006,
          1.23864183e-005, 8.86958878e-006, 0., 0., 9.11799998e-006,
          3.11364920e-006, 0., 1.60995678e-005, 4.44184252e-006,
          1.25560509e-005, 0., 0., 1.11902591e-005, 9.02045667e-006, 0.,
          1.38231080e-005, 5.35571826e-006, 2.46121890e-005, 0., 0., 0.,
          0., 0., 3.29097602e-005, 0., 0., 0., 0., 0., 0., 0.,
          1.19701672e-005, 0., 0., 0., 0., 0., 0., 0., 2.84968678e-006,
          0., 0., 0., 0., 0., 0., 0., 2.89532818e-006, 0., 0., 0., 0.,
          0., 0., 0., 7.13186000e-006, 0., 0., 0., 0., 0., 0., 0.,
          8.49375192e-006, 0., 0., 0., 0., 0., 0., 0., 1.60995678e-005,
          0., 0., 0., 0., 0., 0., 0., 1.38231080e-005, 0., 0., 0. ]
   decision_functions:
      -
         sv_count: 1
         rho: 1.0000000023940976e+000
         alpha: [ 1. ]
         index: [ 0 ]
