%YAML:1.0
my_svm: !!opencv-ml-svm
   svm_type: C_SVC
   kernel: { type:LINEAR }
   C: 2.6699999999999999e+000
   term_criteria: { epsilon:1.1920928955078125e-007, iterations:1000 }
   var_all: 1024
   var_count: 1024
   class_count: 3
   class_labels: !!opencv-matrix
      rows: 1
      cols: 3
      dt: i
      data: [ 0, 1, 2 ]
   sv_total: 3
   support_vectors:
      - [ 0., 0., 0., 0., 0., 0., 0., 0., 0., 0., 0., 0., 0., 0., 0., 0.,
          0., 0., 0., 0., 0., 0., 0., 0., 0., 0., 0., 0., 0., 0., 0., 0.,
          0., -2.96390383e-004, 4.80325520e-003, 0., 0., 1.90953462e-004,
          4.04743245e-004, 0., 0., 2.42645759e-003, -2.06490653e-003, 0.,
          0., 1.08157669e-003, 1.64486526e-003, 0., 0., 1.12282159e-003,
          -5.79858432e-003, 0., 0., 2.24419544e-003, -4.71790554e-003,
          0., 0., 4.61113965e-003, -1.07281674e-002, 0., 0.,
          1.81329693e-003, -9.24480427e-003, 0., 0., 4.84219193e-003,
          1.00627786e-003, 6.70802023e-004, 0., -4.23159916e-004,
          1.78552920e-003, 3.83336243e-004, 0., 1.33090443e-003,
          4.21996042e-003, 2.59465678e-003, 0., 1.17698422e-004,
          2.99418718e-003, 1.92722247e-004, 0., -8.22310522e-003,
          2.30987696e-003, -6.18733291e-004, 0., -5.52515825e-003,
          4.36890125e-003, 6.58726436e-004, 0., -1.49803599e-002,
          3.43670393e-003, -2.71331356e-003, 0., -1.01836761e-002,
          -1.84025313e-003, -2.29621073e-003, 0., 0., 6.31866162e-004,
          0., 0., 0., 1.21123949e-003, 0., 0., 0., -8.01153714e-004, 0.,
          0., 0., 1.71988830e-003, 0., 0., 0., 1.80578849e-003, 0., 0.,
          0., 1.46597938e-003, 0., 0., 0., 1.53887796e-003, 0., 0., 0.,
          -1.35733909e-003, 0., 0., 0., 0., 0., 0., 0., 0., 0., 0., 0.,
          0., 0., 0., 0., 0., 0., 0., 0., 0., 0., 0., 0., 0., 0., 0., 0.,
          0., 0., 0., 0., 0., 0., 0., 3.21906933e-004, 8.61507561e-003,
          0., 0., 1.01691554e-003, 7.41297659e-003, 0., 0.,
          5.80226211e-003, -9.53185279e-003, 0., 0., 4.49542422e-003,
          -5.90865407e-003, 0., 0., 1.38206617e-003, -3.87031469e-003,
          0., 0., 3.76938633e-003, -4.97367326e-003, 0., 0.,
          -4.89578233e-004, 4.79638577e-003, 0., 0., -2.02034810e-003,
          -2.95440201e-003, 0., 0., 7.67820235e-003, -4.70657920e-004,
          -8.64718924e-004, 0., 5.64698270e-003, -6.51923881e-004,
          -1.71741680e-003, 0., -1.20204324e-002, 7.92698096e-003,
          -1.81930023e-004, 0., -4.96264314e-003, 7.07713095e-003,
          1.76385837e-003, 0., -2.96352571e-003, 5.08860731e-003,
          2.30666483e-003, 0., -3.79354996e-003, 8.54539499e-003,
          2.97806645e-003, 0., 3.64578236e-003, -1.90198584e-003,
          -1.28150533e-003, 0., -2.10040272e-003, -7.41066120e-004,
          1.06664060e-003, 0., 0., 7.21540418e-005, 0., 0., 0.,
          4.85774108e-005, 0., 0., 0., 2.30664876e-003, 0., 0., 0.,
          8.17847729e-004, 0., 0., 0., 1.39987620e-003, 0., 0., 0.,
          1.79794291e-003, 0., 0., 0., -1.30902103e-004, 0., 0., 0.,
          2.12641564e-004, 0., 0., 0., 0., 0., 0., 0., 0., 0., 0., 0.,
          0., 0., 0., 0., 0., 0., 0., 0., 0., 0., 0., 0., 0., 0., 0., 0.,
          0., 0., 0., 0., 0., 0., 0., -2.76541577e-005, -2.42234371e-003,
          0., 0., 8.17809079e-004, 2.28186767e-003, 0., 0.,
          2.97666388e-003, -2.64381408e-003, 0., 0., 1.04638305e-003,
          -3.09501053e-003, 0., 0., 2.41542491e-003, -8.76732450e-003,
          0., 0., 5.99889783e-003, -3.28334793e-003, 0., 0.,
          3.57146055e-004, -2.71908217e-003, 0., 0., 1.70878542e-003,
          -8.97077098e-003, 0., 0., 1.09258096e-003, 5.55301737e-003,
          4.54779807e-003, 0., -1.41149736e-004, 1.94746666e-004,
          -1.52304035e-003, 0., 8.73993617e-004, 7.30156805e-003,
          3.92135605e-003, 0., -4.75682551e-003, 5.61476918e-004,
          -1.07336079e-003, 0., -5.50056342e-003, 7.34127592e-003,
          4.09630593e-003, 0., -1.58390065e-003, 1.42340045e-002,
          4.96727694e-003, 0., -2.87075434e-003, -1.26885978e-004,
          -3.17852304e-004, 0., -2.85021635e-003, 6.46809628e-003,
          5.43993246e-003, 0., 0., 1.03287352e-003, 0., 0., 0.,
          8.99977575e-004, 0., 0., 0., 4.03548125e-004, 0., 0., 0.,
          5.88454714e-004, 0., 0., 0., 8.29545315e-004, 0., 0., 0.,
          3.26783024e-003, 0., 0., 0., -1.66179670e-004, 0., 0., 0.,
          -6.80621772e-004, 0., 0., 0., 0., 0., 0., 0., 0., 0., 0., 0.,
          0., 0., 0., 0., 0., 0., 0., 0., 0., 0., 0., 0., 0., 0., 0., 0.,
          0., 0., 0., 0., 0., 0., 0., 1.58294814e-003, 5.31224720e-003,
          0., 0., 2.96347163e-004, -3.93860537e-004, 0., 0.,
          6.29541092e-003, -6.45719282e-003, 0., 0., 4.21873294e-003,
          -3.49635421e-003, 0., 0., -2.75562663e-004, 3.21410014e-003,
          0., 0., 2.98508792e-003, -1.02112833e-002, 0., 0.,
          3.76397860e-004, -1.08613595e-002, 0., 0., -1.20381103e-003,
          -7.50442361e-003, 0., 0., -6.16332982e-004, -6.51362701e-004,
          -4.08144481e-003, 0., -4.62503033e-003, 3.92126432e-003,
          -3.03126610e-004, 0., -6.47156686e-003, 7.60489469e-003,
          6.47555222e-004, 0., -7.31075741e-003, 1.82649400e-003,
          -3.10332142e-003, 0., 1.78482721e-003, 5.72372228e-004,
          -2.90669850e-004, 0., -3.31880781e-003, 1.08521180e-002,
          7.37975352e-003, 0., -1.04210787e-002, 1.26166048e-003,
          6.62771461e-004, 0., -1.36520872e-002, -7.84585439e-003,
          -6.39485335e-003, 0., 0., 1.84713409e-003, 0., 0., 0.,
          3.92804388e-003, 0., 0., 0., 6.61928905e-004, 0., 0., 0.,
          7.11082364e-004, 0., 0., 0., 1.13860494e-003, 0., 0., 0.,
          4.87276644e-004, 0., 0., 0., 2.22491100e-004, 0., 0., 0.,
          -2.47189717e-004, 0., 0., 0., 0., 0., 0., 0., 0., 0., 0., 0.,
          0., 0., 0., 0., 0., 0., 0., 0., 0., 0., 0., 0., 0., 0., 0., 0.,
          0., 0., 0., 0., 0., 0., 0., 6.80812009e-005, -5.05490229e-004,
          0., 0., 4.71050473e-004, -1.33480539e-003, 0., 0.,
          4.10063472e-003, -8.83938652e-003, 0., 0., 1.59143610e-003,
          -1.50825328e-003, 0., 0., 6.96372008e-005, 8.95405421e-004, 0.,
          0., 6.01967517e-003, -5.54055296e-005, 0., 0., 1.50087476e-003,
          5.55553706e-003, 0., 0., -1.23119191e-003, -1.03152040e-002,
          0., 0., -3.01828329e-003, 8.70846925e-005, -1.24689564e-003,
          0., -2.92284996e-003, 2.15548812e-003, 4.81958596e-005, 0.,
          -5.06241946e-003, 9.08921752e-003, 4.38277517e-003, 0.,
          -1.08956650e-003, 9.81250685e-003, 4.31987876e-003, 0.,
          1.69790571e-003, -2.34739709e-004, 2.49061530e-004, 0.,
          -2.04573327e-004, 5.26942033e-003, -4.49710758e-004, 0.,
          8.36258661e-003, 3.22549883e-003, 2.26583728e-003, 0.,
          -5.17332321e-003, 4.90875170e-003, 5.64091140e-003, 0., 0.,
          1.26589893e-003, 0., 0., 0., 1.63624168e-003, 0., 0., 0.,
          6.05807756e-004, 0., 0., 0., 3.90119175e-003, 0., 0., 0.,
          -5.53438265e-004, 0., 0., 0., -3.00543237e-004, 0., 0., 0.,
          -5.41213201e-004, 0., 0., 0., 4.99031972e-004, 0., 0., 0., 0.,
          0., 0., 0., 0., 0., 0., 0., 0., 0., 0., 0., 0., 0., 0., 0., 0.,
          0., 0., 0., 0., 0., 0., 0., 0., 0., 0., 0., 0., 0., 0.,
          -6.34656462e-004, 1.88687688e-003, 0., 0., 2.87897070e-003,
          -5.91241056e-003, 0., 0., 3.56292655e-003, 1.60917290e-003, 0.,
          0., 1.38032704e-003, -2.87521863e-004, 0., 0.,
          -1.70719950e-003, -8.94508383e-004, 0., 0., 9.53418668e-004,
          -6.36158092e-003, 0., 0., -2.27316958e-003, -6.96637342e-003,
          0., 0., -3.95080214e-003, -8.17642640e-003, 0., 0.,
          3.68470699e-003, 4.28706175e-003, 3.35977389e-003, 0.,
          -2.01157131e-003, 7.55668944e-003, 4.28927923e-003, 0.,
          1.86335342e-003, 7.56955566e-003, 2.13040435e-003, 0.,
          2.96760281e-003, 6.46440638e-003, 4.16960241e-003, 0.,
          3.87510844e-003, 6.53799041e-004, 3.56530724e-003, 0.,
          -5.70812821e-003, 3.39153619e-003, 1.54578488e-003, 0.,
          -3.96783464e-003, -1.03039900e-003, 2.12065410e-003, 0.,
          -7.10697426e-003, -5.80441952e-003, -3.92083020e-004, 0., 0.,
          1.56194379e-003, 0., 0., 0., 3.88439861e-004, 0., 0., 0.,
          1.87622430e-003, 0., 0., 0., 9.14477103e-004, 0., 0., 0.,
          -1.20430859e-003, 0., 0., 0., 8.92332464e-004, 0., 0., 0.,
          -8.77883518e-004, 0., 0., 0., -1.46153464e-003, 0., 0., 0., 0.,
          0., 0., 0., 0., 0., 0., 0., 0., 0., 0., 0., 0., 0., 0., 0., 0.,
          0., 0., 0., 0., 0., 0., 0., 0., 0., 0., 0., 0., 0., 0.,
          -1.61040574e-003, -6.36606338e-003, 0., 0., -1.71884414e-004,
          -1.46091431e-002, 0., 0., 5.48718439e-004, -7.61993602e-003,
          0., 0., -6.99603232e-004, -9.16408002e-003, 0., 0.,
          2.01245164e-003, -3.94557649e-003, 0., 0., 3.78269260e-003,
          -4.57523251e-003, 0., 0., 1.97377848e-003, -3.94841749e-003,
          0., 0., -3.56628938e-004, -4.11861372e-004, 0., 0.,
          -2.20588408e-004, 1.29508856e-003, 4.52548498e-003, 0.,
          -3.38522904e-003, 8.02965835e-003, 9.71272867e-003, 0.,
          -6.31838944e-003, 1.47202052e-003, 1.11242407e-003, 0.,
          -8.10083840e-003, 4.13095718e-003, 2.94689997e-003, 0.,
          -1.72674481e-003, 4.88096336e-003, 2.54367176e-003, 0.,
          -6.07048022e-003, 8.18320643e-003, 1.45263341e-003, 0.,
          1.13357301e-003, 6.11255551e-003, 4.61038342e-003, 0.,
          4.23152978e-003, 4.43129474e-003, 4.71565686e-003, 0., 0.,
          -1.61999068e-003, 0., 0., 0., -1.51118555e-003, 0., 0., 0.,
          -1.89121667e-004, 0., 0., 0., 1.88366068e-003, 0., 0., 0.,
          3.24840163e-004, 0., 0., 0., 2.94788019e-003, 0., 0., 0.,
          -4.71606705e-004, 0., 0., 0., 7.22667755e-005, 0., 0., 0., 0.,
          0., 0., 0., 0., 0., 0., 0., 0., 0., 0., 0., 0., 0., 0., 0., 0.,
          0., 0., 0., 0., 0., 0., 0., 0., 0., 0., 0., 0., 0., 0.,
          1.49950865e-004, -7.19108200e-003, 0., 0., -1.49417296e-003,
          -1.13119809e-002, 0., 0., 3.62580270e-003, -6.41055172e-003,
          0., 0., 8.33187834e-004, -6.37635216e-003, 0., 0.,
          2.66176474e-004, -6.19819574e-003, 0., 0., 2.85753468e-003,
          -1.20180123e-003, 0., 0., -6.84976403e-004, -8.24686792e-003,
          0., 0., -9.63204715e-004, 8.85558082e-004, 0., 0.,
          1.92831468e-003, 3.15421610e-003, 6.06183102e-003, 0.,
          -4.24531056e-003, 3.05431400e-004, 4.43313736e-003, 0.,
          -2.86385976e-003, 8.75425246e-003, 4.33757156e-003, 0.,
          2.90614832e-003, 2.21131719e-003, 5.33031533e-003, 0.,
          -1.33598968e-003, 3.16695357e-003, 3.88149149e-003, 0.,
          -3.88490595e-003, 7.24037352e-004, -2.40830122e-003, 0.,
          -7.63688050e-003, 5.01353340e-003, 3.15424823e-003, 0.,
          8.93868227e-003, 8.45087320e-003, 8.73360131e-003, 0., 0.,
          -3.05756601e-003, 0., 0., 0., -2.63353321e-003, 0., 0., 0.,
          7.90878898e-004, 0., 0., 0., -3.95218562e-003, 0., 0., 0.,
          -9.80714452e-004, 0., 0., 0., 2.74804130e-004, 0., 0., 0.,
          2.54426105e-003, 0., 0., 0., 6.80476602e-004, 0. ]
      - [ 0., 0., 0., 0., 0., 0., 0., 0., 0., 0., 0., 0., 0., 0., 0., 0.,
          0., 0., 0., 0., 0., 0., 0., 0., 0., 0., 0., 0., 0., 0., 0., 0.,
          0., -1.53902615e-003, 1.22755859e-003, 0., 0.,
          -1.51296391e-003, 7.48191203e-004, 0., 0., -2.12487124e-004,
          9.54132993e-004, 0., 0., 1.17773411e-003, 5.89164905e-004, 0.,
          0., -2.30250196e-004, 1.82864571e-003, 0., 0.,
          -7.01440949e-005, 1.13003433e-003, 0., 0., 3.58901457e-006,
          1.01596874e-003, 0., 0., 6.45308101e-005, 5.96300291e-004, 0.,
          0., -4.59925068e-004, -3.46764550e-003, -1.80805160e-003, 0.,
          -2.26179976e-003, -4.84134909e-003, -3.16918804e-003, 0.,
          -2.71340832e-003, -3.25328670e-003, -3.35417036e-003, 0.,
          -4.34796704e-004, -3.96169344e-006, -1.10282877e-003, 0.,
          -2.20933638e-004, -1.70114508e-003, -1.76023715e-003, 0.,
          -3.82038299e-004, -1.76498503e-003, -1.60345680e-003, 0.,
          -4.09719360e-005, -3.48917267e-004, -7.04723410e-004, 0.,
          4.39375581e-004, 1.52964247e-004, -3.42456806e-005, 0., 0.,
          -1.20567747e-004, 0., 0., 0., -1.59196963e-004, 0., 0., 0.,
          3.13370809e-004, 0., 0., 0., -7.88670513e-005, 0., 0., 0.,
          2.89342308e-004, 0., 0., 0., -9.13841213e-005, 0., 0., 0.,
          3.52217146e-004, 0., 0., 0., 1.22679048e-004, 0., 0., 0., 0.,
          0., 0., 0., 0., 0., 0., 0., 0., 0., 0., 0., 0., 0., 0., 0., 0.,
          0., 0., 0., 0., 0., 0., 0., 0., 0., 0., 0., 0., 0., 0.,
          -1.66669267e-003, 2.28743022e-003, 0., 0., 2.51298537e-003,
          1.81630999e-003, 0., 0., 1.03804829e-004, 9.17574100e-004, 0.,
          0., -1.08419289e-003, -6.30329741e-005, 0., 0.,
          -7.96451815e-004, 7.29269173e-004, 0., 0., -2.74328748e-003,
          1.25794834e-003, 0., 0., -1.01752486e-003, 2.25867447e-003, 0.,
          0., 1.07171142e-003, 1.53892394e-003, 0., 0., 5.56202431e-004,
          -2.47529009e-003, -1.26991281e-003, 0., -4.38657776e-003,
          -4.29986557e-003, -6.50786888e-003, 0., -4.49788087e-004,
          -1.47881510e-003, -1.47499086e-003, 0., -9.58111603e-004,
          -2.97112390e-003, -1.39100500e-003, 0., -9.53565526e-004,
          -2.18632095e-003, -1.53635198e-003, 0., 2.55218521e-003,
          -1.59266905e-003, 1.22242747e-003, 0., 1.26571651e-003,
          -1.73724326e-003, -8.56338127e-004, 0., 3.29624489e-003,
          3.57440347e-003, 2.13000644e-003, 0., 0., 4.61315009e-004, 0.,
          0., 0., -3.04981280e-004, 0., 0., 0., -1.07629159e-004, 0., 0.,
          0., -4.95926477e-004, 0., 0., 0., 1.46482824e-004, 0., 0., 0.,
          -7.18090450e-005, 0., 0., 0., 1.36619521e-004, 0., 0., 0.,
          3.72685725e-004, 0., 0., 0., 0., 0., 0., 0., 0., 0., 0., 0.,
          0., 0., 0., 0., 0., 0., 0., 0., 0., 0., 0., 0., 0., 0., 0., 0.,
          0., 0., 0., 0., 0., 0., 0., -3.89343360e-003, 2.20860750e-003,
          0., 0., 9.69305169e-004, 2.63279700e-003, 0., 0.,
          9.09641967e-004, 3.18112550e-003, 0., 0., -2.91391555e-003,
          2.11394834e-003, 0., 0., 7.27924125e-005, 1.78073556e-003, 0.,
          0., -1.23555493e-003, 2.41600862e-003, 0., 0.,
          -1.53685175e-003, 4.67666221e-004, 0., 0., -1.08153827e-003,
          1.94924651e-003, 0., 0., 1.38327421e-003, -3.51521070e-003,
          -2.23555166e-004, 0., 6.53932919e-004, -8.55453196e-004,
          -1.90181145e-003, 0., 8.65882728e-004, 7.05684593e-004,
          -1.25959970e-003, 0., 1.31372956e-003, -3.22485296e-003,
          -5.55577921e-004, 0., -1.78220798e-003, -3.08214151e-003,
          -3.35893873e-003, 0., -5.21255890e-004, -4.72791540e-003,
          -3.21481260e-003, 0., 2.10359879e-003, 4.57435759e-004,
          1.81511010e-003, 0., -3.92449787e-004, -1.50360446e-003,
          -1.38188130e-003, 0., 0., 6.01777982e-004, 0., 0., 0.,
          7.70526385e-005, 0., 0., 0., 1.05564296e-003, 0., 0., 0.,
          2.44640512e-004, 0., 0., 0., 2.04004536e-004, 0., 0., 0.,
          -2.77547661e-004, 0., 0., 0., 1.79177092e-004, 0., 0., 0.,
          9.59814992e-004, 0., 0., 0., 0., 0., 0., 0., 0., 0., 0., 0.,
          0., 0., 0., 0., 0., 0., 0., 0., 0., 0., 0., 0., 0., 0., 0., 0.,
          0., 0., 0., 0., 0., 0., 0., -7.23594567e-004, 4.34255507e-003,
          0., 0., -4.56090644e-003, 4.63014981e-003, 0., 0.,
          -1.32167130e-003, 8.14776169e-004, 0., 0., -3.54454457e-003,
          2.40052165e-003, 0., 0., -2.02051993e-003, 2.30046618e-003, 0.,
          0., -2.55095586e-003, 2.09030090e-003, 0., 0.,
          -1.40165130e-003, 2.18017027e-003, 0., 0., -2.92997621e-003,
          3.44959181e-003, 0., 0., -2.18294072e-003, -3.96913616e-003,
          -4.88551846e-003, 0., 1.65673811e-003, -5.34515595e-003,
          -1.87883095e-003, 0., -4.33747284e-003, -4.87372186e-003,
          -4.35215002e-003, 0., -7.22805329e-004, -6.33566454e-003,
          -2.95722322e-003, 0., -8.38422056e-005, -3.01147369e-003,
          -1.68763136e-003, 0., 6.93330134e-004, -2.40767444e-003,
          -6.26844878e-004, 0., -2.36699404e-003, -4.52908641e-003,
          -3.83730000e-003, 0., -9.10372357e-004, -4.40678000e-003,
          -2.91838381e-003, 0., 0., 1.63997710e-003, 0., 0., 0.,
          1.09458098e-003, 0., 0., 0., 8.00099573e-004, 0., 0., 0.,
          1.66103971e-004, 0., 0., 0., 6.96677191e-004, 0., 0., 0.,
          7.70125946e-004, 0., 0., 0., 7.09864486e-004, 0., 0., 0.,
          1.44158013e-003, 0., 0., 0., 0., 0., 0., 0., 0., 0., 0., 0.,
          0., 0., 0., 0., 0., 0., 0., 0., 0., 0., 0., 0., 0., 0., 0., 0.,
          0., 0., 0., 0., 0., 0., 0., -1.90138555e-004, 1.27141783e-003,
          0., 0., -1.72172626e-003, 1.32324395e-003, 0., 0.,
          -2.62918271e-004, 2.13345932e-003, 0., 0., -2.96548451e-003,
          1.74755557e-003, 0., 0., -5.46507654e-004, 1.54622516e-003, 0.,
          0., -4.93476342e-004, 2.96081393e-003, 0., 0.,
          -1.04462856e-003, 3.14443279e-003, 0., 0., -9.47619264e-004,
          2.06881596e-004, 0., 0., -1.46658998e-003, -1.42946921e-003,
          -1.98866939e-003, 0., -1.56529155e-003, -3.78688960e-003,
          -2.47684936e-003, 0., -1.98244583e-003, -7.70167506e-004,
          -2.31157709e-003, 0., 2.38635344e-003, -2.14022980e-003,
          7.32026412e-004, 0., 6.43551059e-004, -7.00404402e-004,
          -5.28285513e-004, 0., -5.85717265e-004, -3.11882724e-003,
          -3.08594108e-003, 0., -5.35928470e-004, -8.71956523e-004,
          -1.75384455e-003, 0., -2.66353204e-003, -3.45195364e-003,
          -2.68737436e-003, 0., 0., 7.49338535e-004, 0., 0., 0.,
          4.11685935e-004, 0., 0., 0., 1.80432794e-003, 0., 0., 0.,
          9.32282710e-005, 0., 0., 0., 3.74388648e-004, 0., 0., 0.,
          4.60590119e-004, 0., 0., 0., 1.92651653e-003, 0., 0., 0.,
          1.83040000e-004, 0., 0., 0., 0., 0., 0., 0., 0., 0., 0., 0.,
          0., 0., 0., 0., 0., 0., 0., 0., 0., 0., 0., 0., 0., 0., 0., 0.,
          0., 0., 0., 0., 0., 0., 0., -1.33473531e-003, 3.03017558e-003,
          0., 0., -2.04066932e-003, 1.21614453e-003, 0., 0.,
          5.03888528e-004, 1.14998966e-003, 0., 0., -2.43440294e-003,
          8.64878704e-004, 0., 0., -2.13616900e-003, 3.44345521e-004, 0.,
          0., -2.95133656e-003, 1.80883450e-003, 0., 0.,
          -2.07274128e-003, 6.00905856e-004, 0., 0., -2.79472605e-003,
          -2.18949572e-004, 0., 0., -5.46852825e-004, -2.71615991e-003,
          -2.47922633e-003, 0., 5.83104556e-004, -2.08693347e-003,
          -3.39652150e-004, 0., 2.72280973e-004, 2.18369695e-003,
          4.01049765e-004, 0., 2.83097907e-004, -2.28083809e-003,
          -2.14107975e-004, 0., -1.16829970e-003, -3.34584271e-003,
          -1.36115937e-003, 0., -1.17870979e-003, -3.95029690e-003,
          -1.99325243e-003, 0., -2.58703809e-003, -5.03618503e-003,
          -3.07569373e-003, 0., -2.82293139e-003, -4.42543393e-003,
          -2.11734464e-003, 0., 0., 1.09780172e-003, 0., 0., 0.,
          2.93387857e-004, 0., 0., 0., 1.27875863e-003, 0., 0., 0.,
          3.67672910e-004, 0., 0., 0., 1.51485758e-004, 0., 0., 0.,
          9.94291971e-004, 0., 0., 0., 1.12250105e-004, 0., 0., 0.,
          4.86636767e-004, 0., 0., 0., 0., 0., 0., 0., 0., 0., 0., 0.,
          0., 0., 0., 0., 0., 0., 0., 0., 0., 0., 0., 0., 0., 0., 0., 0.,
          0., 0., 0., 0., 0., 0., 0., -1.05658895e-003, 7.34084228e-004,
          0., 0., -1.73644582e-003, 2.11244798e-003, 0., 0.,
          -1.03402720e-003, 4.73632291e-003, 0., 0., -2.03669374e-003,
          1.79840834e-003, 0., 0., -7.58489827e-004, 2.05125753e-003, 0.,
          0., -1.51315925e-003, 3.00154136e-003, 0., 0.,
          -2.35700654e-003, 1.34842959e-003, 0., 0., -1.84502243e-003,
          6.78633922e-004, 0., 0., 9.61543701e-004, -3.45986453e-004,
          4.69030900e-004, 0., 2.39334907e-003, -1.37408054e-003,
          3.21633153e-004, 0., -1.31794857e-003, -2.98968819e-003,
          -4.00496647e-003, 0., -8.29605502e-004, -3.32678854e-003,
          -1.95905427e-003, 0., -3.02701490e-003, -5.33877918e-003,
          -4.82928101e-003, 0., -2.20093690e-003, -4.81602456e-003,
          -4.25267173e-003, 0., -9.51970113e-004, -3.16519151e-003,
          -1.55429239e-003, 0., -1.04258279e-003, -2.07827962e-003,
          -9.77237010e-004, 0., 0., 2.41571441e-004, 0., 0., 0.,
          4.07321895e-005, 0., 0., 0., 2.04930501e-003, 0., 0., 0.,
          6.68959692e-004, 0., 0., 0., 2.48991622e-004, 0., 0., 0.,
          9.49806417e-004, 0., 0., 0., 7.46107486e-004, 0., 0., 0.,
          7.43979705e-004, 0., 0., 0., 0., 0., 0., 0., 0., 0., 0., 0.,
          0., 0., 0., 0., 0., 0., 0., 0., 0., 0., 0., 0., 0., 0., 0., 0.,
          0., 0., 0., 0., 0., 0., 0., 3.87383596e-004, 1.26445922e-003,
          0., 0., 1.84113349e-004, 1.21671532e-003, 0., 0.,
          5.83300134e-004, 1.60610769e-003, 0., 0., 6.55629381e-004,
          2.41610338e-003, 0., 0., -7.29397347e-004, 1.55387318e-003, 0.,
          0., -1.36021152e-003, 2.81546148e-003, 0., 0.,
          -7.12684123e-004, 1.60432153e-003, 0., 0., -1.27733033e-003,
          3.49219539e-004, 0., 0., 1.30680227e-003, 2.12907232e-003,
          8.92015873e-004, 0., 1.45505217e-003, 1.48981623e-003,
          7.72019848e-004, 0., 1.85452693e-003, 2.36063474e-003,
          1.01287698e-003, 0., 2.51034903e-003, 3.36515065e-003,
          1.40188343e-003, 0., 7.69372098e-004, -8.57258157e-004,
          -4.56180947e-004, 0., 2.40994198e-003, 4.55716945e-004,
          7.05204438e-004, 0., -9.62182821e-004, -3.48588731e-003,
          -2.66985362e-003, 0., 5.52004785e-005, -2.10805493e-003,
          -5.62372035e-004, 0., 0., 8.49672826e-004, 0., 0., 0.,
          5.33682993e-004, 0., 0., 0., 7.64457567e-004, 0., 0., 0.,
          1.30763766e-003, 0., 0., 0., 3.28320166e-004, 0., 0., 0.,
          1.11072382e-003, 0., 0., 0., -1.03349463e-004, 0., 0., 0.,
          -2.68352771e-004, 0. ]
      - [ 0., 0., 0., 0., 0., 0., 0., 0., 0., 0., 0., 0., 0., 0., 0., 0.,
          0., 0., 0., 0., 0., 0., 0., 0., 0., 0., 0., 0., 0., 0., 0., 0.,
          0., -3.48549569e-004, 1.44816804e-004, 0., 0.,
          -4.26985906e-004, 3.12696393e-005, 0., 0., -1.38519918e-005,
          -1.13924529e-004, 0., 0., -2.00316413e-006, -5.30324141e-005,
          0., 0., -8.01592323e-005, 4.73326247e-004, 0., 0.,
          -5.30671714e-005, 6.09584618e-004, 0., 0., -2.31776994e-005,
          9.35381278e-004, 0., 0., -7.88521265e-006, 6.90144487e-004, 0.,
          0., -6.27449364e-004, -1.22401980e-003, -8.23868148e-004, 0.,
          -9.11978190e-004, -1.36582484e-003, -9.41043370e-004, 0.,
          -9.50568530e-004, -9.87991574e-004, -9.05391760e-004, 0.,
          -6.15345853e-005, -1.95631845e-004, -1.01065430e-004, 0.,
          2.25925032e-004, -3.52790754e-004, -2.60016386e-004, 0.,
          2.29156212e-004, -3.17486731e-004, -3.22423992e-004, 0.,
          5.56160521e-004, -3.60508013e-004, -3.58275545e-004, 0.,
          4.62793309e-004, -1.72101689e-004, -1.95783825e-004, 0., 0.,
          -5.16019754e-005, 0., 0., 0., 2.20448806e-006, 0., 0., 0.,
          -6.87477805e-005, 0., 0., 0., -9.25632557e-005, 0., 0., 0.,
          -1.26151535e-005, 0., 0., 0., 5.80044252e-005, 0., 0., 0.,
          2.09452282e-005, 0., 0., 0., 3.15673351e-005, 0., 0., 0., 0.,
          0., 0., 0., 0., 0., 0., 0., 0., 0., 0., 0., 0., 0., 0., 0., 0.,
          0., 0., 0., 0., 0., 0., 0., 0., 0., 0., 0., 0., 0., 0.,
          -1.56692680e-004, -1.14360628e-004, 0., 0., -1.26695231e-004,
          -1.14124741e-004, 0., 0., -3.70163063e-004, 4.93981817e-004,
          0., 0., -4.29272477e-004, 5.50939469e-004, 0., 0.,
          -2.86018592e-004, 7.22729543e-004, 0., 0., -6.22934778e-004,
          1.15822349e-003, 0., 0., -2.47511693e-004, 1.59392366e-003, 0.,
          0., 1.34029557e-004, 1.69231533e-003, 0., 0., -9.02321714e-004,
          -1.00422977e-003, -8.17749125e-004, 0., -5.59601118e-004,
          -6.93401264e-004, -5.06091164e-004, 0., 1.97784699e-004,
          -6.78068900e-004, -3.02051485e-004, 0., 2.88828323e-005,
          -1.04746013e-003, -5.70122153e-004, 0., 2.61610112e-004,
          -7.22757133e-004, -4.48928942e-004, 0., 6.01350563e-004,
          -1.18465500e-003, -5.59296634e-004, 0., 8.91621516e-004,
          -9.06523375e-004, -6.80656987e-004, 0., 2.01994134e-003,
          5.37842046e-004, 3.65719316e-004, 0., 0., -2.97879924e-005, 0.,
          0., 0., -6.06148315e-005, 0., 0., 0., -5.85436510e-006, 0., 0.,
          0., -4.80655253e-005, 0., 0., 0., 1.21904186e-005, 0., 0., 0.,
          -2.42357669e-006, 0., 0., 0., 2.16452208e-005, 0., 0., 0.,
          3.80931669e-005, 0., 0., 0., 0., 0., 0., 0., 0., 0., 0., 0.,
          0., 0., 0., 0., 0., 0., 0., 0., 0., 0., 0., 0., 0., 0., 0., 0.,
          0., 0., 0., 0., 0., 0., 0., -8.53852660e-004, 4.59577976e-004,
          0., 0., -2.61825422e-004, 4.72356216e-004, 0., 0.,
          -2.69320910e-004, 8.13056482e-004, 0., 0., -6.81067177e-004,
          8.90101772e-004, 0., 0., -5.80699067e-004, 7.57766014e-004, 0.,
          0., -1.42099248e-004, 1.40162266e-003, 0., 0.,
          -5.95664140e-004, 1.34474109e-003, 0., 0., -4.75585402e-004,
          9.36312368e-004, 0., 0., -6.64644540e-005, -1.40115048e-003,
          -5.36670152e-004, 0., -2.26957454e-005, -7.38760922e-004,
          -4.85993718e-004, 0., 2.28990430e-005, -1.07082177e-003,
          -7.95829168e-004, 0., -1.88907816e-005, -1.58396061e-003,
          -9.05942987e-004, 0., -6.01347456e-005, -1.53457944e-003,
          -8.85890564e-004, 0., 1.78761999e-004, -1.46940351e-003,
          -1.27508247e-003, 0., 1.01783150e-003, -1.03486481e-003,
          -3.83055070e-004, 0., 6.16384030e-004, -8.06819997e-004,
          -3.25581495e-004, 0., 0., -1.06276802e-005, 0., 0., 0.,
          9.05822617e-006, 0., 0., 0., -5.67170582e-006, 0., 0., 0.,
          3.04952778e-006, 0., 0., 0., -6.79898585e-005, 0., 0., 0.,
          -5.22218033e-005, 0., 0., 0., -5.61455272e-005, 0., 0., 0.,
          -5.65306891e-006, 0., 0., 0., 0., 0., 0., 0., 0., 0., 0., 0.,
          0., 0., 0., 0., 0., 0., 0., 0., 0., 0., 0., 0., 0., 0., 0., 0.,
          0., 0., 0., 0., 0., 0., 0., -8.43152695e-004, 5.04089869e-004,
          0., 0., -1.82699680e-003, 1.45624066e-003, 0., 0.,
          -1.32605701e-003, 9.85896098e-004, 0., 0., -6.98373944e-004,
          9.48944711e-004, 0., 0., -8.20444431e-004, 1.15417177e-003, 0.,
          0., -3.46677640e-004, 1.56459480e-003, 0., 0.,
          -4.55252390e-004, 9.60785255e-004, 0., 0., -4.52302891e-004,
          5.42169495e-004, 0., 0., -2.62566231e-004, -1.57831644e-003,
          -7.50909967e-004, 0., 1.48567138e-003, -1.81138830e-003,
          2.25195836e-005, 0., 9.89254841e-005, -1.94352597e-003,
          -7.52219872e-004, 0., -5.56184794e-004, -2.17348197e-003,
          -1.49011880e-003, 0., 2.25046708e-004, -1.72833377e-003,
          -9.18507227e-004, 0., 9.33499250e-005, -1.80460676e-003,
          -1.46458694e-003, 0., 4.81199932e-005, -1.39519083e-003,
          -9.26301873e-004, 0., -7.14472262e-004, -1.61536294e-003,
          -1.20985089e-003, 0., 0., 1.57461800e-005, 0., 0., 0.,
          -6.91107971e-006, 0., 0., 0., 1.34750808e-004, 0., 0., 0.,
          1.50106825e-005, 0., 0., 0., 1.06178495e-005, 0., 0., 0.,
          6.65783546e-006, 0., 0., 0., -1.36365925e-005, 0., 0., 0.,
          4.67908794e-005, 0., 0., 0., 0., 0., 0., 0., 0., 0., 0., 0.,
          0., 0., 0., 0., 0., 0., 0., 0., 0., 0., 0., 0., 0., 0., 0., 0.,
          0., 0., 0., 0., 0., 0., 0., -2.05946184e-004, 1.91469124e-004,
          0., 0., -2.64294795e-004, 7.82103220e-004, 0., 0.,
          -4.10741864e-004, 1.82830030e-003, 0., 0., -4.28906118e-004,
          1.30775280e-003, 0., 0., -4.20791679e-004, 1.71425205e-003, 0.,
          0., -3.08388524e-004, 7.90074118e-004, 0., 0.,
          -6.10223331e-004, 4.73293185e-004, 0., 0., -4.97327477e-004,
          1.02612108e-003, 0., 0., -2.27724857e-004, -4.73630236e-004,
          -3.43439053e-004, 0., -2.45652518e-005, -1.05022918e-003,
          -7.96301465e-004, 0., 5.49633580e-004, -1.61270599e-003,
          -1.24031550e-003, 0., 1.18475495e-004, -1.64184673e-003,
          -1.20110891e-003, 0., 6.35657052e-004, -1.46490987e-003,
          -1.06135651e-003, 0., 2.81220709e-004, -7.28432497e-004,
          -4.64448705e-004, 0., 2.37612840e-004, -8.03829113e-004,
          -2.14643107e-004, 0., 1.48308580e-004, -1.46278192e-003,
          -9.21633444e-004, 0., 0., 7.57549424e-005, 0., 0., 0.,
          1.03670500e-005, 0., 0., 0., 3.83513034e-005, 0., 0., 0.,
          -1.18316511e-005, 0., 0., 0., 1.72383952e-005, 0., 0., 0.,
          4.44046746e-005, 0., 0., 0., 2.10372400e-005, 0., 0., 0.,
          -4.38209900e-005, 0., 0., 0., 0., 0., 0., 0., 0., 0., 0., 0.,
          0., 0., 0., 0., 0., 0., 0., 0., 0., 0., 0., 0., 0., 0., 0., 0.,
          0., 0., 0., 0., 0., 0., 0., -4.72434040e-004, 1.36302202e-003,
          0., 0., -5.10156795e-004, 9.53780720e-004, 0., 0.,
          -4.10737033e-004, 1.24745199e-003, 0., 0., -2.01940973e-004,
          8.72429169e-004, 0., 0., -3.67647503e-004, 5.82210312e-004, 0.,
          0., -5.20665955e-004, 1.05007354e-003, 0., 0.,
          -5.92146243e-004, 6.21470797e-004, 0., 0., -3.19210201e-004,
          8.14407977e-005, 0., 0., 6.46710687e-004, -1.14799500e-003,
          -6.95936091e-004, 0., 1.61353324e-004, -1.40039297e-003,
          -8.41331785e-004, 0., 5.75838552e-004, -1.18422601e-003,
          -7.22551253e-004, 0., -1.25613558e-004, -1.10474532e-003,
          -9.50423535e-004, 0., -1.63090037e-004, -1.07453065e-003,
          -7.26091734e-004, 0., -7.69034959e-005, -1.69165968e-003,
          -1.14898547e-003, 0., -2.85999849e-004, -1.42435357e-003,
          -8.69838987e-004, 0., -1.47119001e-003, -1.82954152e-003,
          -1.53148104e-003, 0., 0., 2.03751715e-005, 0., 0., 0.,
          -4.89043778e-005, 0., 0., 0., -5.09377460e-005, 0., 0., 0.,
          4.76191526e-005, 0., 0., 0., 1.92085972e-005, 0., 0., 0.,
          -2.20083584e-005, 0., 0., 0., 3.76316893e-005, 0., 0., 0.,
          2.11497209e-005, 0., 0., 0., 0., 0., 0., 0., 0., 0., 0., 0.,
          0., 0., 0., 0., 0., 0., 0., 0., 0., 0., 0., 0., 0., 0., 0., 0.,
          0., 0., 0., 0., 0., 0., 0., -3.04427522e-004, 1.16598583e-003,
          0., 0., -2.69466836e-004, 1.99802197e-003, 0., 0.,
          -2.80294014e-004, 7.45650032e-004, 0., 0., -3.76981421e-004,
          8.12718994e-004, 0., 0., -2.36786844e-004, 6.24600914e-004, 0.,
          0., -4.59145376e-004, 7.21160439e-004, 0., 0.,
          -6.20990759e-004, 4.19484335e-004, 0., 0., -2.68264150e-004,
          2.69450771e-004, 0., 0., 1.11363758e-003, -2.20182206e-004,
          1.59485080e-005, 0., 1.48451771e-003, -6.45615975e-004,
          -4.44826699e-004, 0., 4.24346508e-005, -9.05392168e-004,
          -6.64156803e-004, 0., 3.22403328e-004, -7.85783050e-004,
          -4.49558633e-004, 0., -2.46917916e-004, -1.07938237e-003,
          -8.57057224e-004, 0., -4.14635113e-004, -1.64340250e-003,
          -1.16002641e-003, 0., -3.03125213e-004, -1.29927974e-003,
          -7.00449280e-004, 0., -3.28147638e-004, -8.56777187e-004,
          -5.93055738e-004, 0., 0., 6.82967948e-005, 0., 0., 0.,
          6.86775602e-005, 0., 0., 0., 3.90585737e-005, 0., 0., 0.,
          4.07570187e-005, 0., 0., 0., 1.44616442e-005, 0., 0., 0.,
          -2.42307924e-005, 0., 0., 0., 2.21602859e-005, 0., 0., 0.,
          4.54270366e-006, 0., 0., 0., 0., 0., 0., 0., 0., 0., 0., 0.,
          0., 0., 0., 0., 0., 0., 0., 0., 0., 0., 0., 0., 0., 0., 0., 0.,
          0., 0., 0., 0., 0., 0., 0., 2.08241527e-005, 1.05473632e-003,
          0., 0., 6.39395657e-005, 1.21189491e-003, 0., 0.,
          -5.80313681e-005, 7.46043108e-004, 0., 0., -7.56307782e-005,
          5.39806788e-004, 0., 0., -1.64013574e-004, 4.11778252e-004, 0.,
          0., -3.12975550e-004, 2.91416596e-004, 0., 0.,
          -2.22671122e-004, 4.17083182e-004, 0., 0., -3.37630161e-004,
          9.26709108e-005, 0., 0., 1.34118716e-003, 6.33228861e-004,
          4.49427811e-004, 0., 1.05614529e-003, 2.29177473e-004,
          4.74417038e-006, 0., 5.95919322e-004, 7.37234659e-005,
          -9.18448768e-006, 0., 3.12495395e-004, -1.68922888e-005,
          -8.42864392e-005, 0., 8.41293440e-005, -4.16532974e-004,
          -2.90084165e-004, 0., -7.16612485e-005, -4.67316771e-004,
          -2.58709537e-004, 0., -2.59615947e-004, -1.01485767e-003,
          -7.34442787e-004, 0., -6.29381626e-004, -1.18091318e-003,
          -7.82667776e-004, 0., 0., 1.62976896e-004, 0., 0., 0.,
          1.60493742e-004, 0., 0., 0., 1.40939330e-004, 0., 0., 0.,
          1.43024925e-004, 0., 0., 0., 3.75647542e-005, 0., 0., 0.,
          1.04368286e-004, 0., 0., 0., -5.77436876e-005, 0., 0., 0.,
          -6.06152535e-005, 0. ]
   decision_functions:
      -
         sv_count: 1
         rho: -2.5088618126368654e+000
         alpha: [ 1. ]
         index: [ 0 ]
      -
         sv_count: 1
         rho: -3.8593546339878464e+000
         alpha: [ 1. ]
         index: [ 1 ]
      -
         sv_count: 1
         rho: -7.9521115886511573e-001
         alpha: [ 1. ]
         index: [ 2 ]
