%YAML:1.0
my_svm: !!opencv-ml-svm
   svm_type: C_SVC
   kernel: { type:LINEAR }
   C: 2.6699999999999999e+000
   term_criteria: { epsilon:1.1920928955078125e-007, iterations:1000 }
   var_all: 4096
   var_count: 4096
   class_count: 2
   class_labels: !!opencv-matrix
      rows: 1
      cols: 2
      dt: i
      data: [ 0, 1 ]
   sv_total: 1
   support_vectors:
      - [ 0., 0., 0., 0., 0., 0., 0., 0., 0., 0., 0., 0., 0., 0., 0., 0.,
          0., 0., 0., 0., 0., 0., 0., 0., 0., 0., 0., 0., 0., 0., 0., 0.,
          0., 0., 0., 0., 0., 0., 0., 0., 0., 0., 0., 0., 0., 0., 0., 0.,
          0., 0., 0., 0., 0., 0., 0., 0., 0., 0., 0., 0., 0., 0., 0., 0.,
          0., 5.67486713e-005, 2.59926193e-004, 0., 5.16000844e-004,
          3.58779274e-004, -1.94245467e-006, 0., 0., -8.08737968e-005,
          8.84095643e-005, 0., -2.38652879e-004, -1.90680330e-005,
          -3.05488036e-004, 0., 0., 3.78338955e-005, 1.88298931e-004, 0.,
          -2.60734174e-004, -1.80322779e-004, 7.91370985e-005, 0., 0.,
          9.81876874e-005, 2.53030827e-004, 0., 4.46654012e-004,
          1.35324488e-004, -1.12615699e-005, 0., 0., 8.92426106e-005,
          4.43731289e-004, 0., 8.55549180e-004, 2.81720160e-004,
          2.70351680e-004, 0., 0., 5.84425616e-005, 2.83457106e-004, 0.,
          4.76346584e-004, 2.47301854e-004, 2.89384207e-005, 0., 0.,
          9.00815212e-005, 5.73614016e-005, 0., 4.75504676e-005,
          5.88043011e-004, 7.79437891e-004, 0., 0., 2.45873700e-004,
          5.03035670e-004, 0., 7.24579906e-004, 3.36451078e-004,
          3.47280322e-004, 0., 0., -1.27698571e-004, 5.67486713e-005,
          2.59926193e-004, 8.74780177e-004, -1.94245467e-006,
          -3.42062995e-004, 0., 0., -1.80390794e-004, -8.08737968e-005,
          8.84095643e-005, -2.57720938e-004, -3.05488036e-004,
          -7.88424513e-004, 0., 0., -1.57988979e-004, 3.78338955e-005,
          1.88298931e-004, -4.41056967e-004, 7.91370985e-005,
          -1.05896877e-004, 0., 0., 2.25763695e-004, 9.81876874e-005,
          2.53030827e-004, 5.81978471e-004, -1.12615699e-005,
          2.03440097e-004, 0., 0., 1.45410213e-005, 8.92426106e-005,
          4.43731289e-004, 1.13726931e-003, 2.70351680e-004,
          -9.48341214e-004, 0., 0., 1.91315994e-005, 5.84425616e-005,
          2.83457106e-004, 7.23648409e-004, 2.89384207e-005,
          -9.47752967e-004, 0., 0., -3.20258754e-004, 9.00815212e-005,
          5.73614016e-005, 6.35593489e-004, 7.79437891e-004,
          5.44937968e-004, 0., 0., 1.71925160e-004, 2.45873700e-004,
          5.03035670e-004, 1.06103090e-003, 3.47280322e-004,
          4.13990143e-004, 0., 0., 0., -1.27698571e-004, 1.88976323e-004,
          5.30774705e-004, -3.42062995e-004, 0., 0., 0., 0.,
          -1.80390794e-004, -1.72855041e-004, -1.35163346e-003,
          -7.88424513e-004, 0., 0., 0., 0., -1.57988979e-004,
          6.81438833e-005, -4.67816688e-004, -1.05896877e-004, 0., 0.,
          0., 0., 2.25763695e-004, 5.76982216e-004, 7.74156884e-004,
          2.03440097e-004, 0., 0., 0., 0., 1.45410213e-005,
          5.47514937e-004, 4.59279923e-004, -9.48341214e-004, 0., 0., 0.,
          0., 1.91315994e-005, 3.61031241e-004, -1.95166125e-004,
          -9.47752967e-004, 0., 0., 0., 0., -3.20258754e-004,
          -1.72815795e-004, 1.95996929e-003, 5.44937968e-004, 0., 0., 0.,
          0., 1.71925160e-004, 9.20834544e-004, 1.82230142e-003,
          4.13990143e-004, 0., 0., 0., -7.24630227e-005,
          -4.14526003e-004, -5.76892126e-005, 6.32514188e-004,
          -2.00161565e-004, -7.24630227e-005, -7.24630227e-005, 0.,
          -3.35930992e-004, -1.12435548e-003, -1.44891161e-003,
          -7.47438811e-004, -5.16321743e-004, -3.35930992e-004,
          -3.35930992e-004, 0., -2.11670340e-004, -3.17567319e-004,
          -4.18752839e-004, -4.04260703e-004, -3.69659276e-004,
          -2.11670340e-004, -2.11670340e-004, 0., -6.85817737e-004,
          -4.82377684e-004, -3.58314719e-004, 3.37818521e-004,
          -4.60054056e-004, -6.85817737e-004, -6.85817737e-004, 0.,
          -1.16646802e-003, -2.11480935e-003, -1.56273739e-003,
          2.36595995e-004, -1.15192705e-003, -1.16646802e-003,
          -1.16646802e-003, 0., -1.32233149e-003, -2.27008434e-003,
          -1.99384429e-003, -4.84953634e-004, -1.30319991e-003,
          -1.32233149e-003, -1.32233149e-003, 0., -1.00894074e-003,
          -4.64002718e-004, 9.03478009e-004, -1.13420619e-003,
          -1.32919953e-003, -1.00894074e-003, -1.00894074e-003, 0.,
          -4.52193519e-004, -3.82034377e-005, 6.45528082e-004,
          1.19322096e-003, -2.80268374e-004, -4.52193519e-004,
          -4.52193519e-004, 0., -3.42062995e-004, -1.94245467e-006,
          3.58779274e-004, 7.75927037e-004, 5.67486713e-005,
          -1.27698571e-004, 0., 0., -7.88424513e-004, -3.05488036e-004,
          -1.90680330e-005, -1.50243330e-004, -8.08737968e-005,
          -1.80390794e-004, 0., 0., -1.05896877e-004, 7.91370985e-005,
          -1.80322779e-004, -7.24352358e-005, 3.78338955e-005,
          -1.57988979e-004, 0., 0., 2.03440097e-004, -1.12615699e-005,
          1.35324488e-004, 6.99684839e-004, 9.81876874e-005,
          2.25763695e-004, 0., 0., -9.48341214e-004, 2.70351680e-004,
          2.81720160e-004, 1.29928044e-003, 8.92426106e-005,
          1.45410213e-005, 0., 0., -9.47752967e-004, 2.89384207e-005,
          2.47301854e-004, 7.59803690e-004, 5.84425616e-005,
          1.91315994e-005, 0., 0., 5.44937968e-004, 7.79437891e-004,
          5.88043011e-004, 1.04911873e-004, 9.00815212e-005,
          -3.20258754e-004, 0., 0., 4.13990143e-004, 3.47280322e-004,
          3.36451078e-004, 1.22761552e-003, 2.45873700e-004,
          1.71925160e-004, 0., 0., -1.94245467e-006, 3.58779274e-004, 0.,
          5.16000844e-004, 2.59926193e-004, 5.67486713e-005, 0., 0.,
          -3.05488036e-004, -1.90680330e-005, 0., -2.38652879e-004,
          8.84095643e-005, -8.08737968e-005, 0., 0., 7.91370985e-005,
          -1.80322779e-004, 0., -2.60734174e-004, 1.88298931e-004,
          3.78338955e-005, 0., 0., -1.12615699e-005, 1.35324488e-004, 0.,
          4.46654012e-004, 2.53030827e-004, 9.81876874e-005, 0., 0.,
          2.70351680e-004, 2.81720160e-004, 0., 8.55549180e-004,
          4.43731289e-004, 8.92426106e-005, 0., 0., 2.89384207e-005,
          2.47301854e-004, 0., 4.76346584e-004, 2.83457106e-004,
          5.84425616e-005, 0., 0., 7.79437891e-004, 5.88043011e-004, 0.,
          4.75504676e-005, 5.73614016e-005, 9.00815212e-005, 0., 0.,
          3.47280322e-004, 3.36451078e-004, 0., 7.24579906e-004,
          5.03035670e-004, 2.45873700e-004, 0., 0., 0., 0., 0.,
          5.16000844e-004, 0., 0., 0., 0., 0., 0., 0., -2.38652879e-004,
          0., 0., 0., 0., 0., 0., 0., -2.60734174e-004, 0., 0., 0., 0.,
          0., 0., 0., 4.46654012e-004, 0., 0., 0., 0., 0., 0., 0.,
          8.55549180e-004, 0., 0., 0., 0., 0., 0., 0., 4.76346584e-004,
          0., 0., 0., 0., 0., 0., 0., 4.75504676e-005, 0., 0., 0., 0.,
          0., 0., 0., 7.24579906e-004, 0., 0., 0., 0., 0., 0., 0., 0.,
          0., 0., 0., 0., 0., 0., 0., 0., 0., 0., 0., 0., 0., 0., 0., 0.,
          0., 0., 0., 0., 0., 0., 0., 0., 0., 0., 0., 0., 0., 0., 0., 0.,
          0., 0., 0., 0., 0., 0., 0., 0., 0., 0., 0., 0., 0., 0., 0., 0.,
          0., 0., 0., 0., 0., 0., 0., 0., 0., 0., 0., 0.,
          -1.29475462e-004, -7.41052781e-006, 0., 6.65525789e-004,
          2.31033031e-004, 1.32535817e-004, 0., 0., 2.72861344e-005,
          5.09144214e-004, 0., 1.80950190e-003, 1.82977354e-004,
          4.27898456e-004, 0., 0., 3.96322110e-004, -1.39074487e-004, 0.,
          2.73758978e-005, -3.58110759e-004, -5.34490428e-005, 0., 0.,
          2.20472975e-005, 3.73330549e-004, 0., 1.95770757e-004,
          1.98528345e-004, -1.43340018e-004, 0., 0., 1.61206655e-004,
          3.88056535e-004, 0., 7.61321629e-004, 1.09686051e-004,
          -2.14108877e-004, 0., 0., 8.46933617e-005, 6.64735329e-004, 0.,
          9.08995047e-004, 3.10422300e-004, 6.78746146e-005, 0., 0.,
          -2.65917661e-005, 1.34258196e-004, 0., -3.02796125e-005,
          4.81988856e-004, 2.31673053e-004, 0., 0., -3.28950729e-004,
          -1.52656903e-005, 0., 1.58926690e-004, -2.48423275e-005,
          3.73289549e-005, 0., 0., 9.61190453e-005, -1.29475462e-004,
          -7.41052781e-006, 8.96558806e-004, 1.32535817e-004,
          1.65574515e-004, 0., 0., 4.80918516e-006, 2.72861344e-005,
          5.09144214e-004, 1.99247920e-003, 4.27898456e-004,
          1.78207876e-004, 0., 0., 1.10454785e-004, 3.96322110e-004,
          -1.39074487e-004, -3.30734882e-004, -5.34490428e-005,
          -4.37816721e-004, 0., 0., 1.90298131e-004, 2.20472975e-005,
          3.73330549e-004, 3.94299073e-004, -1.43340018e-004,
          -7.79211929e-004, 0., 0., -1.61162112e-004, 1.61206655e-004,
          3.88056535e-004, 8.71007680e-004, -2.14108877e-004,
          -1.67317316e-003, 0., 0., -3.91665497e-004, 8.46933617e-005,
          6.64735329e-004, 1.21941732e-003, 6.78746146e-005,
          -1.13135832e-003, 0., 0., -3.37317411e-004, -2.65917661e-005,
          1.34258196e-004, 4.51709260e-004, 2.31673053e-004,
          -4.86957928e-004, 0., 0., -2.82672729e-004, -3.28950729e-004,
          -1.52656903e-005, 1.34084374e-004, 3.73289549e-005,
          2.34135456e-004, 0., 0., 0., 9.61190453e-005, -4.07669468e-005,
          1.19466917e-003, 1.65574515e-004, 0., 0., 0., 0.,
          4.80918516e-006, 5.41239511e-004, 2.59858556e-003,
          1.78207876e-004, 0., 0., 0., 0., 1.10454785e-004,
          3.67702392e-004, -8.22000671e-004, -4.37816721e-004, 0., 0.,
          0., 0., 1.90298131e-004, 5.85675938e-004, -5.28252858e-004,
          -7.79211929e-004, 0., 0., 0., 0., -1.61162112e-004,
          3.88101063e-004, -1.01627444e-003, -1.67317316e-003, 0., 0.,
          0., 0., -3.91665497e-004, 3.57763231e-004, 1.55933638e-004,
          -1.13135832e-003, 0., 0., 0., 0., -3.37317411e-004,
          -2.29650948e-004, 1.96424269e-004, -4.86957928e-004, 0., 0.,
          0., 0., -2.82672729e-004, -6.26889116e-004, 4.05548752e-004,
          2.34135456e-004, 0., 0., 0., -4.34333429e-004,
          -2.68758915e-004, 9.48099187e-005, 1.90425431e-004,
          -3.38214391e-004, -4.34333429e-004, -4.34333429e-004, 0.,
          4.49476152e-004, 6.27684058e-004, 1.23855984e-003,
          2.80021760e-003, 4.54285357e-004, 4.49476152e-004,
          4.49476152e-004, 0., 5.53153222e-004, 1.15336457e-004,
          -2.96223414e-004, 9.48231551e-004, 6.63608022e-004,
          5.53153222e-004, 5.53153222e-004, 0., 3.44954265e-006,
          -7.75762426e-004, -7.20574113e-004, 7.84896256e-004,
          1.93747706e-004, 3.44954265e-006, 3.44954265e-006, 0.,
          -1.91899622e-003, -3.59216938e-003, -3.69659229e-003,
          -7.69573380e-004, -2.08015833e-003, -1.91899622e-003,
          -1.91899622e-003, 0., -2.21459079e-003, -3.34594911e-003,
          -2.96765240e-003, -9.47832537e-004, -2.60625640e-003,
          -2.21459079e-003, -2.21459079e-003, 0., -5.03249292e-004,
          -9.90207191e-004, -2.76545354e-004, -7.63179909e-004,
          -8.40566761e-004, -5.03249292e-004, -5.03249292e-004, 0.,
          -6.26309891e-004, -3.92174436e-004, -3.79687903e-004,
          -1.09427236e-003, -9.08982649e-004, -6.26309891e-004,
          -6.26309891e-004, 0., 1.65574515e-004, 1.32535817e-004,
          2.31033031e-004, 6.58115256e-004, -1.29475462e-004,
          9.61190453e-005, 0., 0., 1.78207876e-004, 4.27898456e-004,
          1.82977354e-004, 2.31864606e-003, 2.72861344e-005,
          4.80918516e-006, 0., 0., -4.37816721e-004, -5.34490428e-005,
          -3.58110759e-004, -1.11698631e-004, 3.96322110e-004,
          1.10454785e-004, 0., 0., -7.79211929e-004, -1.43340018e-004,
          1.98528345e-004, 5.69101248e-004, 2.20472975e-005,
          1.90298131e-004, 0., 0., -1.67317316e-003, -2.14108877e-004,
          1.09686051e-004, 1.14937813e-003, 1.61206655e-004,
          -1.61162112e-004, 0., 0., -1.13135832e-003, 6.78746146e-005,
          3.10422300e-004, 1.57373038e-003, 8.46933617e-005,
          -3.91665497e-004, 0., 0., -4.86957928e-004, 2.31673053e-004,
          4.81988856e-004, 1.03978593e-004, -2.65917661e-005,
          -3.37317411e-004, 0., 0., 2.34135456e-004, 3.73289549e-005,
          -2.48423275e-005, 1.43660989e-004, -3.28950729e-004,
          -2.82672729e-004, 0., 0., 1.32535817e-004, 2.31033031e-004, 0.,
          6.65525789e-004, -7.41052781e-006, -1.29475462e-004, 0., 0.,
          4.27898456e-004, 1.82977354e-004, 0., 1.80950190e-003,
          5.09144214e-004, 2.72861344e-005, 0., 0., -5.34490428e-005,
          -3.58110759e-004, 0., 2.73758978e-005, -1.39074487e-004,
          3.96322110e-004, 0., 0., -1.43340018e-004, 1.98528345e-004, 0.,
          1.95770757e-004, 3.73330549e-004, 2.20472975e-005, 0., 0.,
          -2.14108877e-004, 1.09686051e-004, 0., 7.61321629e-004,
          3.88056535e-004, 1.61206655e-004, 0., 0., 6.78746146e-005,
          3.10422300e-004, 0., 9.08995047e-004, 6.64735329e-004,
          8.46933617e-005, 0., 0., 2.31673053e-004, 4.81988856e-004, 0.,
          -3.02796125e-005, 1.34258196e-004, -2.65917661e-005, 0., 0.,
          3.73289549e-005, -2.48423275e-005, 0., 1.58926690e-004,
          -1.52656903e-005, -3.28950729e-004, 0., 0., 0., 0., 0.,
          6.65525789e-004, 0., 0., 0., 0., 0., 0., 0., 1.80950190e-003,
          0., 0., 0., 0., 0., 0., 0., 2.73758978e-005, 0., 0., 0., 0.,
          0., 0., 0., 1.95770757e-004, 0., 0., 0., 0., 0., 0., 0.,
          7.61321629e-004, 0., 0., 0., 0., 0., 0., 0., 9.08995047e-004,
          0., 0., 0., 0., 0., 0., 0., -3.02796125e-005, 0., 0., 0., 0.,
          0., 0., 0., 1.58926690e-004, 0., 0., 0., 0., 0., 0., 0., 0.,
          0., 0., 0., 0., 0., 0., 0., 0., 0., 0., 0., 0., 0., 0., 0., 0.,
          0., 0., 0., 0., 0., 0., 0., 0., 0., 0., 0., 0., 0., 0., 0., 0.,
          0., 0., 0., 0., 0., 0., 0., 0., 0., 0., 0., 0., 0., 0., 0., 0.,
          0., 0., 0., 0., 0., 0., 0., 0., 0., 0., 0., 0.,
          3.64295003e-004, -7.27340230e-005, 0., -1.84150151e-004,
          -4.84965218e-004, 4.01339494e-005, 0., 0., 2.79569067e-004,
          2.69111013e-004, 0., 9.04198023e-005, -4.01380443e-004,
          4.32234519e-004, 0., 0., 3.87563923e-005, 2.07491816e-004, 0.,
          -3.37012432e-004, -4.91427956e-004, -8.53654346e-004, 0., 0.,
          6.27137080e-004, 4.43799741e-004, 0., 7.40309653e-004,
          7.68881728e-005, -7.33346038e-004, 0., 0., 1.37829556e-004,
          1.25568465e-003, 0., 8.99108592e-004, 1.68106315e-004,
          5.84828558e-005, 0., 0., -5.55823906e-004, -5.76219682e-005,
          0., -7.80390692e-005, 4.94302134e-004, 9.75933683e-004, 0., 0.,
          -9.85709630e-005, 1.97069952e-004, 0., 3.63456027e-004,
          -1.92933265e-004, -1.88840768e-005, 0., 0., 7.29548119e-005,
          -5.64344111e-004, 0., -6.72494643e-005, 1.77362002e-004,
          -1.31708599e-004, 0., 0., 3.93398048e-004, 3.64295003e-004,
          -7.27340230e-005, -6.69115339e-004, 4.01339494e-005,
          2.14520522e-004, 0., 0., 5.69615659e-005, 2.79569067e-004,
          2.69111013e-004, -3.10960750e-004, 4.32234519e-004,
          2.76959850e-004, 0., 0., -5.43077709e-004, 3.87563923e-005,
          2.07491816e-004, -8.28440359e-004, -8.53654346e-004,
          -8.85455636e-004, 0., 0., -3.07050446e-004, 6.27137080e-004,
          4.43799741e-004, 8.17197841e-004, -7.33346038e-004,
          -1.72385701e-003, 0., 0., 4.94707900e-004, 1.37829556e-004,
          1.25568465e-003, 1.06721488e-003, 5.84828558e-005,
          -6.09949173e-004, 0., 0., -1.55868838e-004, -5.55823906e-004,
          -5.76219682e-005, 4.16263065e-004, 9.75933683e-004,
          2.50717148e-005, 0., 0., -2.15311258e-004, -9.85709630e-005,
          1.97069952e-004, 1.70522762e-004, -1.88840768e-005,
          -9.22982348e-004, 0., 0., -1.59092524e-004, 7.29548119e-005,
          -5.64344111e-004, 1.10112531e-004, -1.31708599e-004,
          5.71418313e-005, 0., 0., 0., 3.93398048e-004, 6.84958999e-004,
          -4.14461072e-004, 2.14520522e-004, 0., 0., 0., 0.,
          5.69615659e-005, 6.05641690e-004, 3.98233824e-004,
          2.76959850e-004, 0., 0., 0., 0., -5.43077709e-004,
          -2.96829472e-004, -2.56755040e-003, -8.85455636e-004, 0., 0.,
          0., 0., -3.07050446e-004, 7.63886317e-004, -1.64000527e-003,
          -1.72385701e-003, 0., 0., 0., 0., 4.94707900e-004,
          1.88822206e-003, 5.15748572e-004, -6.09949173e-004, 0., 0., 0.,
          0., -1.55868838e-004, -7.69314822e-004, 1.41726830e-003,
          2.50717148e-005, 0., 0., 0., 0., -2.15311258e-004,
          -1.16812284e-004, -7.71343650e-004, -9.22982348e-004, 0., 0.,
          0., 0., -1.59092524e-004, -6.50481787e-004, 3.55458542e-005,
          5.71418313e-005, 0., 0., 0., 1.40615914e-003, 1.62067974e-003,
          1.17584842e-003, 1.90696807e-003, 1.79955713e-003,
          1.40615914e-003, 1.40615914e-003, 0., -7.83031341e-004,
          -5.06071374e-004, -4.75217443e-004, -8.69700307e-005,
          -7.26069848e-004, -7.83031341e-004, -7.83031341e-004, 0.,
          -1.09477213e-003, -1.98022765e-003, -3.32531007e-003,
          -1.72861409e-003, -1.63784984e-003, -1.09477213e-003,
          -1.09477213e-003, 0., -1.19829702e-003, -2.92215403e-003,
          -3.57861188e-003, 3.05899041e-004, -1.50534743e-003,
          -1.19829702e-003, -1.19829702e-003, 0., -1.38221378e-003,
          -1.99216302e-003, -1.76557386e-003, 1.40511687e-003,
          -8.87505827e-004, -1.38221378e-003, -1.38221378e-003, 0.,
          -4.77111404e-004, -4.52039763e-004, 1.01819611e-003,
          -1.32446515e-003, -6.32980082e-004, -4.77111404e-004,
          -4.77111404e-004, 0., -4.36649803e-004, -1.35963212e-003,
          -1.57144957e-003, -1.90006074e-004, -6.51961134e-004,
          -4.36649803e-004, -4.36649803e-004, 0., -2.63542286e-004,
          -2.06400320e-004, -1.60747077e-004, -9.81273479e-004,
          -4.22634825e-004, -2.63542286e-004, -2.63542286e-004, 0.,
          2.14520522e-004, 4.01339494e-005, -4.84965218e-004,
          -2.56884203e-004, 3.64295003e-004, 3.93398048e-004, 0., 0.,
          2.76959850e-004, 4.32234519e-004, -4.01380443e-004,
          3.59530735e-004, 2.79569067e-004, 5.69615659e-005, 0., 0.,
          -8.85455636e-004, -8.53654346e-004, -4.91427956e-004,
          -1.29520588e-004, 3.87563923e-005, -5.43077709e-004, 0., 0.,
          -1.72385701e-003, -7.33346038e-004, 7.68881728e-005,
          1.18410937e-003, 6.27137080e-004, -3.07050446e-004, 0., 0.,
          -6.09949173e-004, 5.84828558e-005, 1.68106315e-004,
          2.15479312e-003, 1.37829556e-004, 4.94707900e-004, 0., 0.,
          2.50717148e-005, 9.75933683e-004, 4.94302134e-004,
          -1.35661016e-004, -5.55823906e-004, -1.55868838e-004, 0., 0.,
          -9.22982348e-004, -1.88840768e-005, -1.92933265e-004,
          5.60526038e-004, -9.85709630e-005, -2.15311258e-004, 0., 0.,
          5.71418313e-005, -1.31708599e-004, 1.77362002e-004,
          -6.31593517e-004, 7.29548119e-005, -1.59092524e-004, 0., 0.,
          4.01339494e-005, -4.84965218e-004, 0., -1.84150151e-004,
          -7.27340230e-005, 3.64295003e-004, 0., 0., 4.32234519e-004,
          -4.01380443e-004, 0., 9.04198023e-005, 2.69111013e-004,
          2.79569067e-004, 0., 0., -8.53654346e-004, -4.91427956e-004,
          0., -3.37012432e-004, 2.07491816e-004, 3.87563923e-005, 0., 0.,
          -7.33346038e-004, 7.68881728e-005, 0., 7.40309653e-004,
          4.43799741e-004, 6.27137080e-004, 0., 0., 5.84828558e-005,
          1.68106315e-004, 0., 8.99108592e-004, 1.25568465e-003,
          1.37829556e-004, 0., 0., 9.75933683e-004, 4.94302134e-004, 0.,
          -7.80390692e-005, -5.76219682e-005, -5.55823906e-004, 0., 0.,
          -1.88840768e-005, -1.92933265e-004, 0., 3.63456027e-004,
          1.97069952e-004, -9.85709630e-005, 0., 0., -1.31708599e-004,
          1.77362002e-004, 0., -6.72494643e-005, -5.64344111e-004,
          7.29548119e-005, 0., 0., 0., 0., 0., -1.84150151e-004, 0., 0.,
          0., 0., 0., 0., 0., 9.04198023e-005, 0., 0., 0., 0., 0., 0.,
          0., -3.37012432e-004, 0., 0., 0., 0., 0., 0., 0.,
          7.40309653e-004, 0., 0., 0., 0., 0., 0., 0., 8.99108592e-004,
          0., 0., 0., 0., 0., 0., 0., -7.80390692e-005, 0., 0., 0., 0.,
          0., 0., 0., 3.63456027e-004, 0., 0., 0., 0., 0., 0., 0.,
          -6.72494643e-005, 0., 0., 0., 0., 0., 0., 0., 0., 0., 0., 0.,
          0., 0., 0., 0., 0., 0., 0., 0., 0., 0., 0., 0., 0., 0., 0., 0.,
          0., 0., 0., 0., 0., 0., 0., 0., 0., 0., 0., 0., 0., 0., 0., 0.,
          0., 0., 0., 0., 0., 0., 0., 0., 0., 0., 0., 0., 0., 0., 0., 0.,
          0., 0., 0., 0., 0., 0., 0., 0., 0., 2.37279834e-004,
          -3.71026428e-004, 0., -1.57325063e-003, -1.58242718e-003,
          -1.35543087e-004, 0., 0., -4.72057087e-004, -6.80374156e-004,
          0., -6.72063208e-004, -4.18082927e-004, -1.16770949e-004, 0.,
          0., -7.09953369e-004, -2.20978895e-004, 0., -5.13527368e-004,
          -6.00342290e-004, 9.74400828e-005, 0., 0., 6.56151969e-005,
          -2.55833060e-004, 0., -8.23510272e-005, 1.78022456e-004,
          -5.52121783e-005, 0., 0., -8.28725693e-004, -4.96808243e-005,
          0., 2.56727035e-005, -2.56751431e-004, -5.39416098e-004, 0.,
          0., -2.36678006e-005, -2.00163733e-004, 0., 2.58724322e-004,
          -2.30529637e-004, -7.01111785e-005, 0., 0., -3.27265327e-004,
          -4.78693255e-004, 0., 1.23516525e-004, 4.95779619e-004,
          4.54806373e-004, 0., 0., 3.69277637e-004, -6.47396591e-005, 0.,
          4.17285308e-004, 1.50406297e-004, -5.14170933e-005, 0., 0.,
          9.40370839e-004, 2.37279834e-004, -3.71026428e-004,
          -3.15567758e-003, -1.35543087e-004, 1.39813754e-003, 0., 0.,
          8.32746737e-005, -4.72057087e-004, -6.80374156e-004,
          -1.09014614e-003, -1.16770949e-004, -3.97855096e-004, 0., 0.,
          -1.95775021e-004, -7.09953369e-004, -2.20978895e-004,
          -1.11386972e-003, 9.74400828e-005, -8.39730899e-004, 0., 0.,
          6.51791226e-004, 6.56151969e-005, -2.55833060e-004,
          9.56714139e-005, -5.52121783e-005, -2.10204837e-003, 0., 0.,
          5.32021862e-004, -8.28725693e-004, -4.96808243e-005,
          -2.31078782e-004, -5.39416098e-004, -2.47631921e-003, 0., 0.,
          1.47585961e-004, -2.36678006e-005, -2.00163733e-004,
          2.81946559e-005, -7.01111785e-005, -2.52025144e-004, 0., 0.,
          2.84867856e-004, -3.27265327e-004, -4.78693255e-004,
          6.19296159e-004, 4.54806373e-004, -1.21057569e-003, 0., 0.,
          2.09619378e-004, 3.69277637e-004, -6.47396591e-005,
          5.67691633e-004, -5.14170933e-005, 6.62724487e-004, 0., 0., 0.,
          9.40370839e-004, 8.06624303e-004, -1.89308333e-003,
          1.39813754e-003, 0., 0., 0., 0., 8.32746737e-005,
          -1.06915657e-003, -1.60477217e-003, -3.97855096e-004, 0., 0.,
          0., 0., -1.95775021e-004, -1.12670718e-003, -1.85616058e-003,
          -8.39730899e-004, 0., 0., 0., 0., 6.51791226e-004,
          4.61573334e-004, -2.06158916e-003, -2.10204837e-003, 0., 0.,
          0., 0., 5.32021862e-004, -3.46384506e-004, -3.24681401e-003,
          -2.47631921e-003, 0., 0., 0., 0., 1.47585961e-004,
          -7.62456111e-005, -2.93941586e-004, -2.52025144e-004, 0., 0.,
          0., 0., 2.84867856e-004, -5.21090755e-004, -1.36473041e-004,
          -1.21057569e-003, 0., 0., 0., 0., 2.09619378e-004,
          5.14157407e-004, 1.17899908e-003, 6.62724487e-004, 0., 0., 0.,
          9.52626520e-004, 2.35076412e-003, 6.32793934e-004,
          1.86000019e-004, 1.89299730e-003, 9.52626520e-004,
          9.52626520e-004, 0., 1.06967687e-004, -2.90887314e-004,
          -8.25741270e-004, -1.63425214e-003, 1.90242470e-004,
          1.06967687e-004, 1.06967687e-004, 0., -4.90054605e-004,
          -1.32978556e-003, -1.83268753e-003, -2.13028933e-003,
          -6.85829553e-004, -4.90054605e-004, -4.90054605e-004, 0.,
          -8.54130136e-004, -2.95617874e-003, -2.83336849e-003,
          -4.74907982e-004, -2.02339041e-004, -8.54130136e-004,
          -8.54130136e-004, 0., -2.42341805e-004, -2.71866098e-003,
          -3.51482863e-003, -5.63053705e-004, 2.89680233e-004,
          -2.42341805e-004, -2.42341805e-004, 0., -9.09350405e-004,
          -1.16137578e-003, -1.46201649e-003, -7.26871600e-004,
          -7.61764357e-004, -9.09350405e-004, -9.09350405e-004, 0.,
          6.92997128e-005, -1.14127598e-003, -1.90689927e-004,
          -3.28274618e-004, 3.54167569e-004, 6.92997128e-005,
          6.92997128e-005, 0., 2.81869783e-004, 9.44594329e-004,
          1.04358362e-003, 1.21331261e-003, 4.91489191e-004,
          2.81869783e-004, 2.81869783e-004, 0., 1.39813754e-003,
          -1.35543087e-004, -1.58242718e-003, -1.94427697e-003,
          2.37279834e-004, 9.40370839e-004, 0., 0., -3.97855096e-004,
          -1.16770949e-004, -4.18082927e-004, -1.35243742e-003,
          -4.72057087e-004, 8.32746737e-005, 0., 0., -8.39730899e-004,
          9.74400828e-005, -6.00342290e-004, -7.34506233e-004,
          -7.09953369e-004, -1.95775021e-004, 0., 0., -2.10204837e-003,
          -5.52121783e-005, 1.78022456e-004, -3.38184123e-004,
          6.56151969e-005, 6.51791226e-004, 0., 0., -2.47631921e-003,
          -5.39416098e-004, -2.56751431e-004, -2.40081263e-005,
          -8.28725693e-004, 5.32021862e-004, 0., 0., -2.52025144e-004,
          -7.01111785e-005, -2.30529637e-004, 5.85605776e-005,
          -2.36678006e-005, 1.47585961e-004, 0., 0., -1.21057569e-003,
          4.54806373e-004, 4.95779619e-004, -3.55176744e-004,
          -3.27265327e-004, 2.84867856e-004, 0., 0., 6.62724487e-004,
          -5.14170933e-005, 1.50406297e-004, 3.52545641e-004,
          3.69277637e-004, 2.09619378e-004, 0., 0., -1.35543087e-004,
          -1.58242718e-003, 0., -1.57325063e-003, -3.71026428e-004,
          2.37279834e-004, 0., 0., -1.16770949e-004, -4.18082927e-004,
          0., -6.72063208e-004, -6.80374156e-004, -4.72057087e-004, 0.,
          0., 9.74400828e-005, -6.00342290e-004, 0., -5.13527368e-004,
          -2.20978895e-004, -7.09953369e-004, 0., 0., -5.52121783e-005,
          1.78022456e-004, 0., -8.23510272e-005, -2.55833060e-004,
          6.56151969e-005, 0., 0., -5.39416098e-004, -2.56751431e-004,
          0., 2.56727035e-005, -4.96808243e-005, -8.28725693e-004, 0.,
          0., -7.01111785e-005, -2.30529637e-004, 0., 2.58724322e-004,
          -2.00163733e-004, -2.36678006e-005, 0., 0., 4.54806373e-004,
          4.95779619e-004, 0., 1.23516525e-004, -4.78693255e-004,
          -3.27265327e-004, 0., 0., -5.14170933e-005, 1.50406297e-004,
          0., 4.17285308e-004, -6.47396591e-005, 3.69277637e-004, 0., 0.,
          0., 0., 0., -1.57325063e-003, 0., 0., 0., 0., 0., 0., 0.,
          -6.72063208e-004, 0., 0., 0., 0., 0., 0., 0., -5.13527368e-004,
          0., 0., 0., 0., 0., 0., 0., -8.23510272e-005, 0., 0., 0., 0.,
          0., 0., 0., 2.56727035e-005, 0., 0., 0., 0., 0., 0., 0.,
          2.58724322e-004, 0., 0., 0., 0., 0., 0., 0., 1.23516525e-004,
          0., 0., 0., 0., 0., 0., 0., 4.17285308e-004, 0., 0., 0., 0.,
          0., 0., 0., 0., 0., 0., 0., 0., 0., 0., 0., 0., 0., 0., 0., 0.,
          0., 0., 0., 0., 0., 0., 0., 0., 0., 0., 0., 0., 0., 0., 0., 0.,
          0., 0., 0., 0., 0., 0., 0., 0., 0., 0., 0., 0., 0., 0., 0., 0.,
          0., 0., 0., 0., 0., 0., 0., 0., 0., 0., 0., 0., 0., 0., 0., 0.,
          -2.94326572e-004, -2.85562826e-004, 0., -2.56715546e-004,
          -4.27284802e-004, -9.30309325e-005, 0., 0., 7.59669419e-005,
          -6.55804761e-005, 0., -1.08597975e-003, 1.46292499e-004,
          -5.03740011e-005, 0., 0., -4.39664254e-005, 4.43521596e-004,
          0., 1.45363249e-003, 7.73575273e-004, 9.45169231e-005, 0., 0.,
          -1.97308444e-004, 1.26465876e-003, 0., 6.56878576e-004,
          -5.56771934e-004, -3.52855743e-004, 0., 0., -1.63108099e-003,
          -7.60184252e-004, 0., 3.29913746e-004, -3.42087034e-004,
          3.10611766e-004, 0., 0., -2.24529969e-004, 3.80860612e-004, 0.,
          6.57163502e-004, 2.79510161e-004, 7.27925391e-004, 0., 0.,
          -2.53189387e-006, -1.49653701e-004, 0., -2.20639486e-004,
          -2.18891844e-004, -1.65890669e-004, 0., 0., -1.74880279e-005,
          -5.91347809e-004, 0., -3.61040497e-004, 1.13583330e-004,
          8.58201645e-004, 0., 0., 2.87645147e-004, -2.94326572e-004,
          -2.85562826e-004, -6.84000377e-004, -9.30309325e-005,
          2.76182749e-004, 0., 0., 1.82905394e-004, 7.59669419e-005,
          -6.55804761e-005, -9.39687190e-004, -5.03740011e-005,
          -2.43339717e-004, 0., 0., -4.24642378e-004, -4.39664254e-005,
          4.43521596e-004, 2.22720788e-003, 9.45169231e-005,
          -1.23210170e-003, 0., 0., 2.18514524e-005, -1.97308444e-004,
          1.26465876e-003, 1.00106605e-004, -3.52855743e-004,
          -1.68108358e-003, 0., 0., -7.79707741e-004, -1.63108099e-003,
          -7.60184252e-004, -1.21731873e-005, 3.10611766e-004,
          -2.52564508e-003, 0., 0., 5.84826746e-004, -2.24529969e-004,
          3.80860612e-004, 9.36673721e-004, 7.27925391e-004,
          -1.63001544e-003, 0., 0., -1.83134471e-004, -2.53189387e-006,
          -1.49653701e-004, -4.39531315e-004, -1.65890669e-004,
          -8.93572520e-004, 0., 0., 2.58091692e-004, -1.74880279e-005,
          -5.91347809e-004, -2.47457123e-004, 8.58201645e-004,
          8.62625544e-004, 0., 0., 0., 2.87645147e-004, -2.92244193e-004,
          -5.00848459e-004, 2.76182749e-004, 0., 0., 0., 0.,
          1.82905394e-004, 1.93291897e-004, -1.23340101e-003,
          -2.43339717e-004, 0., 0., 0., 0., -4.24642378e-004,
          -2.50872163e-005, 1.08962308e-003, -1.23210170e-003, 0., 0.,
          0., 0., 2.18514524e-005, 1.08920177e-003, -1.93383265e-003,
          -1.68108358e-003, 0., 0., 0., 0., -7.79707741e-004,
          -3.17097316e-003, -2.22720671e-003, -2.52564508e-003, 0., 0.,
          0., 0., 5.84826746e-004, 7.41157390e-004, 3.45836233e-005,
          -1.63001544e-003, 0., 0., 0., 0., -1.83134471e-004,
          -3.35320103e-004, -1.49899442e-003, -8.93572520e-004, 0., 0.,
          0., 0., 2.58091692e-004, -3.50744202e-004, 1.47337001e-003,
          8.62625544e-004, 0., 0., 0., 5.82068344e-004, 8.58251064e-004,
          3.37935344e-004, 3.31084229e-005, 8.69713491e-004,
          5.82068344e-004, 5.82068344e-004, 0., 2.48217111e-004,
          4.87742000e-006, 1.00795784e-004, -6.44470856e-004,
          4.31122462e-004, 2.48217111e-004, 2.48217111e-004, 0.,
          -1.71625972e-004, -1.40372757e-003, -5.35635743e-004,
          1.25691935e-003, -5.96268394e-004, -1.71625972e-004,
          -1.71625972e-004, 0., -9.49538662e-004, -2.63062189e-003,
          -3.54024977e-003, 7.96541746e-004, -9.27687157e-004,
          -9.49538662e-004, -9.49538662e-004, 0., -2.47690734e-003,
          -5.00255218e-003, -5.03402762e-003, -5.31796645e-003,
          -3.25661502e-003, -2.47690734e-003, -2.47690734e-003, 0.,
          -2.49473401e-003, -4.12474945e-003, -3.11731384e-003,
          -1.09641301e-003, -1.90990733e-003, -2.49473401e-003,
          -2.49473401e-003, 0., 1.83626704e-004, -7.09945918e-004,
          -1.09472836e-003, -3.72333161e-004, 4.92332390e-007,
          1.83626704e-004, 1.83626704e-004, 0., -5.63649519e-004,
          2.98975938e-004, 1.27076090e-003, -1.27543393e-003,
          -3.05557769e-004, -5.63649519e-004, -5.63649519e-004, 0.,
          2.76182749e-004, -9.30309325e-005, -4.27284802e-004,
          -5.42278285e-004, -2.94326572e-004, 2.87645147e-004, 0., 0.,
          -2.43339717e-004, -5.03740011e-005, 1.46292499e-004,
          -1.15156022e-003, 7.59669419e-005, 1.82905394e-004, 0., 0.,
          -1.23210170e-003, 9.45169231e-005, 7.73575273e-004,
          1.89715403e-003, -4.39664254e-005, -4.24642378e-004, 0., 0.,
          -1.68108358e-003, -3.52855743e-004, -5.56771934e-004,
          1.92153745e-003, -1.97308444e-004, 2.18514524e-005, 0., 0.,
          -2.52564508e-003, 3.10611766e-004, -3.42087034e-004,
          -4.30270476e-004, -1.63108099e-003, -7.79707741e-004, 0., 0.,
          -1.63001544e-003, 7.27925391e-004, 2.79510161e-004,
          1.03802409e-003, -2.24529969e-004, 5.84826746e-004, 0., 0.,
          -8.93572520e-004, -1.65890669e-004, -2.18891844e-004,
          -3.70293215e-004, -2.53189387e-006, -1.83134471e-004, 0., 0.,
          8.62625544e-004, 8.58201645e-004, 1.13583330e-004,
          -9.52388276e-004, -1.74880279e-005, 2.58091692e-004, 0., 0.,
          -9.30309325e-005, -4.27284802e-004, 0., -2.56715546e-004,
          -2.85562826e-004, -2.94326572e-004, 0., 0., -5.03740011e-005,
          1.46292499e-004, 0., -1.08597975e-003, -6.55804761e-005,
          7.59669419e-005, 0., 0., 9.45169231e-005, 7.73575273e-004, 0.,
          1.45363249e-003, 4.43521596e-004, -4.39664254e-005, 0., 0.,
          -3.52855743e-004, -5.56771934e-004, 0., 6.56878576e-004,
          1.26465876e-003, -1.97308444e-004, 0., 0., 3.10611766e-004,
          -3.42087034e-004, 0., 3.29913746e-004, -7.60184252e-004,
          -1.63108099e-003, 0., 0., 7.27925391e-004, 2.79510161e-004, 0.,
          6.57163502e-004, 3.80860612e-004, -2.24529969e-004, 0., 0.,
          -1.65890669e-004, -2.18891844e-004, 0., -2.20639486e-004,
          -1.49653701e-004, -2.53189387e-006, 0., 0., 8.58201645e-004,
          1.13583330e-004, 0., -3.61040497e-004, -5.91347809e-004,
          -1.74880279e-005, 0., 0., 0., 0., 0., -2.56715546e-004, 0., 0.,
          0., 0., 0., 0., 0., -1.08597975e-003, 0., 0., 0., 0., 0., 0.,
          0., 1.45363249e-003, 0., 0., 0., 0., 0., 0., 0.,
          6.56878576e-004, 0., 0., 0., 0., 0., 0., 0., 3.29913746e-004,
          0., 0., 0., 0., 0., 0., 0., 6.57163502e-004, 0., 0., 0., 0.,
          0., 0., 0., -2.20639486e-004, 0., 0., 0., 0., 0., 0., 0.,
          -3.61040497e-004, 0., 0., 0., 0., 0., 0., 0., 0., 0., 0., 0.,
          0., 0., 0., 0., 0., 0., 0., 0., 0., 0., 0., 0., 0., 0., 0., 0.,
          0., 0., 0., 0., 0., 0., 0., 0., 0., 0., 0., 0., 0., 0., 0., 0.,
          0., 0., 0., 0., 0., 0., 0., 0., 0., 0., 0., 0., 0., 0., 0., 0.,
          0., 0., 0., 0., 0., 0., 0., 0., 0., -2.43947696e-004,
          -1.49602347e-004, 0., -3.08819028e-004, 1.52031032e-004,
          -1.03828992e-004, 0., 0., -1.22066805e-004, 2.89503223e-004,
          0., 4.00174002e-004, 5.05263219e-004, -3.54377771e-005, 0., 0.,
          1.69963168e-004, 1.26996107e-004, 0., 2.52485788e-005,
          -1.63160221e-004, 8.08013661e-004, 0., 0., 5.19027177e-004,
          -2.92645254e-005, 0., -9.65512882e-004, -2.96598097e-004,
          -6.11964206e-005, 0., 0., 1.43932790e-004, 3.58780148e-004, 0.,
          6.72625465e-005, -3.73207586e-004, -3.86562897e-004, 0., 0.,
          2.67210969e-004, 1.66118058e-004, 0., 1.06050546e-004,
          -1.08102678e-004, -3.39997277e-005, 0., 0., 9.77572636e-005,
          5.83578694e-005, 0., 1.78355149e-005, 5.25675714e-005,
          -4.52416352e-005, 0., 0., -6.53138384e-004, -1.05573132e-003,
          0., 3.89834568e-005, -1.11206966e-004, 1.09995672e-004, 0., 0.,
          2.41854665e-004, -2.43947696e-004, -1.49602347e-004,
          -1.56787981e-004, -1.03828992e-004, 6.62578095e-005, 0., 0.,
          -1.85813187e-004, -1.22066805e-004, 2.89503223e-004,
          9.05437220e-004, -3.54377771e-005, -2.48317199e-004, 0., 0.,
          8.48854485e-004, 1.69963168e-004, 1.26996107e-004,
          -1.37911644e-004, 8.08013661e-004, -9.27192799e-004, 0., 0.,
          1.15805327e-004, 5.19027177e-004, -2.92645254e-005,
          -1.26211089e-003, -6.11964206e-005, -1.29073206e-003, 0., 0.,
          3.95975687e-004, 1.43932790e-004, 3.58780148e-004,
          -3.05945025e-004, -3.86562897e-004, -2.05612020e-003, 0., 0.,
          3.26755777e-004, 2.67210969e-004, 1.66118058e-004,
          -2.05216816e-006, -3.39997277e-005, -1.60016562e-003, 0., 0.,
          2.21242168e-004, 9.77572636e-005, 5.83578694e-005,
          7.04030681e-005, -4.52416352e-005, -7.19635806e-004, 0., 0.,
          3.13042983e-004, -6.53138384e-004, -1.05573132e-003,
          -7.22234836e-005, 1.09995672e-004, -2.64614413e-004, 0., 0.,
          0., 2.41854665e-004, -1.51695334e-004, -1.94359192e-004,
          6.62578095e-005, 0., 0., 0., 0., -1.85813187e-004,
          -1.83767515e-005, 6.21682266e-004, -2.48317199e-004, 0., 0.,
          0., 0., 8.48854485e-004, 1.14581373e-003, -2.57090986e-004,
          -9.27192799e-004, 0., 0., 0., 0., 1.15805327e-004,
          6.05567882e-004, -2.61403923e-003, -1.29073206e-003, 0., 0.,
          0., 0., 3.95975687e-004, 8.98688624e-004, -2.74862815e-003,
          -2.05612020e-003, 0., 0., 0., 0., 3.26755777e-004,
          7.60084833e-004, -1.63621758e-003, -1.60016562e-003, 0., 0.,
          0., 0., 2.21242168e-004, 3.77357326e-004, -6.94474380e-004,
          -7.19635806e-004, 0., 0., 0., 0., 3.13042983e-004,
          -1.39582669e-003, -2.26842269e-004, -2.64614413e-004, 0., 0.,
          0., -6.67285174e-004, -6.01027336e-004, -5.52825397e-004,
          -1.12779974e-003, -4.25430597e-004, -6.67285174e-004,
          -6.67285174e-004, 0., -5.89235220e-004, -8.37552303e-004,
          -3.67726781e-004, -2.07438061e-004, -7.75048393e-004,
          -5.89235220e-004, -5.89235220e-004, 0., -8.82796536e-004,
          -1.80998934e-003, -1.16513576e-003, 2.88265815e-004,
          -3.39420330e-005, -8.82796536e-004, -8.82796536e-004, 0.,
          -2.39556190e-003, -3.68629373e-003, -4.04408854e-003,
          -2.75550666e-003, -2.27975659e-003, -2.39556190e-003,
          -2.39556190e-003, 0., -2.20431131e-003, -4.26043151e-003,
          -5.02020214e-003, -1.23836007e-003, -1.80833554e-003,
          -2.20431131e-003, -2.20431131e-003, 0., -1.05506950e-003,
          -2.65523512e-003, -2.79733748e-003, -1.88934253e-004,
          -7.28313753e-004, -1.05506950e-003, -1.05506950e-003, 0.,
          -6.88974033e-005, -7.88533187e-004, -7.81207229e-004,
          3.26295441e-004, 1.52344684e-004, -6.88974033e-005,
          -6.88974033e-005, 0., 2.78172112e-004, 1.35576884e-005,
          1.23464079e-005, -1.07867119e-003, 5.91215154e-004,
          2.78172112e-004, 2.78172112e-004, 0., 6.62578095e-005,
          -1.03828992e-004, 1.52031032e-004, -4.58421360e-004,
          -2.43947696e-004, 2.41854665e-004, 0., 0., -2.48317199e-004,
          -3.54377771e-005, 5.05263219e-004, 6.89677254e-004,
          -1.22066805e-004, -1.85813187e-004, 0., 0., -9.27192799e-004,
          8.08013661e-004, -1.63160221e-004, 1.52244713e-004,
          1.69963168e-004, 8.48854485e-004, 0., 0., -1.29073206e-003,
          -6.11964206e-005, -2.96598097e-004, -9.94777423e-004,
          5.19027177e-004, 1.15805327e-004, 0., 0., -2.05612020e-003,
          -3.86562897e-004, -3.73207586e-004, 4.26042709e-004,
          1.43932790e-004, 3.95975687e-004, 0., 0., -1.60016562e-003,
          -3.39997277e-005, -1.08102678e-004, 2.72168603e-004,
          2.67210969e-004, 3.26755777e-004, 0., 0., -7.19635806e-004,
          -4.52416352e-005, 5.25675714e-005, 7.61933989e-005,
          9.77572636e-005, 2.21242168e-004, 0., 0., -2.64614413e-004,
          1.09995672e-004, -1.11206966e-004, -1.01674779e-003,
          -6.53138384e-004, 3.13042983e-004, 0., 0., -1.03828992e-004,
          1.52031032e-004, 0., -3.08819028e-004, -1.49602347e-004,
          -2.43947696e-004, 0., 0., -3.54377771e-005, 5.05263219e-004,
          0., 4.00174002e-004, 2.89503223e-004, -1.22066805e-004, 0., 0.,
          8.08013661e-004, -1.63160221e-004, 0., 2.52485788e-005,
          1.26996107e-004, 1.69963168e-004, 0., 0., -6.11964206e-005,
          -2.96598097e-004, 0., -9.65512882e-004, -2.92645254e-005,
          5.19027177e-004, 0., 0., -3.86562897e-004, -3.73207586e-004,
          0., 6.72625465e-005, 3.58780148e-004, 1.43932790e-004, 0., 0.,
          -3.39997277e-005, -1.08102678e-004, 0., 1.06050546e-004,
          1.66118058e-004, 2.67210969e-004, 0., 0., -4.52416352e-005,
          5.25675714e-005, 0., 1.78355149e-005, 5.83578694e-005,
          9.77572636e-005, 0., 0., 1.09995672e-004, -1.11206966e-004, 0.,
          3.89834568e-005, -1.05573132e-003, -6.53138384e-004, 0., 0.,
          0., 0., 0., -3.08819028e-004, 0., 0., 0., 0., 0., 0., 0.,
          4.00174002e-004, 0., 0., 0., 0., 0., 0., 0., 2.52485788e-005,
          0., 0., 0., 0., 0., 0., 0., -9.65512882e-004, 0., 0., 0., 0.,
          0., 0., 0., 6.72625465e-005, 0., 0., 0., 0., 0., 0., 0.,
          1.06050546e-004, 0., 0., 0., 0., 0., 0., 0., 1.78355149e-005,
          0., 0., 0., 0., 0., 0., 0., 3.89834568e-005, 0., 0., 0., 0.,
          0., 0., 0., 0., 0., 0., 0., 0., 0., 0., 0., 0., 0., 0., 0., 0.,
          0., 0., 0., 0., 0., 0., 0., 0., 0., 0., 0., 0., 0., 0., 0., 0.,
          0., 0., 0., 0., 0., 0., 0., 0., 0., 0., 0., 0., 0., 0., 0., 0.,
          0., 0., 0., 0., 0., 0., 0., 0., 0., 0., 0., 0., 0., 0., 0., 0.,
          -7.30255444e-004, -5.69262949e-004, 0., -3.41315055e-004,
          -5.62183050e-005, 1.56788243e-004, 0., 0., -8.47588963e-005,
          2.22612325e-005, 0., 2.69842072e-004, 3.64256004e-004,
          4.02032339e-004, 0., 0., 2.00770446e-004, 5.45912480e-004, 0.,
          4.98153735e-004, 9.65628060e-005, 3.83531820e-004, 0., 0.,
          -6.70919719e-004, 3.59394238e-004, 0., 5.48982935e-004,
          1.26084269e-004, 2.49238219e-004, 0., 0., 5.73576144e-005,
          4.24322963e-004, 0., 6.74202092e-005, 5.37520173e-005,
          4.95107415e-005, 0., 0., 2.58541724e-004, -1.80736479e-005, 0.,
          -4.57021786e-004, -1.99393486e-004, -9.94147267e-005, 0., 0.,
          4.67410107e-004, 4.68250189e-004, 0., 1.60278971e-004,
          3.46088229e-004, 1.75684727e-005, 0., 0., 1.22964884e-005,
          -3.72268609e-004, 0., -2.75508908e-004, -7.66293379e-004,
          6.15793670e-006, 0., 0., -1.14624105e-004, -7.30255444e-004,
          -5.69262949e-004, -3.97533382e-004, 1.56788243e-004,
          3.55450087e-004, 0., 0., 5.06571378e-004, -8.47588963e-005,
          2.22612325e-005, 6.34098134e-004, 4.02032339e-004,
          -9.95797105e-004, 0., 0., 2.85727961e-004, 2.00770446e-004,
          5.45912480e-004, 5.94716519e-004, 3.83531820e-004,
          -3.53879092e-004, 0., 0., -4.73276770e-004, -6.70919719e-004,
          3.59394238e-004, 6.75067189e-004, 2.49238219e-004,
          -5.59039763e-004, 0., 0., 3.93228227e-004, 5.73576144e-005,
          4.24322963e-004, 1.21172234e-004, 4.95107415e-005,
          -1.76516490e-003, 0., 0., 2.59991764e-004, 2.58541724e-004,
          -1.80736479e-005, -6.56415301e-004, -9.94147267e-005,
          -1.57113245e-004, 0., 0., 3.04691202e-004, 4.67410107e-004,
          4.68250189e-004, 5.06367185e-004, 1.75684727e-005,
          -1.35140133e-003, 0., 0., 8.20426969e-004, 1.22964884e-005,
          -3.72268609e-004, -1.04180223e-003, 6.15793670e-006,
          7.34964735e-004, 0., 0., 0., -1.14624105e-004,
          -1.41414243e-003, 1.14705028e-004, 3.55450087e-004, 0., 0., 0.,
          0., 5.06571378e-004, 4.44073725e-004, 4.03332779e-005,
          -9.95797105e-004, 0., 0., 0., 0., 2.85727961e-004,
          1.03241089e-003, 6.24369190e-004, -3.53879092e-004, 0., 0., 0.,
          0., -4.73276770e-004, -7.84802192e-004, 3.65265674e-004,
          -5.59039763e-004, 0., 0., 0., 0., 3.93228227e-004,
          8.74908816e-004, -1.59448187e-003, -1.76516490e-003, 0., 0.,
          0., 0., 2.59991764e-004, 5.00459806e-004, -9.12943389e-004,
          -1.57113245e-004, 0., 0., 0., 0., 3.04691202e-004,
          1.24035147e-003, -8.27465556e-004, -1.35140133e-003, 0., 0.,
          0., 0., 8.20426969e-004, 4.60454816e-004, -3.00679618e-004,
          7.34964735e-004, 0., 0., 0., 4.48145060e-004, 8.03595176e-004,
          9.04165150e-004, -1.30731240e-003, 3.33520991e-004,
          4.48145060e-004, 4.48145060e-004, 0., 2.01729927e-004,
          -7.94067280e-004, -2.77788440e-005, 9.15645796e-004,
          7.08301202e-004, 2.01729927e-004, 2.01729927e-004, 0.,
          3.67351633e-004, 1.34724278e-005, 4.93567146e-004,
          1.89791631e-003, 6.53079594e-004, 3.67351633e-004,
          3.67351633e-004, 0., -1.93654362e-003, -2.49558338e-003,
          -2.12026061e-003, -2.17236276e-003, -2.40982021e-003,
          -1.93654362e-003, -1.93654362e-003, 0., -3.09028104e-003,
          -4.85544605e-003, -4.75218333e-003, -2.14795186e-003,
          -2.69705290e-003, -3.09028104e-003, -3.09028104e-003, 0.,
          -2.73537909e-004, -4.30651300e-004, -7.29459338e-004,
          -2.30099977e-004, -1.35461332e-005, -2.73537909e-004,
          -2.73537909e-004, 0., 7.42259144e-005, -1.27717538e-003,
          -9.13518656e-004, 1.47485628e-003, 3.78917204e-004,
          7.42259144e-005, 7.42259144e-005, 0., 1.51113677e-003,
          2.24610139e-003, 1.48596603e-003, 1.69608265e-003,
          2.33156374e-003, 1.51113677e-003, 1.51113677e-003, 0.,
          3.55450087e-004, 1.56788243e-004, -5.62183050e-005,
          -9.10578005e-004, -7.30255444e-004, -1.14624105e-004, 0., 0.,
          -9.95797105e-004, 4.02032339e-004, 3.64256004e-004,
          2.92103330e-004, -8.47588963e-005, 5.06571378e-004, 0., 0.,
          -3.53879092e-004, 3.83531820e-004, 9.65628060e-005,
          1.04406616e-003, 2.00770446e-004, 2.85727961e-004, 0., 0.,
          -5.59039763e-004, 2.49238219e-004, 1.26084269e-004,
          9.08377173e-004, -6.70919719e-004, -4.73276770e-004, 0., 0.,
          -1.76516490e-003, 4.95107415e-005, 5.37520173e-005,
          4.91743151e-004, 5.73576144e-005, 3.93228227e-004, 0., 0.,
          -1.57113245e-004, -9.94147267e-005, -1.99393486e-004,
          -4.75095469e-004, 2.58541724e-004, 2.59991764e-004, 0., 0.,
          -1.35140133e-003, 1.75684727e-005, 3.46088229e-004,
          6.28529175e-004, 4.67410107e-004, 3.04691202e-004, 0., 0.,
          7.34964735e-004, 6.15793670e-006, -7.66293379e-004,
          -6.47777517e-004, 1.22964884e-005, 8.20426969e-004, 0., 0.,
          1.56788243e-004, -5.62183050e-005, 0., -3.41315055e-004,
          -5.69262949e-004, -7.30255444e-004, 0., 0., 4.02032339e-004,
          3.64256004e-004, 0., 2.69842072e-004, 2.22612325e-005,
          -8.47588963e-005, 0., 0., 3.83531820e-004, 9.65628060e-005, 0.,
          4.98153735e-004, 5.45912480e-004, 2.00770446e-004, 0., 0.,
          2.49238219e-004, 1.26084269e-004, 0., 5.48982935e-004,
          3.59394238e-004, -6.70919719e-004, 0., 0., 4.95107415e-005,
          5.37520173e-005, 0., 6.74202092e-005, 4.24322963e-004,
          5.73576144e-005, 0., 0., -9.94147267e-005, -1.99393486e-004,
          0., -4.57021786e-004, -1.80736479e-005, 2.58541724e-004, 0.,
          0., 1.75684727e-005, 3.46088229e-004, 0., 1.60278971e-004,
          4.68250189e-004, 4.67410107e-004, 0., 0., 6.15793670e-006,
          -7.66293379e-004, 0., -2.75508908e-004, -3.72268609e-004,
          1.22964884e-005, 0., 0., 0., 0., 0., -3.41315055e-004, 0., 0.,
          0., 0., 0., 0., 0., 2.69842072e-004, 0., 0., 0., 0., 0., 0.,
          0., 4.98153735e-004, 0., 0., 0., 0., 0., 0., 0.,
          5.48982935e-004, 0., 0., 0., 0., 0., 0., 0., 6.74202092e-005,
          0., 0., 0., 0., 0., 0., 0., -4.57021786e-004, 0., 0., 0., 0.,
          0., 0., 0., 1.60278971e-004, 0., 0., 0., 0., 0., 0., 0.,
          -2.75508908e-004, 0., 0., 0., 0., 0., 0., 0., 0., 0., 0., 0.,
          0., 0., 0., 0., 0., 0., 0., 0., 0., 0., 0., 0., 0., 0., 0., 0.,
          0., 0., 0., 0., 0., 0., 0., 0., 0., 0., 0., 0., 0., 0., 0., 0.,
          0., 0., 0., 0., 0., 0., 0., 0., 0., 0., 0., 0., 0., 0., 0., 0.,
          0., 0., 0., 0., 0., 0., 0., 0., 0., 1.87542333e-004,
          2.67464493e-004, 0., 5.32132217e-005, -1.36510667e-003,
          1.41270037e-004, 0., 0., 4.74193890e-004, 3.22107197e-004, 0.,
          3.31075891e-004, -1.16825729e-004, 3.21701082e-004, 0., 0.,
          1.90327744e-004, 1.34056929e-004, 0., 2.62347661e-004,
          7.25354694e-005, 2.03630741e-004, 0., 0., -2.47989647e-005,
          -2.98140920e-004, 0., -1.50034146e-004, 7.66573503e-005,
          2.69533368e-004, 0., 0., 3.47220521e-005, 1.39022932e-005, 0.,
          -4.18059017e-006, -8.01614951e-005, -1.91199972e-004, 0., 0.,
          7.30906686e-005, 3.54388212e-005, 0., 8.28375414e-005,
          3.78603654e-005, 1.72886415e-004, 0., 0., -4.07468542e-005,
          1.43556608e-005, 0., 8.16336978e-005, 5.75328449e-005,
          2.23006064e-004, 0., 0., -1.30792338e-004, 1.45718132e-005, 0.,
          -2.95860256e-004, -1.37521301e-005, -1.07686123e-004, 0., 0.,
          -5.19734385e-006, 1.87542333e-004, 2.67464493e-004,
          -1.31189357e-003, 1.41270037e-004, 5.50160301e-004, 0., 0.,
          2.40138848e-004, 4.74193890e-004, 3.22107197e-004,
          2.14250205e-004, 3.21701082e-004, 5.73382946e-004, 0., 0.,
          2.11988183e-004, 1.90327744e-004, 1.34056929e-004,
          3.34883138e-004, 2.03630741e-004, 1.34798669e-004, 0., 0.,
          1.13539238e-004, -2.47989647e-005, -2.98140920e-004,
          -7.33767956e-005, 2.69533368e-004, -6.55696495e-004, 0., 0.,
          5.00065398e-005, 3.47220521e-005, 1.39022932e-005,
          -8.43420785e-005, -1.91199972e-004, -1.01523241e-003, 0., 0.,
          2.44810333e-004, 7.30906686e-005, 3.54388212e-005,
          1.20697907e-004, 1.72886415e-004, -4.42850374e-004, 0., 0.,
          1.75476947e-004, -4.07468542e-005, 1.43556608e-005,
          1.39166543e-004, 2.23006064e-004, 2.50189711e-004, 0., 0.,
          1.43152763e-004, -1.30792338e-004, 1.45718132e-005,
          -3.09612398e-004, -1.07686123e-004, -3.41428618e-004, 0., 0.,
          0., -5.19734385e-006, 4.49809479e-004, -6.20463165e-004,
          5.50160301e-004, 0., 0., 0., 0., 2.40138848e-004,
          1.03643991e-003, 1.10933417e-003, 5.73382946e-004, 0., 0., 0.,
          0., 2.11988183e-004, 5.36372827e-004, 6.73312519e-004,
          1.34798669e-004, 0., 0., 0., 0., 1.13539238e-004,
          -2.09400678e-004, -4.59539850e-004, -6.55696495e-004, 0., 0.,
          0., 0., 5.00065398e-005, 9.86308878e-005, -1.29077455e-003,
          -1.01523241e-003, 0., 0., 0., 0., 2.44810333e-004,
          3.53339827e-004, -1.49266067e-004, -4.42850374e-004, 0., 0.,
          0., 0., 1.75476947e-004, 1.49085739e-004, 6.12362346e-004,
          2.50189711e-004, 0., 0., 0., 0., 1.43152763e-004,
          2.69322354e-005, -7.58727139e-004, -3.41428618e-004, 0., 0.,
          0., 8.35653103e-004, 1.38581346e-003, 1.61976801e-004,
          1.33867585e-003, 8.30455800e-004, 8.35653103e-004,
          8.35653103e-004, 0., 2.94656027e-004, 8.68038973e-004,
          1.07291434e-003, 1.66217180e-003, 5.34794934e-004,
          2.94656027e-004, 2.94656027e-004, 0., 1.87002224e-004,
          3.21800908e-004, 5.97967068e-004, 9.85722756e-004,
          3.98990407e-004, 1.87002224e-004, 1.87002224e-004, 0.,
          -4.41177574e-004, -1.09687401e-003, -7.50683306e-004,
          -8.00612324e-004, -3.27638292e-004, -4.41177574e-004,
          -4.41177574e-004, 0., -4.70648265e-005, -1.06229726e-003,
          -1.33365870e-003, 4.73854852e-005, 2.94165920e-006,
          -4.70648265e-005, -4.70648265e-005, 0., 4.37108974e-006,
          -4.38479299e-004, -2.27732482e-004, 4.40548436e-004,
          2.49181379e-004, 4.37108974e-006, 4.37108974e-006, 0.,
          -1.09168317e-003, -8.41493544e-004, -5.60954446e-004,
          -8.60963832e-004, -9.16206278e-004, -1.09168317e-003,
          -1.09168317e-003, 0., 5.23328665e-004, 1.81900119e-004,
          6.04617562e-005, 2.54400715e-004, 6.66481385e-004,
          5.23328665e-004, 5.23328665e-004, 0., 5.50160301e-004,
          1.41270037e-004, -1.36510667e-003, 3.20677704e-004,
          1.87542333e-004, -5.19734385e-006, 0., 0., 5.73382946e-004,
          3.21701082e-004, -1.16825729e-004, 6.53183088e-004,
          4.74193890e-004, 2.40138848e-004, 0., 0., 1.34798669e-004,
          2.03630741e-004, 7.25354694e-005, 3.96404590e-004,
          1.90327744e-004, 2.11988183e-004, 0., 0., -6.55696495e-004,
          2.69533368e-004, 7.66573503e-005, -4.48175037e-004,
          -2.47989647e-005, 1.13539238e-004, 0., 0., -1.01523241e-003,
          -1.91199972e-004, -8.01614951e-005, 9.72170437e-006,
          3.47220521e-005, 5.00065398e-005, 0., 0., -4.42850374e-004,
          1.72886415e-004, 3.78603654e-005, 1.18276359e-004,
          7.30906686e-005, 2.44810333e-004, 0., 0., 2.50189711e-004,
          2.23006064e-004, 5.75328449e-005, 9.59893587e-005,
          -4.07468542e-005, 1.75476947e-004, 0., 0., -3.41428618e-004,
          -1.07686123e-004, -1.37521301e-005, -2.81288463e-004,
          -1.30792338e-004, 1.43152763e-004, 0., 0., 1.41270037e-004,
          -1.36510667e-003, 0., 5.32132217e-005, 2.67464493e-004,
          1.87542333e-004, 0., 0., 3.21701082e-004, -1.16825729e-004, 0.,
          3.31075891e-004, 3.22107197e-004, 4.74193890e-004, 0., 0.,
          2.03630741e-004, 7.25354694e-005, 0., 2.62347661e-004,
          1.34056929e-004, 1.90327744e-004, 0., 0., 2.69533368e-004,
          7.66573503e-005, 0., -1.50034146e-004, -2.98140920e-004,
          -2.47989647e-005, 0., 0., -1.91199972e-004, -8.01614951e-005,
          0., -4.18059017e-006, 1.39022932e-005, 3.47220521e-005, 0., 0.,
          1.72886415e-004, 3.78603654e-005, 0., 8.28375414e-005,
          3.54388212e-005, 7.30906686e-005, 0., 0., 2.23006064e-004,
          5.75328449e-005, 0., 8.16336978e-005, 1.43556608e-005,
          -4.07468542e-005, 0., 0., -1.07686123e-004, -1.37521301e-005,
          0., -2.95860256e-004, 1.45718132e-005, -1.30792338e-004, 0.,
          0., 0., 0., 0., 5.32132217e-005, 0., 0., 0., 0., 0., 0., 0.,
          3.31075891e-004, 0., 0., 0., 0., 0., 0., 0., 2.62347661e-004,
          0., 0., 0., 0., 0., 0., 0., -1.50034146e-004, 0., 0., 0., 0.,
          0., 0., 0., -4.18059017e-006, 0., 0., 0., 0., 0., 0., 0.,
          8.28375414e-005, 0., 0., 0., 0., 0., 0., 0., 8.16336978e-005,
          0., 0., 0., 0., 0., 0., 0., -2.95860256e-004, 0., 0., 0. ]
   decision_functions:
      -
         sv_count: 1
         rho: -2.7480485557534293e+000
         alpha: [ 1. ]
         index: [ 0 ]
