%YAML:1.0
my_svm: !!opencv-ml-svm
   svm_type: C_SVC
   kernel: { type:LINEAR }
   C: 2.6699999999999999e+000
   term_criteria: { epsilon:1.1920928955078125e-007, iterations:1000 }
   var_all: 1024
   var_count: 1024
   class_count: 3
   class_labels: !!opencv-matrix
      rows: 1
      cols: 3
      dt: i
      data: [ 0, 1, 2 ]
   sv_total: 3
   support_vectors:
      - [ 0., 0., 0., 0., 0., 0., 0., 0., 0., 0., 0., 0., 0., 0., 0., 0.,
          0., 0., 0., 0., 0., 0., 0., 0., 0., 0., 0., 0., 0., 0., 0., 0.,
          0., 3.10792143e-006, 8.31239668e-005, 4.55884496e-004,
          2.61241366e-004, 1.99716269e-005, 5.16954096e-005,
          -8.99071165e-005, -2.95344907e-005, 1.48536841e-004,
          2.27016732e-004, 2.91155913e-004, -1.60740092e-004,
          -1.02010003e-004, 1.16400857e-004, 1.80212184e-004,
          -1.66255355e-004, -2.94957659e-004, -2.02642303e-004,
          5.62066180e-006, -7.10778986e-005, 1.49811924e-004,
          -2.05537799e-004, -1.61657794e-004, -3.18572682e-004,
          -4.27358573e-005, 5.15589199e-005, -1.11153327e-004,
          -3.85119019e-005, -1.26270650e-004, -3.24623921e-004, 0., 0.,
          -2.46416857e-006, 1.56562062e-004, 1.39066433e-005,
          3.03023029e-004, 2.53500417e-004, -1.72272965e-004,
          2.45570089e-004, 8.40174980e-005, 1.49843268e-004,
          2.72117904e-004, -5.09526908e-005, 1.45018872e-004,
          2.64000148e-004, -1.60982308e-004, 2.59119581e-004,
          -1.31011591e-004, -3.75883799e-004, -1.17298332e-004,
          -6.56933698e-005, 1.41336295e-005, 5.29687677e-005,
          -1.54416266e-005, -1.63843375e-004, -1.82188072e-004,
          -7.81863782e-005, 2.25894604e-004, -8.16062020e-005,
          3.88798253e-005, 9.74323630e-005, -3.26478214e-004, 0., 0.,
          1.13672279e-004, 9.41649851e-005, 1.21524408e-005,
          1.36793635e-004, 7.41348631e-005, 3.88495027e-005,
          1.99152812e-004, 8.44719325e-005, 1.49222731e-004,
          4.87642646e-005, -5.43427518e-007, -2.19249341e-004,
          3.86106185e-005, 1.20773555e-004, -8.61459121e-005,
          -2.81686254e-004, -2.38348788e-004, -9.02447646e-005,
          -4.46523685e-004, -3.57287936e-004, -1.92452717e-004,
          -2.00792652e-004, 1.17020667e-004, -2.96095604e-005,
          8.33237282e-005, 2.25184140e-005, -2.25209456e-004,
          -1.15006806e-004, -5.50944067e-004, -3.66673514e-004, 0., 0.,
          2.36818873e-004, -5.03792435e-005, 5.28756354e-005,
          3.72598413e-004, 9.35019270e-005, 1.40835837e-004,
          2.51278288e-006, -6.88717410e-005, 9.85407169e-005,
          2.10136554e-004, -1.61601042e-006, -2.72674788e-005,
          -9.46915134e-006, 4.52872882e-005, 1.50584354e-004,
          -2.05934120e-004, 1.41137629e-004, 1.66707745e-004,
          5.56725990e-006, 1.12879585e-004, -6.27552290e-005,
          -2.74461403e-004, 4.75027446e-005, 2.16964381e-005,
          -6.65328771e-005, 2.54921091e-004, 2.21538779e-004,
          -1.42812147e-004, -3.21135274e-004, -2.78296066e-004, 0., 0.,
          1.40755641e-004, -3.00801737e-004, -4.87683028e-005,
          1.25504841e-004, 5.72989411e-005, -8.22694055e-005,
          -1.12999260e-004, 3.89720008e-005, 3.74041520e-005,
          4.87608377e-005, 1.90887760e-004, -1.41438635e-004,
          1.47616583e-005, 3.69666122e-005, 1.82347139e-005,
          -1.59365940e-004, -3.19487706e-004, 1.05737472e-005,
          -2.37035900e-004, -4.06344807e-005, -3.61641796e-005,
          6.98926306e-005, -3.95202223e-004, -6.60710211e-005,
          -1.37453608e-005, 6.87991269e-005, -6.73001487e-005,
          -2.93541147e-004, -4.70519910e-004, -3.57120240e-004, 0., 0.,
          2.31714424e-004, 4.80504787e-005, -5.76827661e-005,
          2.80299719e-005, 2.78923224e-004, -1.75969471e-004,
          1.68078128e-004, 9.48580491e-005, 1.11468617e-004,
          -7.57702364e-005, -1.86537320e-004, -1.29695691e-004,
          1.89465383e-004, -3.15505167e-004, -5.40605506e-005,
          8.77698476e-005, 9.02481133e-006, 4.02099322e-005,
          3.05048216e-005, -9.62092599e-005, 2.06878321e-004,
          1.65984107e-004, -2.23088136e-005, 1.24896469e-004,
          1.99339353e-004, 9.52418923e-005, 1.18418342e-004,
          -1.99865884e-004, -1.88855847e-004, 4.90733510e-005, 0., 0.,
          1.77683280e-004, -1.93455155e-004, -1.24834245e-004,
          1.45309677e-004, 1.17910649e-005, 9.54734278e-005,
          6.90864035e-005, 1.03932813e-004, -7.99116333e-006,
          5.62742825e-005, -2.45559728e-004, -1.05683677e-004,
          -9.66336011e-005, -1.84258330e-004, -1.91461993e-004,
          -1.68236918e-004, -1.34337233e-005, -2.09361300e-004,
          -3.80882644e-004, -1.60277086e-005, -1.17953699e-004,
          -2.84744689e-004, -3.85077670e-004, -2.19131020e-004,
          6.35003817e-005, 1.33506313e-004, 1.09649739e-006,
          -3.28994181e-004, -2.22070972e-004, -2.40494555e-004, 0., 0.,
          -3.19302162e-005, -2.79973774e-005, -5.41817630e-004,
          -2.16400440e-004, -3.07348964e-004, -2.19617228e-004,
          -4.55038331e-004, -5.67821080e-005, 2.62046451e-005,
          2.91005068e-004, -2.40452282e-004, -4.47789062e-004,
          -9.98281830e-005, 1.94464606e-004, 1.90512990e-004,
          7.44303179e-005, -1.37687457e-004, 3.14042729e-004,
          -5.52184007e-004, -1.16425376e-007, -2.76055071e-004,
          4.33796458e-006, 1.60829746e-004, -1.81167488e-004,
          -4.78874281e-005, 8.49831777e-005, 4.60739451e-004,
          4.39068026e-005, -6.87068605e-005, -1.31585284e-005, 0., 0.,
          3.13374505e-004, -7.94211810e-005, 1.79293231e-004,
          4.37961789e-005, -1.39173790e-004, 1.20364435e-004,
          -2.82431807e-004, 7.58638780e-005, -8.09757621e-005,
          -1.77106776e-004, 2.32310587e-004, -1.24143000e-004,
          3.10159498e-006, 6.14855662e-006, 1.46680584e-004,
          6.30281793e-005, -7.14672642e-005, 1.55998059e-004,
          -3.74530646e-004, -2.13019783e-004, -3.35721066e-004,
          -2.94765641e-006, -2.24098694e-005, -6.00069470e-005,
          -1.84465054e-004, -9.43772902e-005, 1.56648195e-004,
          -1.64355792e-004, 1.65771649e-004, 5.85799398e-006, 0., 0.,
          -2.72826437e-004, -7.71986888e-005, -1.31555440e-004,
          -1.79193230e-004, -8.25687093e-005, 1.55643327e-004,
          1.12826354e-004, -8.90330921e-005, 3.14544341e-005,
          -1.52911613e-004, 7.18360025e-005, -1.08083150e-004,
          3.14624849e-005, 3.42655811e-004, 6.47348861e-005,
          -6.50419897e-005, -2.38129447e-004, 2.94247526e-004,
          -2.93011195e-004, 8.11526843e-005, -1.71322288e-004,
          -7.77896421e-005, -2.72842153e-004, 3.72111463e-005,
          -8.65232651e-005, -7.90637714e-005, 4.38875897e-004,
          1.10522480e-004, -2.00542738e-004, 4.87792422e-005, 0., 0.,
          -1.17932337e-004, -1.38052943e-004, -5.89317133e-005,
          -9.33657429e-005, 2.29237958e-005, 5.16318141e-006,
          -1.06547741e-004, -1.00660109e-004, 9.35344360e-005,
          -1.47959741e-004, -1.96850073e-004, -1.98100257e-004,
          1.35632334e-004, 2.08810117e-004, -1.01132746e-005,
          3.00393993e-004, -2.26490723e-004, -5.79702355e-005,
          -1.13193979e-004, 5.34187384e-005, 4.18122770e-004,
          1.66728671e-004, -1.15435359e-005, 2.99275503e-004,
          -1.54425925e-005, -6.45108958e-005, 1.59441479e-004,
          1.11762674e-004, 2.29584053e-004, 2.40808557e-004, 0., 0.,
          -1.71989959e-004, 6.02966320e-005, 4.95109707e-004,
          1.78735398e-004, 1.33195199e-005, 3.30365292e-004,
          2.77870102e-004, 2.03881991e-005, 2.48325145e-004,
          3.95965726e-005, 1.50278414e-004, 9.76761803e-005,
          2.08094425e-004, 2.21016773e-004, 5.25669893e-004,
          3.17706763e-005, -9.55327487e-005, -7.77286259e-005,
          -2.10367449e-004, -3.05751193e-004, -2.36883454e-004,
          1.07902277e-004, 4.31653280e-005, 1.81637211e-006,
          -4.17308838e-005, -4.95698660e-005, 1.52308668e-004,
          -3.71989540e-006, -8.10260244e-005, -2.72220660e-007, 0., 0.,
          -1.74046931e-004, 1.09634557e-005, 2.11208549e-004,
          -3.95512325e-005, -3.51435847e-005, 5.99289851e-005,
          -3.26813279e-005, -2.36326032e-005, 1.49847037e-004,
          -1.73924673e-005, -7.18172159e-005, 5.34460451e-005,
          1.24893311e-004, 2.41143673e-004, -9.13420445e-005,
          -8.99885563e-005, 4.23453384e-005, 5.09325218e-007,
          -3.27625516e-004, 9.50882968e-005, 7.47132945e-005,
          -2.11493258e-004, 1.82440908e-005, -2.16344764e-004,
          -2.29045516e-004, -8.82239838e-005, -1.80035204e-004,
          -6.99942466e-005, -3.12824923e-005, -1.23462538e-004, 0., 0.,
          8.97577484e-005, 2.08708239e-004, 5.58790307e-005,
          3.80516110e-004, 2.16627217e-004, -1.76982459e-004,
          -2.37373781e-004, -2.85356888e-004, 2.31867933e-004,
          -8.42508816e-005, -2.67041964e-004, 8.60074033e-006,
          2.12475221e-004, -7.19082345e-006, -1.14666131e-004,
          8.04297670e-005, -1.06507629e-004, 2.91194941e-004,
          -1.71696465e-005, 5.06272154e-005, 2.31047612e-004,
          1.86310950e-004, 8.93266770e-005, -2.21937316e-005,
          -1.15497396e-005, 1.76516551e-004, 2.88670853e-004,
          -1.79265262e-004, -1.06722560e-004, -1.15565825e-004, 0., 0.,
          -2.01232804e-004, 3.64167034e-004, 1.26319224e-004,
          3.19109851e-004, -5.81707900e-005, -6.76001582e-005,
          -1.08298273e-005, -4.63821867e-004, 1.05951112e-004,
          1.05575193e-004, -1.55804737e-004, -4.30533895e-004,
          -3.76408047e-004, 1.02237245e-004, 1.66223705e-004,
          -1.39198179e-004, 2.42083279e-005, 1.11691435e-004,
          -1.57508242e-004, -1.60334639e-005, 1.48829975e-004,
          2.62427093e-005, 1.08325388e-004, -8.67304625e-005,
          -1.25740480e-004, 6.45551918e-005, 5.59456457e-005,
          -1.96572855e-005, -5.63943249e-005, 4.10580578e-005, 0., 0.,
          -5.49071956e-005, 1.17610223e-004, -1.91793777e-004,
          -1.12009795e-004, -2.14424261e-004, -2.21795097e-004,
          4.56915186e-005, -1.46175546e-004, -6.08187911e-005,
          1.43165671e-004, -1.92772190e-004, 1.68958810e-004,
          -4.85125725e-004, 7.34506539e-005, -2.09359467e-004,
          7.73311840e-005, -1.00764053e-004, -8.70189397e-005,
          -1.36243325e-004, -1.30163622e-004, 3.57962534e-004,
          2.18742789e-004, -3.25271016e-004, -2.32460643e-005,
          -1.61861186e-004, 1.45667917e-004, 8.58475687e-005,
          2.02280906e-004, 7.27541192e-005, 3.66499182e-004, 0., 0.,
          -4.64110257e-004, -3.33104945e-005, -1.34479735e-004,
          1.12274021e-004, -9.60080797e-005, -1.93711065e-004,
          9.00656305e-005, -2.05268487e-004, -1.63687713e-004,
          -1.46239428e-004, -4.87105499e-005, -1.79932773e-004,
          4.27745654e-005, 3.28955575e-005, -1.93780535e-004,
          -1.37732277e-004, -5.37145417e-004, 1.65355868e-005,
          3.54183503e-005, 4.83945187e-005, -7.98405599e-005,
          -2.81249813e-005, -3.37084712e-005, -2.98930681e-004,
          -1.84374112e-005, 3.77200689e-004, 1.28442698e-004,
          -1.31778099e-004, 9.67099368e-006, 4.96819302e-005, 0., 0.,
          -6.38928090e-004, -1.93395244e-004, -4.17471630e-004,
          3.53579671e-005, -1.53492365e-004, -2.51079269e-004,
          -2.68998207e-004, 3.80950187e-005, -2.08046957e-004,
          -2.50593032e-004, -1.05539148e-004, 7.63032804e-005,
          2.41296198e-006, 2.51219353e-006, -1.42895311e-004,
          -2.08511319e-005, -3.17883852e-004, -4.29147389e-004,
          -3.26959736e-004, -2.52122351e-004, -6.16719553e-005,
          5.90767704e-005, -5.52555197e-004, -1.52337205e-004,
          2.86551199e-006, -3.67430875e-005, -1.07882974e-004,
          1.43539684e-004, -1.06508131e-004, -1.11012787e-006, 0., 0.,
          -1.47474697e-004, 1.19399592e-005, -2.12568091e-004,
          -1.25522420e-004, 3.98385637e-005, -1.13886243e-004,
          -3.90295063e-005, 1.27850086e-004, -1.71082735e-004,
          1.17887474e-004, -2.74861115e-004, -1.04493311e-005,
          7.01293247e-005, 1.29074106e-004, -1.48846229e-004,
          -2.48934433e-004, -2.37520828e-004, -2.18868707e-004,
          2.45833740e-004, -1.85114841e-005, 3.05281836e-004,
          8.49386197e-005, -3.16902879e-004, -1.92326916e-004,
          2.40755235e-005, -2.47073855e-004, -1.15780473e-004,
          1.31431414e-004, -1.15212824e-004, 1.88625185e-004, 0., 0.,
          -3.10083589e-004, -1.57363058e-004, -2.62788672e-004,
          -2.66307179e-004, -1.49637359e-004, 3.65433880e-005,
          -3.36637197e-004, -4.42236022e-004, 1.91813058e-004,
          3.05953108e-005, 4.49095714e-005, -6.97548239e-005,
          -1.54631154e-004, 2.34015592e-004, 1.95191882e-004,
          -2.85251794e-004, 1.42202291e-004, -1.00375677e-004,
          1.49266241e-004, 2.20488037e-005, -2.49187597e-005,
          1.26808663e-004, -1.20627679e-004, -2.22989547e-004,
          -4.01534198e-004, -1.64103796e-004, 5.92317110e-006,
          -2.23383540e-004, -1.68541243e-004, -1.13130336e-004, 0., 0.,
          -3.31293937e-004, -3.65985150e-004, -2.84018664e-004,
          9.27065921e-005, -1.26349933e-005, 6.77959397e-005,
          -2.30286430e-004, 1.52538059e-005, 2.82456895e-004,
          2.40580004e-004, -7.83584619e-005, 1.25698585e-004,
          6.78020006e-005, 2.70569290e-004, 1.97716479e-004,
          -1.44827020e-004, 8.68742645e-005, 1.07628977e-004,
          3.83995539e-005, -1.82631658e-004, -1.09189554e-004,
          -1.61436852e-004, -1.76863541e-004, 2.62279180e-004,
          1.88982565e-004, 3.97081370e-004, 2.00467694e-004,
          -2.43640839e-004, -2.61591544e-004, -2.03808129e-004, 0., 0.,
          3.79198318e-005, -9.69819084e-005, -1.83156335e-005,
          1.91419123e-004, -1.60132011e-004, -2.45454303e-005,
          2.53755017e-004, 1.76839003e-005, -1.59292307e-004,
          2.21675145e-005, -1.01419164e-005, 5.97174403e-005,
          -1.47192273e-004, 7.62724667e-005, 3.54864460e-005,
          -4.89019381e-004, 5.66401322e-005, 1.44088845e-004,
          -4.81042589e-005, -1.61110202e-005, 1.09941036e-004,
          8.64701451e-006, -1.28160929e-004, -1.97252666e-004,
          9.21112514e-005, 4.56263988e-005, -7.52790656e-005,
          -6.49452704e-005, 3.68164074e-005, 1.43849466e-004, 0., 0.,
          1.07318949e-004, 2.24377582e-004, 2.45610921e-004,
          1.06766871e-004, 8.00759881e-005, 2.49269273e-004,
          2.62499088e-004, 1.78102622e-004, -2.56674339e-005,
          1.86260368e-004, 1.77643145e-004, 2.17893714e-004,
          4.81852076e-005, 2.59467808e-004, 3.21474145e-005,
          -4.01439291e-004, -2.96783255e-004, -2.70676333e-004,
          3.58650752e-004, -8.58510975e-005, -3.23110085e-004,
          -1.31248933e-004, -1.22531901e-005, -2.71532372e-005,
          3.08850322e-005, -5.56928971e-005, -4.95855871e-004,
          -3.22501524e-004, 4.73751534e-005, 2.12652623e-004, 0., 0.,
          -2.70372315e-004, -2.60492816e-004, -1.02382488e-004,
          3.75209966e-005, 1.74365588e-004, -1.62058150e-005,
          -1.98587237e-004, 1.50076332e-004, 1.12467300e-004,
          -1.87988815e-004, -3.63186132e-007, 2.63753842e-004,
          4.59208240e-004, 2.43979419e-004, -1.42752382e-004,
          3.00447900e-005, 4.38194984e-005, -1.31834735e-004,
          1.69851832e-004, 1.34328890e-004, 4.09047730e-004,
          -4.27015802e-005, 7.55789297e-005, -2.09472826e-004,
          2.08625221e-004, -2.57350021e-005, -1.36213872e-004,
          -1.66214624e-004, 1.22930869e-004, 3.62742052e-004, 0., 0.,
          -1.15519426e-004, 1.96241177e-004, 9.88399843e-005,
          -8.62118686e-005, -1.11576039e-004, -3.40291415e-004,
          -4.06508101e-004, -2.95023696e-004, 6.53796378e-005,
          4.60086740e-005, -8.13940424e-005, 8.74237012e-005,
          2.06943907e-004, 1.93448286e-004, 8.39177883e-005,
          1.07740816e-005, -4.10537701e-004, -1.86874357e-004,
          5.15943284e-005, 4.85355413e-005, 3.45510634e-005,
          -9.80206169e-005, -1.32389192e-004, -2.58218613e-004,
          -1.89672937e-004, -3.22724751e-004, -2.30615682e-004,
          1.26782499e-004, 6.14846140e-005, 1.88459031e-004, 0., 0.,
          -3.50342452e-005, 2.51354533e-004, 1.26949162e-004,
          -1.22924088e-004, -1.53585119e-004, -2.50299763e-005,
          3.40017978e-005, -4.62144468e-004, 2.58697401e-004,
          -2.49143312e-004, -2.47351825e-004, 3.97282383e-005,
          -2.79990854e-005, 1.27098596e-004, -1.84021555e-004,
          1.32432979e-004, -8.55490289e-005, -2.76066654e-004,
          -2.36891443e-004, -1.34532180e-004, 1.29035863e-004,
          -1.84095799e-004, -4.72294887e-005, 1.56117254e-004,
          1.71702777e-005, -4.00024641e-004, 1.92356194e-004,
          2.95698328e-006, 3.62069026e-004, 2.22298258e-004, 0., 0.,
          -1.09385692e-004, -2.56797997e-004, -1.90890540e-004,
          3.66965018e-004, 1.34530892e-005, -1.30891072e-004,
          6.88696964e-005, -3.15186393e-004, 2.92833458e-004,
          -1.31950903e-004, 7.27522565e-005, 5.21896800e-005,
          -4.69894803e-005, -8.58095809e-005, 4.03211707e-005,
          3.98598873e-004, -3.20604995e-005, 1.54249938e-004,
          -3.73922740e-005, 5.21196125e-005, 3.35416815e-004,
          3.30139534e-004, 1.86876699e-004, 4.99800080e-004,
          5.56635903e-004, 3.14233825e-004, 1.21459067e-004,
          7.24500569e-005, 4.53962166e-005, 1.78807240e-004, 0., 0.,
          -2.17141365e-004, 2.70879478e-004, -3.09169081e-005,
          2.20592672e-004, -3.99460769e-005, -2.06724755e-004,
          -2.04382479e-004, -5.48831944e-004, 7.83000069e-005,
          7.29604290e-005, -2.26050222e-004, -1.46249935e-004,
          -8.39549175e-005, -1.31762808e-005, -1.42623627e-004,
          3.69097921e-004, 2.51560796e-005, 2.13745981e-004,
          -3.21687221e-005, -1.31472098e-005, 3.27807065e-004,
          8.49024291e-005, 1.67775303e-004, 1.89602986e-004,
          2.30663602e-004, 2.59209395e-004, 7.48178718e-005,
          4.24626814e-005, -1.15290954e-004, 4.77163005e-004, 0., 0.,
          -1.15587842e-004, 1.57326838e-004, -5.15386091e-005,
          -1.76841699e-004, 4.42722103e-006, 5.12051702e-005,
          1.13100868e-004, -1.79871655e-004, -4.40405653e-004,
          -1.67166756e-004, -2.10995022e-005, 1.40883101e-004,
          -1.73356690e-004, -5.52953024e-005, -5.29607496e-005,
          2.27851982e-004, -1.29428927e-005, 8.95855119e-005,
          -4.22895173e-005, 1.56382976e-005, 2.05970675e-004,
          6.66990454e-005, 1.67001926e-004, 2.14404747e-004,
          4.24038997e-004, 1.59415169e-004, 2.11953055e-004,
          1.86937497e-004, 9.02380052e-005, 1.21568206e-004, 0., 0.,
          -3.78162018e-004, -2.12166415e-004, 1.16814357e-004,
          3.30364535e-004, -6.75196497e-006, -4.82287869e-005,
          -2.70367571e-004, 2.06937352e-006, -2.97221995e-004,
          -1.45125043e-004, 1.53002999e-004, 1.07538253e-004,
          -6.60421865e-005, 1.64156139e-004, 2.78373278e-004,
          3.83630977e-004, 4.73446562e-007, -6.04250235e-005,
          -3.86615684e-005, 2.34618885e-004, 9.57149950e-007,
          1.42751975e-004, 1.54698981e-004, 8.46717958e-005,
          2.14046348e-004, 1.58374733e-005, 5.01708491e-005,
          3.38574348e-004, -2.30786682e-005, -2.95562895e-005, 0., 0.,
          0., 0., 0., 0., 0., 0., 0., 0., 0., 0., 0., 0., 0., 0., 0., 0.,
          0., 0., 0., 0., 0., 0., 0., 0., 0., 0., 0., 0., 0., 0., 0. ]
      - [ 0., 0., 0., 0., 0., 0., 0., 0., 0., 0., 0., 0., 0., 0., 0., 0.,
          0., 0., 0., 0., 0., 0., 0., 0., 0., 0., 0., 0., 0., 0., 0., 0.,
          0., 5.48369353e-005, 3.03280889e-004, 2.42543771e-004,
          -1.78586080e-004, -9.02520624e-005, -1.01589158e-005,
          -1.45863276e-004, 6.51883092e-005, 1.64969431e-004,
          2.77826603e-005, 5.81308632e-005, 4.73894979e-005,
          -2.14544591e-004, -1.95248896e-004, -8.66056143e-005,
          1.29437016e-004, 1.15607378e-004, -3.82287944e-005,
          2.44276162e-004, 2.47887103e-004, 1.47308339e-004,
          8.10489146e-005, -5.77112150e-005, 8.30471181e-005,
          2.05153221e-004, 1.57883173e-004, -1.95734283e-005,
          8.50818324e-005, -6.97653513e-006, 8.88307331e-005, 0., 0.,
          1.35658178e-004, -1.24123617e-004, -7.52717824e-005,
          1.64730125e-004, 1.57907358e-004, 1.13471033e-004,
          1.25091847e-005, -1.14974646e-005, -2.19226160e-004,
          -3.41501582e-004, -1.94847220e-004, -9.22457912e-005,
          -7.39425523e-005, -1.94670574e-005, 7.43351193e-005,
          -2.44120252e-004, -1.60296171e-004, 6.47157285e-005,
          -6.10156094e-005, 1.01944970e-005, 1.12924325e-004,
          9.88705287e-005, 8.32434671e-005, 1.69972423e-004,
          1.14280920e-004, 2.78693711e-004, -6.24345921e-006,
          1.71926498e-004, 1.42603749e-004, 3.29512492e-004, 0., 0.,
          -4.82290430e-004, -4.03567567e-004, -1.53382280e-004,
          9.77194941e-006, 1.65510632e-004, 4.66260273e-004,
          -1.41509026e-005, 2.02309631e-004, 3.52366660e-005,
          -2.30760445e-004, -3.41942767e-004, -2.89900636e-004,
          -2.21286988e-004, 1.84643304e-005, 5.32637896e-005,
          -7.17977528e-005, 1.76500562e-005, 4.89881932e-005,
          -1.46830862e-005, -3.51729504e-005, 1.19959717e-004,
          8.65886977e-005, 1.60968062e-004, 2.77192099e-004,
          -3.02840654e-005, -2.21587004e-004, -6.19087295e-005,
          1.55907794e-004, 2.02426978e-004, 2.24271265e-004, 0., 0.,
          -1.53691333e-004, -2.21317066e-004, -2.63431284e-004,
          -1.15487121e-004, -8.77612183e-005, 9.21900937e-005,
          -1.26342187e-004, 3.43574444e-004, 1.11837748e-004,
          -1.99415445e-005, 1.81022842e-004, -1.26594736e-004,
          -1.24332248e-004, -1.54430425e-004, -1.84458768e-004,
          -2.18024259e-004, 1.40925316e-004, 2.11083665e-004,
          5.33060665e-006, -9.66693392e-007, 4.52788518e-005,
          -2.27883793e-005, 1.81755851e-004, 1.46914026e-004,
          -7.33413472e-005, 2.36843352e-005, -1.54289111e-004,
          1.23686405e-004, 4.92069121e-005, 6.12442818e-005, 0., 0.,
          -1.11774527e-004, -1.21637968e-004, 9.74526993e-005,
          1.14295966e-004, 5.09897945e-005, -1.68961720e-004,
          -2.08818412e-004, -2.44784351e-005, 1.06023981e-004,
          8.20148780e-005, 2.36020715e-004, 4.98820773e-005,
          1.22478505e-005, 1.57462942e-004, -6.98910007e-005,
          -1.65586142e-004, 8.69028299e-005, 5.79250373e-005,
          5.26908025e-006, 7.71466657e-005, 2.69538450e-005,
          -2.84411963e-005, -2.32819566e-005, 1.17505035e-004,
          2.36320091e-004, 1.88360034e-004, 5.22855516e-005,
          3.62858591e-005, 4.79721566e-005, 1.50035528e-004, 0., 0.,
          3.85811254e-005, -4.69620318e-005, 1.38014730e-004,
          1.23665624e-004, 1.10866204e-004, 4.45299993e-005,
          -8.91507589e-005, -7.28624509e-005, 1.21520723e-004,
          -2.99562933e-004, -1.38929929e-004, 3.11867916e-005,
          1.88999504e-004, 1.27666295e-004, -5.61474189e-005,
          8.28687989e-005, 2.31568738e-005, 1.04241735e-004,
          4.83425611e-005, 1.41059048e-004, 1.52908935e-004,
          8.27669064e-005, 2.07132223e-004, 1.79406838e-004,
          2.08017926e-004, 1.82031763e-005, -1.23192687e-004,
          1.22006510e-004, 1.33106063e-004, 2.28405072e-004, 0., 0.,
          6.77226853e-005, 2.57554293e-005, 2.21000319e-005,
          6.56146949e-006, 5.76878883e-005, 8.56637780e-005,
          -2.54933148e-005, 1.37164679e-004, -1.79582144e-004,
          -1.01417158e-004, -1.47061975e-004, -4.40972617e-005,
          2.81283046e-005, -1.23778678e-004, -3.12689808e-005,
          -8.94481054e-005, 2.38336543e-005, 4.53181310e-005,
          1.24228973e-004, 5.45933544e-005, 5.29563040e-005,
          2.12688792e-005, 7.77132591e-005, 1.97656482e-004,
          1.20276836e-005, 7.54359280e-005, -6.83260441e-005,
          -1.52314373e-004, -4.74622029e-005, 1.03214436e-004, 0., 0.,
          -3.73002258e-004, -2.80461507e-004, -1.42705874e-004,
          -1.33586844e-004, -2.21390961e-004, -2.84585461e-004,
          -1.63239194e-004, 3.61857383e-005, 6.56971533e-005,
          5.46420597e-005, -1.67290327e-005, -3.94583776e-006,
          8.04084120e-005, -8.85062327e-005, -1.25499311e-004,
          4.57198985e-006, 1.27527572e-004, -1.99591232e-005,
          -1.43547359e-005, 1.97846864e-004, -3.24284410e-005,
          -1.50295469e-004, -2.38060980e-004, 9.54948409e-005,
          5.47507188e-005, -2.19025766e-004, 3.88442859e-005,
          -1.40057018e-004, 1.52445646e-004, 3.82688013e-005, 0., 0.,
          -2.75569364e-005, -1.13090435e-004, -1.17402742e-004,
          -3.49043054e-004, -9.49386231e-005, -1.34573784e-004,
          -1.53404704e-004, -2.28854013e-004, -2.08626996e-004,
          -1.36213494e-004, -4.21893637e-005, -3.69852860e-005,
          9.53027993e-005, 4.48483952e-005, 9.11927236e-006,
          1.54563430e-004, 1.74975958e-005, 5.97810977e-005,
          -9.59816898e-005, -5.23086874e-006, 3.30668903e-004,
          8.96478668e-005, 2.48593977e-004, -2.13796549e-004,
          -1.35034225e-005, 2.07420715e-004, 4.48968894e-005,
          -1.11155117e-004, 4.16967850e-005, 4.68200378e-005, 0., 0.,
          -2.00803042e-004, -1.17068346e-004, -7.86817036e-005,
          -4.12781403e-004, -2.60433328e-004, -1.54384834e-004,
          -3.59729835e-004, 1.70647792e-004, -1.52260356e-004,
          -2.76160863e-005, -1.02342892e-004, -9.12539181e-005,
          2.36459728e-005, 4.86363133e-005, -1.87221551e-004,
          3.82272374e-005, 5.75228296e-005, 2.56664032e-004,
          -9.10301533e-005, 1.10594801e-005, -1.72910804e-004,
          -2.57765903e-004, -2.21233786e-004, -7.76598608e-005,
          -9.95853115e-005, 1.94829281e-005, 1.57751885e-004,
          6.83276739e-005, -9.41785220e-006, 1.71747393e-004, 0., 0.,
          -3.01506021e-004, -1.35047303e-004, 1.43445068e-005,
          -2.88502924e-004, -2.10168277e-004, -1.02405298e-004,
          -1.93974833e-004, -1.13006383e-004, -1.62049146e-005,
          -1.30703964e-004, -1.21095227e-005, 3.65326850e-005,
          6.99601587e-005, 9.13839613e-005, 1.04185841e-004,
          2.54858838e-004, 1.53022687e-004, 1.37477153e-004,
          1.53696223e-004, -5.55405823e-005, 1.07675703e-004,
          -4.23649108e-005, -1.83223325e-004, 2.03309624e-004,
          -1.27540494e-004, -5.48254284e-005, 1.21198398e-004,
          5.48337339e-005, 2.20272093e-004, 2.35222731e-004, 0., 0.,
          1.01547179e-004, 1.65101112e-004, 2.45112577e-004,
          4.97556539e-005, -2.02396055e-004, -7.28533414e-005,
          -1.12926318e-004, -1.41336443e-006, -1.92548119e-004,
          -2.66969611e-004, -1.60314972e-004, 3.64181615e-005,
          5.78596191e-005, -3.97930307e-005, 4.74580083e-005,
          1.97322777e-004, -1.40593720e-005, 1.58425610e-004,
          -2.29102210e-004, 4.41478051e-006, 3.21392545e-005,
          1.42013145e-004, 3.77090946e-005, 1.72023909e-004,
          -2.37814238e-005, 5.39708199e-005, 1.17336604e-004,
          -1.25799352e-005, -6.82110767e-005, -3.18183651e-004, 0., 0.,
          -2.90229946e-004, -3.87492473e-005, 2.69455631e-005,
          2.90474272e-005, -8.08141849e-005, -3.12905933e-004,
          -1.75333291e-004, 6.44820489e-007, -1.13589020e-004,
          -8.84907331e-006, 1.55767775e-005, 4.87453362e-005,
          -3.75307218e-006, -7.21811957e-005, -3.05987691e-004,
          -1.00809659e-004, -1.87327969e-004, 9.91729685e-005,
          -8.29380806e-005, 4.77118228e-005, -1.63166304e-004,
          -8.71551892e-005, 8.44806200e-005, 5.38743261e-005,
          -1.32428700e-004, 3.98721422e-005, 6.25874090e-005,
          2.88271171e-004, 2.45403760e-004, 1.05896230e-004, 0., 0.,
          -2.88007199e-004, 1.70522748e-004, 2.39451270e-004,
          -1.81872005e-004, -6.25402663e-006, -2.92941950e-005,
          -3.80928133e-004, -1.82570977e-004, 6.95095423e-006,
          1.41488184e-004, 3.47197638e-005, -3.57556710e-005,
          -6.57377896e-005, 7.18710289e-005, 5.30730249e-005,
          1.66669415e-004, -1.02317563e-005, 2.12335770e-004,
          2.71033205e-004, -1.81973723e-004, 4.05377250e-005,
          -1.02637641e-004, -1.69956911e-004, -1.16362775e-004,
          6.07386137e-005, 2.11576698e-004, 4.50365100e-004,
          -4.67606187e-005, 5.61453380e-005, 1.23735517e-004, 0., 0.,
          -2.39024186e-004, 9.64322608e-005, -2.34098370e-005,
          -1.80087140e-004, -1.24900791e-004, -1.79292751e-004,
          -1.28059604e-004, -8.09778139e-005, -1.69505118e-004,
          -3.44171509e-004, -3.44750442e-004, 1.08417815e-004,
          -1.12407550e-004, 1.91619183e-004, -2.15326014e-004,
          -2.04813026e-004, -1.04029306e-004, 6.02574837e-005,
          -1.75555178e-004, -4.28006788e-005, -5.51210796e-005,
          -3.75494637e-005, -1.08722779e-004, -1.48690262e-004,
          -1.93036467e-005, -2.38925903e-004, -1.21693236e-004,
          -1.72764150e-004, -1.78693699e-005, 5.70211450e-005, 0., 0.,
          -9.34695563e-005, 3.88682020e-005, -5.70243501e-005,
          3.85326239e-005, 3.84566629e-005, -6.11947617e-005,
          -2.63479364e-004, -6.38512647e-005, -1.26767991e-004,
          -3.05258145e-005, -4.02284932e-005, 2.07429784e-005,
          -2.01849471e-004, 9.17836151e-005, 6.03682456e-005,
          -9.81633202e-005, 3.13572556e-004, 1.41385724e-004,
          -1.50688225e-004, -3.59133293e-004, -6.73831164e-005,
          -8.45914619e-005, -7.20378102e-006, 2.45946394e-005,
          2.24596093e-004, 1.84486082e-004, -2.20835936e-005,
          1.27802414e-004, 3.40835322e-005, -2.20137736e-004, 0., 0.,
          -1.47792016e-004, -2.00580136e-004, -2.78010004e-004,
          -8.26371179e-005, -2.43355353e-005, -2.99074891e-005,
          1.03657156e-004, -3.22640903e-004, -3.04377700e-005,
          3.25314431e-006, -2.44250346e-004, -8.24382732e-005,
          1.41787270e-004, 1.67429418e-004, -7.89038386e-005,
          6.14374876e-005, 2.23660281e-005, -1.48377105e-004,
          -3.17691767e-004, -1.62571523e-004, 1.09816268e-004,
          -8.10168058e-005, 3.89699926e-005, -9.04786721e-005,
          -1.00454788e-004, -1.02640442e-005, -8.87114729e-005,
          -2.43041018e-006, 6.84955448e-005, -1.05305080e-004, 0., 0.,
          -2.87934818e-004, -2.05916858e-005, -1.70483108e-004,
          -7.82147763e-005, -2.08122059e-004, -2.17265857e-004,
          -4.46256599e-004, -2.82562483e-004, -2.41421672e-004,
          -1.54889902e-004, -3.51374888e-006, -1.32981964e-004,
          -1.56419148e-004, -8.56904298e-005, -2.41745947e-004,
          -4.47134480e-005, -8.76023041e-005, -8.31871585e-005,
          -3.90308473e-004, -2.04713957e-004, -1.54627269e-004,
          -2.83433124e-004, -1.53599685e-004, -9.80949117e-005,
          5.11834623e-005, -1.98848793e-004, -2.63071590e-004,
          4.26801234e-005, -7.58559399e-005, -1.71169639e-004, 0., 0.,
          1.80674488e-005, -2.06621689e-006, -3.14382055e-006,
          7.09589585e-005, -1.17385018e-004, 3.12855409e-005,
          -2.25066033e-005, 1.19604947e-005, -1.80196686e-004,
          -1.93240212e-005, -2.34890715e-004, -1.55374044e-004,
          9.26908688e-005, 9.64620122e-005, 1.85804864e-004,
          -1.16972224e-004, -1.86005986e-004, 1.98959184e-004,
          -1.38162040e-005, -1.43153506e-004, -2.81896704e-004,
          6.54010655e-005, -1.82234799e-004, 6.80070516e-005,
          1.27309759e-004, -3.50219634e-005, 1.16000745e-004,
          -2.15873850e-004, -3.73795119e-005, -2.39107230e-005, 0., 0.,
          -4.17955525e-005, 1.31060197e-005, -2.60636472e-004,
          -6.87676002e-005, -1.01909623e-004, -7.38006420e-005,
          -1.48609703e-004, -6.49153226e-005, 3.37706842e-005,
          3.11195181e-005, -1.21117104e-004, -1.81998956e-004,
          -2.55357474e-004, 1.27464140e-004, -5.03945485e-005,
          -4.89577833e-005, -4.94965097e-005, -2.64320261e-004,
          -6.48309142e-005, -1.37446186e-004, -1.40637712e-004,
          2.44481314e-004, 4.32063389e-005, -7.78175163e-005,
          -2.14530810e-004, 2.19247922e-005, 3.65214335e-004,
          -1.17827054e-004, 7.81109993e-005, -3.47455411e-004, 0., 0.,
          -1.59935313e-004, 4.86113931e-005, 1.53919464e-004,
          1.23090285e-004, 7.60897092e-005, 1.01984369e-004,
          -2.49270270e-005, 1.27957232e-004, -8.75427286e-005,
          4.97270548e-006, 6.79870282e-005, 2.23593132e-004,
          1.25400529e-005, 6.67189306e-005, -1.50335136e-005,
          -1.11071873e-004, -3.03444249e-004, 5.00167189e-005,
          -1.98615780e-005, -3.01031920e-004, -3.74948693e-004,
          6.13245211e-005, -1.01964491e-004, -2.22145478e-004,
          -2.53072096e-004, 1.52629764e-005, 4.56018934e-005,
          -6.47528650e-005, -6.72520837e-005, -6.84072074e-005, 0., 0.,
          -1.67143662e-004, -4.00366807e-005, 2.53877341e-004,
          1.28403582e-004, 7.97129396e-005, 9.20114762e-005,
          7.63836870e-005, 2.17730965e-004, 5.87307550e-005,
          -2.87740440e-005, -4.77684580e-006, 1.65687758e-004,
          -3.42304593e-005, 8.78144347e-005, 7.42300472e-005,
          -5.98640981e-005, 2.79537362e-005, 2.35863772e-005,
          -5.17464177e-005, -2.57349166e-004, -3.06035421e-004,
          1.23552309e-004, -2.51578749e-005, -1.12857560e-004,
          -1.84276738e-004, -1.89825456e-004, -7.68289974e-005,
          -1.12317473e-004, -1.92477251e-004, -4.25094149e-005, 0., 0.,
          -1.08461791e-005, 1.54423338e-004, 1.16407769e-004,
          5.78241270e-005, 1.90891966e-004, 9.38846933e-005,
          -1.39604908e-005, 3.53164214e-004, 1.42098492e-004,
          8.22853108e-005, -1.55552960e-004, -3.18715538e-005,
          -4.05470309e-005, 2.29294819e-004, 2.10944359e-004,
          3.40130646e-005, -1.40904085e-004, -4.92564541e-005,
          1.21091332e-004, -3.75062664e-005, -3.73383868e-004,
          -2.11827661e-004, -1.68401064e-004, 1.46492326e-004,
          -1.23368663e-004, 4.45055557e-005, -1.83479118e-004,
          -1.16554940e-004, -2.39518995e-004, -1.24636194e-004, 0., 0.,
          3.99826298e-004, 3.03874695e-004, 1.86001402e-004,
          2.16743356e-004, 9.65061045e-005, 1.80976145e-004,
          1.47039595e-004, -1.45685350e-004, 2.61294219e-004,
          6.01255560e-005, 9.91779598e-005, 1.04640145e-004,
          9.92055429e-005, 1.72370041e-004, 2.26040618e-004,
          -4.87646867e-005, 1.44301084e-004, -4.15805189e-005,
          -6.66634442e-005, 1.72667016e-004, -3.69396366e-005,
          -7.09739397e-005, 1.78433074e-005, -1.46739199e-004,
          1.19075492e-004, 3.91235917e-005, -4.30237706e-005,
          -1.08353095e-004, -4.41791453e-005, 8.32457954e-005, 0., 0.,
          7.84202493e-005, 1.80625808e-004, -1.08809720e-004,
          4.05658968e-004, 2.41554604e-004, -1.16961992e-005,
          1.35048409e-004, 1.69047034e-005, 2.09059508e-004,
          3.05767986e-004, 1.41443466e-004, 9.62639024e-005,
          1.56720780e-005, -1.12252397e-004, -7.38672898e-005,
          7.24594793e-005, 4.77444992e-005, 1.11331030e-006,
          -1.92680600e-004, 1.24798054e-004, -5.11525359e-005,
          -5.72916288e-005, -2.16935572e-004, -4.55162779e-004,
          5.31316891e-006, -1.10753870e-004, -2.34623090e-004,
          -1.49813815e-004, -1.77982030e-004, -8.93079268e-005, 0., 0.,
          5.82096218e-005, 7.39127790e-005, 6.21372055e-006,
          1.26724277e-004, 2.63843867e-005, 1.23107748e-004,
          1.10195026e-004, -6.71391099e-005, 2.36477761e-004,
          -1.02619386e-004, 2.99034582e-005, 1.04810046e-004,
          -1.08187531e-004, 2.67573894e-004, -2.86093618e-005,
          4.67293721e-005, 1.51551809e-004, 3.16761871e-005,
          -3.81878286e-004, -2.01423740e-004, -3.15499812e-004,
          -1.36931412e-004, -2.56789295e-004, -3.87215783e-004,
          7.92817955e-005, -3.84979474e-004, -2.35568528e-004,
          -2.64046044e-004, -2.66159652e-004, 7.21045071e-005, 0., 0.,
          2.13282488e-004, 1.94828666e-004, 9.17153811e-005,
          1.72780390e-004, 1.05986383e-005, -1.69758889e-004,
          1.50625579e-004, 4.06710897e-005, 2.33467799e-004,
          -4.67005411e-005, -3.44407345e-005, 3.55811033e-004,
          2.19677240e-005, 3.40578408e-004, 5.19767986e-004,
          6.85907580e-005, 1.32587360e-004, -2.50419944e-005,
          -1.17586074e-004, 2.09206613e-004, -8.65079128e-005,
          -1.18335134e-004, 1.40358272e-004, -3.24857974e-005,
          2.43090151e-004, 7.54154389e-005, 3.02055669e-005,
          9.00664236e-005, -2.57900276e-004, 7.29731473e-005, 0., 0.,
          1.51733140e-004, 2.10553233e-004, -2.39554662e-004,
          6.13022639e-005, 1.00691432e-004, -2.37661166e-004,
          3.31478041e-005, -5.12355182e-005, 2.97976512e-004,
          1.70768122e-004, 2.00327904e-005, -1.11252986e-004,
          -1.29041786e-004, 1.17277894e-004, -1.92247335e-005,
          1.11494490e-004, 2.10132537e-004, 5.05052085e-005,
          -2.88939074e-004, 6.38850834e-005, -1.07304149e-004,
          -1.78007700e-004, -1.49109503e-004, -1.71764477e-004,
          -6.62485472e-005, -4.53814646e-005, -1.40726450e-004,
          -1.47369647e-004, -3.43190448e-004, -7.14646303e-005, 0., 0.,
          6.23666856e-005, 1.47421699e-004, 2.71587429e-004,
          1.32885194e-004, 3.03877132e-005, -8.37731059e-005,
          -6.25804532e-005, 1.73086926e-004, 1.36010683e-004,
          2.34718231e-004, 2.02492447e-004, 3.61331768e-004,
          -1.45841832e-005, 1.40829157e-004, 6.67714921e-005,
          4.14841634e-006, 2.22648960e-005, 2.00251132e-004,
          -9.46711880e-005, 2.73077429e-004, -4.18803720e-005,
          1.06718406e-004, 9.16032441e-005, 2.05001867e-004,
          1.91168647e-006, 2.34882827e-005, 1.04042134e-004,
          2.90114313e-005, -7.90236008e-005, -1.23617981e-004, 0., 0.,
          3.01716296e-004, -1.83332464e-004, -6.63592145e-005,
          3.83423496e-004, 1.03669816e-004, 3.81212129e-004,
          2.70142424e-004, -1.24151411e-004, 1.24706508e-004,
          1.66005520e-005, 1.63300545e-004, 1.32079309e-004,
          -7.49903256e-006, 1.07934611e-004, 1.47635437e-004,
          1.23685400e-004, 6.02704458e-005, -1.66966260e-004,
          -3.36517318e-004, 9.67016749e-005, -6.03359149e-005,
          2.41955222e-005, 1.88854930e-004, 3.19524523e-004,
          1.34257090e-004, -4.82710529e-005, 2.15770051e-004,
          4.71056919e-005, -1.99103335e-004, 1.13794085e-004, 0., 0., 0.,
          0., 0., 0., 0., 0., 0., 0., 0., 0., 0., 0., 0., 0., 0., 0., 0.,
          0., 0., 0., 0., 0., 0., 0., 0., 0., 0., 0., 0., 0., 0. ]
      - [ 0., 0., 0., 0., 0., 0., 0., 0., 0., 0., 0., 0., 0., 0., 0., 0.,
          0., 0., 0., 0., 0., 0., 0., 0., 0., 0., 0., 0., 0., 0., 0., 0.,
          0., -5.16446271e-005, 6.25203902e-005, 1.27860885e-005,
          -1.59030344e-004, -1.44837963e-004, -4.43781864e-005,
          -1.00780046e-004, -3.39618564e-005, -5.05169992e-005,
          -7.62054551e-005, -5.90757663e-005, 5.00133283e-005,
          -6.48243731e-005, -1.09382076e-004, -1.08545944e-004,
          6.40166472e-005, 9.38250814e-005, 1.31620487e-004,
          1.71316919e-004, 1.85146782e-004, 1.28387852e-004,
          2.18068410e-004, 8.22012080e-005, 2.05172430e-004,
          2.20054819e-004, 3.68476831e-005, -1.24898188e-005,
          1.66896862e-004, 2.32901744e-004, 2.35612737e-004, 0., 0.,
          3.29856375e-005, -1.65030360e-004, -8.08025725e-005,
          -2.04961598e-005, -5.31207697e-005, -1.71484899e-005,
          -1.43870944e-004, -5.27394732e-005, -4.38935858e-005,
          -2.17385532e-004, -1.54204608e-005, -2.18667665e-005,
          -6.48718269e-005, 4.53241446e-005, 1.48146055e-005,
          5.58225984e-005, 3.34026458e-006, 3.29956565e-005,
          3.90994574e-005, -4.04188431e-005, 1.21739824e-004,
          1.07768479e-004, 1.52451947e-004, 1.59803181e-004,
          1.29346110e-004, 3.85711210e-005, 4.64216755e-005,
          1.72561267e-004, 1.10306763e-004, 3.29070608e-004, 0., 0.,
          -2.35769970e-004, -1.77773851e-004, -1.52954017e-004,
          -4.80469453e-006, 3.00370757e-005, 3.47268906e-005,
          7.01007275e-006, 7.28565647e-005, -1.53835936e-005,
          -1.40989156e-004, -1.00791272e-004, -1.18201497e-004,
          -1.13968301e-004, -1.55326543e-005, 1.20360164e-004,
          2.19919515e-004, 8.31956277e-005, 2.29448469e-005,
          1.80999181e-004, 1.71807740e-004, 2.27216486e-004,
          2.34313673e-004, 1.49710017e-004, 1.39545067e-004,
          1.55847825e-004, -2.61653004e-005, 7.68220416e-005,
          2.55202525e-004, 3.14502511e-004, 1.81291733e-004, 0., 0.,
          -8.82023887e-005, -9.18679143e-005, -1.27786960e-004,
          -1.08286804e-004, -9.79275283e-005, -1.07758999e-004,
          -8.77106067e-005, 2.04623211e-004, -2.77792915e-005,
          -1.46215651e-004, 1.08944441e-005, -7.15878923e-005,
          2.97208735e-005, -4.13823000e-005, -5.52356414e-006,
          8.51931236e-006, 2.02362171e-005, 4.01501893e-005,
          4.10426110e-005, 1.25792976e-005, 1.63043951e-004,
          1.50701409e-004, 1.79042807e-004, 1.37602648e-004,
          1.51088252e-005, 2.51541005e-005, -1.02289538e-004,
          2.71747413e-004, 1.59879302e-004, 1.84588833e-004, 0., 0.,
          -7.22838959e-005, -4.59195599e-006, 5.01562181e-006,
          2.76868559e-005, -6.56721895e-005, -1.29991213e-005,
          -9.43359482e-005, -8.65911497e-005, 7.27905863e-005,
          -2.96136586e-005, 3.59815240e-005, 9.87835010e-005,
          -6.56277643e-006, 7.52511623e-005, 2.28155914e-005,
          -4.60757001e-005, 2.15704858e-004, 1.54455600e-004,
          1.71633699e-004, 1.37956784e-004, 9.35615681e-005,
          3.76044627e-005, 9.50233443e-005, 1.81540046e-004,
          1.49019921e-004, 9.52149057e-005, 1.85721237e-005,
          2.38241701e-004, 1.73952023e-004, 2.16491113e-004, 0., 0.,
          -1.62358047e-004, -7.08117586e-005, -1.43425859e-005,
          5.86666210e-005, -8.86873240e-005, -1.30588969e-005,
          -2.29884477e-004, -6.07851325e-005, -4.77615322e-005,
          -1.22531288e-004, 1.08753984e-005, 3.92191032e-005,
          2.18914811e-005, 2.51005840e-004, 3.90534078e-005,
          -1.22182493e-004, 7.56068694e-005, 1.17482617e-004,
          1.92096180e-004, 1.98253576e-004, 9.24073538e-005,
          5.28618511e-005, 1.33358481e-004, 1.50197651e-004,
          5.76734419e-005, -9.02683587e-006, -4.31345034e-005,
          3.19410407e-004, 1.75494875e-004, 1.54137553e-004, 0., 0.,
          -1.37594965e-004, 4.18695126e-005, 1.67042381e-005,
          2.31001995e-005, 8.53991369e-005, -3.13338205e-005,
          -3.07761934e-006, 1.51446686e-004, -9.35970893e-005,
          -1.29609238e-004, 2.30576425e-005, 8.47251067e-006,
          5.04069685e-005, 8.76627819e-005, 1.71074571e-004,
          -6.69692090e-005, 6.58325444e-005, 1.69717736e-004,
          2.11734499e-004, 1.38849617e-004, 1.39126656e-004,
          1.67177597e-004, 3.59205369e-005, 2.25935655e-004,
          -1.34061811e-005, -8.63313180e-005, -1.56686256e-005,
          1.06705280e-004, 1.12221387e-004, 1.71379201e-004, 0., 0.,
          -6.79337900e-005, -1.86498815e-004, 6.73331524e-005,
          -4.28646235e-005, 3.01158834e-005, -7.73903594e-005,
          6.05529749e-005, 9.32960975e-005, 6.19569037e-005,
          -1.65424179e-004, -2.02946321e-005, 1.40305710e-004,
          1.44013393e-004, -8.61211738e-005, -3.37883830e-005,
          2.29332709e-005, -2.03332511e-005, -5.06807628e-005,
          1.79241295e-004, 1.83900760e-004, 8.14720115e-005,
          -2.63858910e-005, -1.43497717e-004, 6.23219239e-005,
          9.09137379e-005, 2.35820062e-006, -3.43436950e-005,
          -7.64141296e-005, 3.49675673e-007, -8.08700861e-005, 0., 0.,
          8.11473274e-006, -2.56218937e-005, -1.70192201e-004,
          -1.70963132e-004, -1.14188930e-004, -1.91868181e-004,
          -4.14411588e-005, -1.57762464e-004, -4.87167245e-006,
          7.32232656e-005, -7.77771347e-005, 8.99269871e-005,
          6.54083633e-005, -5.48052594e-005, -1.25701539e-004,
          2.68970063e-004, 5.85465787e-005, -1.14426339e-005,
          1.71814972e-005, -1.35043110e-005, 2.55487161e-004,
          1.20743709e-004, 2.43535746e-004, 4.56892667e-006,
          1.12866954e-004, 5.77814935e-005, -8.59093634e-005,
          -1.26007406e-004, -1.39557116e-004, -3.55123630e-005, 0., 0.,
          1.22049132e-005, -1.26690415e-004, -5.57802523e-005,
          -9.40762475e-005, -1.97828966e-004, -1.04974599e-004,
          -1.92732041e-004, -5.21262700e-005, -4.45888363e-005,
          -1.93896740e-005, -7.92243372e-005, 1.13336619e-005,
          7.16056311e-005, 5.28778401e-006, -5.83458786e-005,
          -2.15119217e-005, 3.01642176e-005, 5.39324974e-005,
          6.35088145e-005, 4.70680170e-005, 2.04857861e-004,
          -9.03471955e-005, -1.04192790e-004, 4.08293090e-006,
          6.82229074e-005, 1.69091581e-004, 3.30697985e-005,
          -1.08013483e-005, 3.99461569e-005, 4.06839899e-005, 0., 0.,
          -7.59943941e-005, -7.53598724e-005, 2.11272054e-005,
          -2.37178665e-005, -6.55850818e-005, -4.89807826e-005,
          -8.38661799e-005, -5.18607048e-005, 8.29421188e-005,
          7.36733127e-005, -1.65152560e-005, -4.35364054e-005,
          -3.07794653e-005, 5.08747471e-005, 7.28370360e-005,
          4.44395700e-005, 1.03191931e-004, 1.20726138e-004,
          1.27073436e-004, 8.05723903e-005, 4.15732429e-005,
          -1.08991146e-004, -3.00177580e-005, 4.10884968e-005,
          -7.11482935e-005, 2.22884992e-005, -1.23302350e-004,
          4.01032594e-005, 8.35253104e-006, 3.78951481e-005, 0., 0.,
          3.82630715e-005, -5.91571961e-006, -1.76256508e-004,
          8.07163360e-006, 3.04325004e-005, 8.40128178e-006,
          -9.15974742e-005, -1.13347114e-005, -1.09795263e-004,
          -1.13772265e-004, -2.22570641e-004, -5.08938720e-005,
          -2.55151790e-005, -6.05575333e-005, -1.69386039e-004,
          9.57287648e-006, 1.04286926e-004, 2.36613021e-004,
          3.28500137e-005, 1.45765618e-004, 1.78235408e-004,
          7.73082429e-005, 1.22159800e-005, 6.55692420e-005,
          1.00052108e-004, 3.00909542e-005, 2.56627973e-005,
          -3.65618962e-006, 4.21399591e-006, -1.02983242e-004, 0., 0.,
          -1.48501626e-004, -1.34185775e-005, -1.17073068e-005,
          -4.79594819e-005, -1.35834285e-004, -2.24154384e-004,
          -1.02631711e-004, -7.88381149e-005, -9.22989875e-006,
          -2.66408970e-005, 2.05191136e-005, 2.11610641e-005,
          -2.15913897e-005, -1.01378850e-004, -1.67297563e-004,
          -5.52711754e-005, -2.05435033e-004, -6.16656398e-005,
          -4.55546478e-006, -1.59503397e-005, -1.18010212e-004,
          6.17870610e-005, 6.69864166e-005, 4.65531120e-005,
          -4.14193573e-006, -2.88051269e-005, 4.44599682e-005,
          5.65761729e-005, 8.86267662e-005, 9.63654020e-005, 0., 0.,
          -1.59321440e-004, -6.39509963e-005, -1.85065312e-006,
          -2.21588387e-004, -1.63296980e-004, 5.69703116e-005,
          -9.93056310e-005, -7.11348621e-005, 1.91731651e-005,
          1.15826340e-004, -3.38603655e-007, -1.19565244e-004,
          -2.29169527e-005, 4.78559377e-005, 9.35931166e-005,
          7.87415847e-005, -1.66977352e-005, 7.17960284e-005,
          -3.76789540e-005, -1.54969530e-004, -6.55023614e-005,
          -1.30946893e-004, -6.22190200e-005, -7.20310854e-005,
          1.76797967e-005, 5.83531619e-005, -3.77389324e-006,
          9.13883487e-005, 7.75512744e-005, 8.42861846e-005, 0., 0.,
          -1.10577574e-004, -1.49123007e-004, -5.65108312e-005,
          -2.64110218e-004, -1.82668649e-004, -1.37507232e-004,
          -1.01210811e-004, 5.94022204e-005, -1.39870579e-004,
          -2.15411172e-004, -7.52156338e-005, 9.07371432e-005,
          8.58564308e-005, 1.00895115e-004, -1.37186988e-004,
          6.28202106e-005, -2.05480465e-004, -1.56086127e-004,
          1.43380903e-005, 6.17209516e-005, 7.81452618e-005,
          4.21459845e-005, 2.96272465e-005, -6.25312168e-005,
          2.00659579e-005, -1.58647454e-004, -2.33654966e-004,
          -1.21085737e-004, -1.19121811e-004, -6.35335600e-005, 0., 0.,
          2.37527875e-005, 4.98321933e-005, 8.90588999e-005,
          1.18216551e-004, 1.01360660e-004, -6.01576539e-005,
          -1.77659414e-004, 6.95423296e-005, -4.26711449e-005,
          -9.98860341e-005, -2.48308570e-005, -9.95137088e-005,
          -2.01751955e-005, -7.25602949e-005, -3.04286095e-005,
          -2.45792820e-004, 1.42879333e-004, 1.97182118e-004,
          1.42198787e-005, -1.35326569e-004, -1.68054932e-004,
          -8.42642185e-005, 1.08327906e-004, 1.48870255e-004,
          1.04170045e-004, 1.01292462e-004, -1.26651548e-005,
          -6.40545331e-005, -8.79668733e-005, -1.80893054e-004, 0., 0.,
          7.83107243e-005, -1.43323996e-004, -1.28681451e-004,
          2.48837641e-005, 1.25480074e-004, 7.83540308e-005,
          1.01252099e-005, -8.54515310e-005, 7.59967079e-005,
          9.85278602e-005, -1.27969746e-004, -7.45867728e-005,
          -6.48896385e-005, 2.61586210e-005, 3.87527980e-005,
          9.78462485e-005, 6.37457342e-005, -9.18377482e-005,
          -1.60327792e-004, -1.32196001e-004, 2.14200427e-005,
          9.71091285e-005, 2.31998511e-005, 2.17615270e-005,
          -1.61090778e-004, -2.12063969e-004, -3.88258268e-005,
          5.03467054e-005, 3.49890433e-005, -4.89123086e-005, 0., 0.,
          1.48265332e-004, 6.13220909e-005, 6.93008842e-005,
          3.64493098e-005, 6.38201527e-005, 2.28380741e-005,
          -4.48028331e-005, -2.21626353e-004, 6.05927453e-005,
          1.23790000e-004, 3.45187218e-005, -1.03327417e-004,
          1.13398546e-005, -4.66520250e-005, -1.01290127e-004,
          8.82263412e-005, -3.39920043e-005, 7.71350024e-005,
          -4.49460240e-005, -7.08032587e-007, -3.30929688e-005,
          -1.14647810e-004, 6.54327669e-005, -1.50198801e-004,
          -1.68159768e-005, 6.46208282e-005, 2.25718941e-006,
          4.44798643e-005, -5.62773930e-005, -1.14060342e-004, 0., 0.,
          5.86415408e-005, 3.10081232e-005, 1.43414727e-004,
          8.86741618e-005, -1.75613386e-005, 5.47351556e-005,
          1.39182346e-004, 2.00844133e-005, -1.26248165e-006,
          -9.47837761e-005, -4.90066450e-005, -1.91842686e-004,
          6.29763372e-006, 1.14099585e-005, 1.70583284e-004,
          -1.06168300e-005, 1.14843438e-004, 1.72436674e-004,
          -4.46994782e-005, -1.54578505e-004, -1.69157531e-004,
          -4.63585957e-006, 2.45296324e-005, 1.52701512e-004,
          6.32248484e-005, -1.91766389e-006, 3.15182697e-005,
          -1.44166188e-004, -6.23423548e-005, -1.24644983e-004, 0., 0.,
          6.74286202e-005, -2.39252813e-007, 4.78306501e-005,
          4.48598694e-005, -1.50610549e-005, -2.32459115e-005,
          -6.62166758e-006, 1.65600839e-004, -6.74749162e-006,
          4.69236329e-005, -1.00638652e-004, -1.82634249e-004,
          -4.28110034e-005, -1.17841555e-005, -4.52273853e-005,
          4.01890466e-005, 7.59285904e-005, -8.05326781e-005,
          -1.52555891e-004, -1.40900665e-004, -4.41591037e-005,
          8.23743685e-005, 3.73259754e-005, 5.71910787e-005,
          -3.19158335e-006, 2.62426656e-005, 1.15131690e-004,
          2.96840062e-005, -8.57014766e-006, -2.16249158e-004, 0., 0.,
          5.73569559e-005, 1.12942122e-004, 1.90581908e-004,
          7.83510841e-005, 3.24679022e-005, -7.28957275e-006,
          -1.92138632e-005, 1.64689816e-004, -4.17543524e-005,
          -9.96997042e-005, 3.35020231e-005, 1.25881546e-004,
          -4.32116613e-005, 3.79283438e-006, 9.30564638e-005,
          -1.30853208e-004, -1.04141589e-004, -8.45933464e-005,
          -1.38864227e-004, -4.98507325e-005, -1.03002872e-004,
          2.51359652e-005, 4.01142242e-005, -6.87426145e-005,
          -7.03420883e-005, -1.06193591e-004, -9.45631764e-005,
          1.94366330e-005, -6.29914211e-006, 1.93603380e-004, 0., 0.,
          7.63018704e-007, 1.20200202e-004, 1.52853332e-004,
          1.47887549e-004, 9.69130415e-005, 6.75412521e-005,
          1.07179767e-004, -8.50876677e-005, 7.64709839e-005,
          4.96638677e-006, -5.67570278e-005, -1.50995929e-005,
          6.77438438e-005, 4.98194713e-005, 5.47461241e-005,
          -6.24136446e-005, -8.48910076e-006, -2.95535028e-005,
          -3.23622189e-005, -2.02161944e-004, -2.41331436e-004,
          -3.29189243e-005, -3.22810265e-005, -4.40383737e-005,
          -7.12422843e-005, -8.94080003e-005, -4.15877184e-005,
          -4.03142694e-005, -1.17258205e-004, -8.74950729e-006, 0., 0.,
          2.69311440e-005, 2.60325760e-005, -1.21706813e-004,
          7.08141524e-005, 1.28942178e-004, -3.59121295e-005,
          -1.12945716e-004, -1.44495179e-005, 8.87101778e-005,
          4.41434677e-005, 2.74041054e-006, -3.38629943e-005,
          -6.73687391e-005, -6.93486654e-005, 6.74851253e-005,
          2.45165051e-004, 6.80468802e-005, 1.47657984e-005,
          -9.20654275e-005, -1.72655709e-005, -8.29253113e-005,
          -1.34541508e-004, -1.26970903e-004, -1.23558575e-005,
          -9.92446003e-005, 1.43734869e-005, 4.40003059e-005,
          -6.37511403e-005, -2.50482408e-004, -1.61629272e-004, 0., 0.,
          3.60480219e-004, 2.70981953e-004, 1.71024745e-004,
          2.64692295e-004, 4.22380908e-005, 2.17019260e-004,
          2.09573045e-004, -3.93905502e-005, 2.04201773e-004,
          1.57137314e-004, 9.80864115e-006, 6.24098466e-005,
          -8.37147891e-005, -3.62866763e-006, 1.77671274e-004,
          -8.26715404e-005, 5.07864279e-005, 9.74659415e-005,
          -6.38118872e-005, -4.57396127e-005, -2.80692824e-004,
          -4.74117733e-005, -1.23065925e-004, -2.39840429e-005,
          -1.13118120e-004, -1.23092486e-005, -1.35807795e-006,
          -3.86589181e-006, -5.75279846e-005, -9.66340740e-005, 0., 0.,
          1.96311550e-004, 3.68577894e-005, -6.88784203e-005,
          3.81642370e-004, 2.65362323e-004, 1.35366863e-004,
          3.64207604e-004, 8.37339394e-005, 5.67625502e-005,
          5.78390827e-005, 4.92974796e-005, 5.04620366e-005,
          -7.34054847e-005, -1.63683100e-004, -6.49339854e-005,
          -1.17065538e-005, 1.35750146e-004, 1.13860835e-004,
          -7.09956657e-005, -1.16546071e-005, -8.46593903e-005,
          -2.36413689e-005, -6.57893688e-005, -1.12490001e-004,
          8.15878229e-005, 4.49639738e-005, 1.34860886e-006,
          -9.42912229e-005, -5.68271353e-005, -1.07045526e-004, 0., 0.,
          1.45954938e-004, -3.55607117e-005, -8.91762738e-006,
          1.56663955e-004, 1.20267556e-004, 2.27013763e-004,
          1.05709623e-004, 2.52991904e-005, -2.51074143e-005,
          3.50264527e-005, 1.22731741e-004, 3.97082877e-005,
          -5.46719530e-005, -1.48141844e-005, 3.74807714e-005,
          -7.14221387e-005, 4.84734483e-005, 6.84274928e-005,
          -1.49960688e-004, -2.08884740e-004, -1.81472831e-004,
          -2.67801570e-005, 3.04011501e-005, -2.67965399e-004,
          -4.84049963e-007, -3.16607839e-005, -1.82969045e-004,
          -1.80516057e-004, -2.24707284e-004, -1.06699517e-004, 0., 0.,
          2.93468009e-004, 1.92632622e-004, 7.38305462e-005,
          7.58343667e-005, 1.39673202e-005, -2.43028153e-005,
          1.16388510e-004, 1.02892569e-004, 4.97883702e-005,
          6.61173981e-005, 4.93949992e-005, 2.23623865e-004,
          1.08225810e-004, 1.80285162e-004, 2.52018828e-004,
          -3.48489593e-005, 5.29015342e-005, -3.12614175e-005,
          -2.70368346e-005, 1.32318222e-004, -2.01582108e-004,
          -2.49652250e-004, 5.18140132e-006, -2.29767640e-004,
          -1.65674996e-004, -1.68385261e-004, -3.00292468e-005,
          -6.54236574e-005, -1.32811925e-004, -9.69716857e-005, 0., 0.,
          3.51920433e-004, 1.80642892e-004, -6.02601503e-005,
          1.06676838e-004, 2.22627132e-004, 5.43338720e-005,
          2.39800909e-004, 1.73492343e-004, 1.99966875e-004,
          4.07053158e-005, 7.80366827e-005, -6.47060297e-005,
          -1.01240694e-004, 1.06518710e-004, 9.85629958e-005,
          -2.76513838e-005, 9.00961168e-005, 2.46371837e-005,
          -7.42877528e-005, 5.71461314e-005, -2.34195410e-004,
          -1.60354786e-004, -1.18770105e-004, -2.86735682e-004,
          -2.14501750e-004, -2.57168023e-004, -1.30571978e-004,
          -4.80583840e-005, -6.31274888e-005, -9.85153019e-005, 0., 0.,
          1.82494128e-004, 1.32499103e-004, 1.12369184e-004,
          1.30419707e-004, 7.32658809e-005, 8.61784611e-006,
          5.46223855e-005, 9.47906447e-005, 2.13894979e-004,
          1.50770196e-004, 7.58871029e-005, 1.71982523e-004,
          6.66243068e-005, 1.53527013e-004, 8.88174691e-005,
          -5.43163878e-005, 3.13765886e-005, 1.34386428e-004,
          1.16256194e-006, 1.54777998e-004, -7.46650912e-005,
          4.08648921e-005, 3.66871463e-005, -2.39443398e-005,
          -1.22139827e-004, -6.53523384e-005, -8.64618341e-005,
          -6.05663299e-005, -1.03130544e-004, -8.82298555e-005, 0., 0.,
          3.33052740e-004, 7.68582249e-005, -7.02701800e-006,
          2.00602750e-004, 4.41903903e-005, 2.39146801e-004,
          2.92180746e-004, -6.88880900e-005, 2.06629455e-004,
          1.12297086e-004, 7.20204844e-005, 1.72148953e-004,
          1.07344313e-004, 1.30526256e-004, 1.58515672e-004,
          -7.04681370e-005, -4.89382955e-006, -8.19232810e-005,
          -1.16476840e-004, -1.21851212e-006, -2.19815811e-005,
          3.47370951e-005, 1.09204688e-004, 1.05584157e-004,
          -5.38803615e-005, -1.14032176e-004, 1.74505712e-005,
          -3.05880094e-005, -1.58346520e-004, 9.87877211e-005, 0., 0.,
          0., 0., 0., 0., 0., 0., 0., 0., 0., 0., 0., 0., 0., 0., 0., 0.,
          0., 0., 0., 0., 0., 0., 0., 0., 0., 0., 0., 0., 0., 0., 0. ]
   decision_functions:
      -
         sv_count: 1
         rho: -1.7332488449452716e+000
         alpha: [ 1. ]
         index: [ 0 ]
      -
         sv_count: 1
         rho: -1.4204409537742242e+000
         alpha: [ 1. ]
         index: [ 1 ]
      -
         sv_count: 1
         rho: 4.3477799565068143e-001
         alpha: [ 1. ]
         index: [ 2 ]
